{"learner":{"attributes":{"best_iteration":"89","best_ntree_limit":"90","scikit_learn":"{\"n_estimators\": 90, \"objective\": \"reg:squarederror\", \"max_depth\": 8, \"max_leaves\": null, \"max_bin\": null, \"grow_policy\": null, \"learning_rate\": null, \"verbosity\": null, \"booster\": null, \"tree_method\": null, \"gamma\": null, \"min_child_weight\": null, \"max_delta_step\": null, \"subsample\": 0.7, \"sampling_method\": null, \"colsample_bytree\": 0.8, \"colsample_bylevel\": null, \"colsample_bynode\": null, \"reg_alpha\": null, \"reg_lambda\": null, \"scale_pos_weight\": null, \"base_score\": null, \"missing\": NaN, \"num_parallel_tree\": null, \"random_state\": null, \"n_jobs\": null, \"monotone_constraints\": null, \"interaction_constraints\": null, \"importance_type\": null, \"gpu_id\": null, \"validate_parameters\": null, \"predictor\": null, \"enable_categorical\": false, \"feature_types\": null, \"max_cat_to_onehot\": null, \"max_cat_threshold\": null, \"eval_metric\": null, \"early_stopping_rounds\": null, \"callbacks\": null, \"kwargs\": {\"eta\": 0.1}, \"evals_result_\": {\"validation_0\": {\"error\": [-1.4665568879813202, -1.497461462070134, -1.4960676155799677, -1.4953953463676548, -1.490326369596907, -1.491635991029503, -1.4930298375196693, -1.491635991029503, -1.491635991029503, -1.491635991029503, -1.491635991029503, -1.491635991029503, -1.4937021067319822, -1.491635991029503, -1.491635991029503, -1.491635991029503, -1.491635991029503, -1.491635991029503, -1.4937021067319822, -1.4957682224344615, -1.4937021067319822, -1.4937021067319822, -1.4937021067319822, -1.4937021067319822, -1.4937021067319822, -1.4940014998774884, -1.4960676155799677, -1.4960676155799677, -1.4960676155799677, -1.4960676155799677, -1.4960676155799677, -1.4960676155799677, -1.4960676155799677, -1.4960676155799677, -1.4960676155799677, -1.4960676155799677, -1.4940014998774884, -1.4940014998774884, -1.4940014998774884, -1.4960676155799677, -1.4960676155799677, -1.4960676155799677, -1.4960676155799677, -1.4960676155799677, -1.4960676155799677, -1.4960676155799677, -1.4960676155799677, -1.4960676155799677, -1.4960676155799677, -1.4960676155799677, -1.4960676155799677, -1.4960676155799677, -1.4960676155799677, -1.4960676155799677, -1.4960676155799677, -1.4960676155799677, -1.4960676155799677, -1.4960676155799677, -1.4960676155799677, -1.4960676155799677, -1.4960676155799677, -1.4960676155799677, -1.4960676155799677, -1.4960676155799677, -1.4960676155799677, -1.4960676155799677, -1.4960676155799677, -1.4960676155799677, -1.4960676155799677, -1.4960676155799677, -1.4960676155799677, -1.4960676155799677, -1.4960676155799677, -1.4960676155799677, -1.4960676155799677, -1.4960676155799677, -1.4960676155799677, -1.4960676155799677, -1.4960676155799677, -1.4960676155799677, -1.4960676155799677, -1.4960676155799677, -1.4960676155799677, -1.4960676155799677, -1.4960676155799677, -1.4960676155799677, -1.4960676155799677, -1.4960676155799677, -1.4960676155799677, -1.4960676155799677], \"logloss\": [-1.2507640746506778, -25.51530372927135, -42.79567728243953, -48.6033154063327, -51.15458338076541, -53.12027639502367, -54.38148443929792, -55.034461306496866, -55.58122692583129, -55.91799173079752, -56.08208405440827, -56.24492740263192, -56.586811530526944, -56.72154396299796, -56.79412395729537, -56.86836453389438, -56.91735601185028, -56.96016731591172, -57.014499497269895, -57.06527657219217, -57.08407970343539, -57.20001756070059, -57.21819365652824, -57.222399348134275, -57.255115071678155, -57.27020074072157, -57.32598040551948, -57.34168832672929, -57.3523270905649, -57.33935382723624, -57.32460129309507, -57.345782833543325, -57.377184927232626, -57.39970880198823, -57.40537480879113, -57.410637374551705, -57.41646778271803, -57.4207490502341, -57.41640552715206, -57.435146769000724, -57.42596337651018, -57.429951013858656, -57.43547950273241, -57.43313837176081, -57.434843911904814, -57.435909863084184, -57.43709750726727, -57.43874437194164, -57.441428851890414, -57.445832571122516, -57.448455664436985, -57.44849948541931, -57.45033265109182, -57.46815341901157, -57.44975119642144, -57.46714443534859, -57.46714902165815, -57.46641518939133, -57.46596195020767, -57.5298130525938, -57.531302956895026, -57.532767914343346, -57.507917434454335, -57.53313372116382, -57.533676283695726, -57.534460579868686, -57.53548864720097, -57.53521562867975, -57.535660606508785, -57.536066588476174, -57.53684625460589, -57.53683263508311, -57.537455856984806, -57.537597030632135, -57.538256464264364, -57.538250633045905, -57.53868260433174, -57.53887926767126, -57.53894627211261, -57.538846314307456, -57.539167086124294, -57.5397608405795, -57.51509011983256, -57.53969743507645, -57.54002654729488, -57.54105945748916, -57.5413189692315, -57.51957225879608, -57.54070713868257, -57.54105873664549]}}, \"_estimator_type\": \"regressor\"}"},"feature_names":["PSD_slope","Picophytoplankton","Nanophytoplankton","Microphytoplankton","AOU","MLD","CHL","Phosphates","Silicates","Nitrates","Temperature","Iron","PAR","Aerosol_thickness","DUWT001","SLA","FSLE"],"feature_types":["float","float","float","float","float","float","float","float","float","float","float","float","float","float","float","float","float"],"gradient_booster":{"model":{"gbtree_model_param":{"num_parallel_tree":"1","num_trees":"360","size_leaf_vector":"0"},"tree_info":[0,1,2,3,0,1,2,3,0,1,2,3,0,1,2,3,0,1,2,3,0,1,2,3,0,1,2,3,0,1,2,3,0,1,2,3,0,1,2,3,0,1,2,3,0,1,2,3,0,1,2,3,0,1,2,3,0,1,2,3,0,1,2,3,0,1,2,3,0,1,2,3,0,1,2,3,0,1,2,3,0,1,2,3,0,1,2,3,0,1,2,3,0,1,2,3,0,1,2,3,0,1,2,3,0,1,2,3,0,1,2,3,0,1,2,3,0,1,2,3,0,1,2,3,0,1,2,3,0,1,2,3,0,1,2,3,0,1,2,3,0,1,2,3,0,1,2,3,0,1,2,3,0,1,2,3,0,1,2,3,0,1,2,3,0,1,2,3,0,1,2,3,0,1,2,3,0,1,2,3,0,1,2,3,0,1,2,3,0,1,2,3,0,1,2,3,0,1,2,3,0,1,2,3,0,1,2,3,0,1,2,3,0,1,2,3,0,1,2,3,0,1,2,3,0,1,2,3,0,1,2,3,0,1,2,3,0,1,2,3,0,1,2,3,0,1,2,3,0,1,2,3,0,1,2,3,0,1,2,3,0,1,2,3,0,1,2,3,0,1,2,3,0,1,2,3,0,1,2,3,0,1,2,3,0,1,2,3,0,1,2,3,0,1,2,3,0,1,2,3,0,1,2,3,0,1,2,3,0,1,2,3,0,1,2,3,0,1,2,3,0,1,2,3,0,1,2,3,0,1,2,3,0,1,2,3,0,1,2,3,0,1,2,3,0,1,2,3,0,1,2,3,0,1,2,3,0,1,2,3],"trees":[{"base_weights":[7.882786E-1,-2.4160028E-1,8.559846E-1,3.0238342E-1,-3.7928462E-1,6.647691E-1,1.0980872E0,5.029793E-1,-2.5E-1,-1.3785388E-1,-4.6153846E-1,7.2290486E-1,3.020993E-1,1.2285376E0,6.514188E-1,1.4918879E-1,5.7117987E-1,-2.6185146E-1,2.4106699E-1,7.557063E-1,1.7514914E-2,1.3670608E-1,6.7781985E-1,9.3311083E-1,1.3062793E0,7.123941E-1,-2.1612439E-1,9.5371366E-2,-3.75E-1,3.9433396E-1,8.051089E-1,-4E-1,5.350298E-1,-2.3727994E-1,2.450326E-1,2.9591808E-1,8.4777737E-1,1.0778348E0,5.9376895E-1,1.3279932E0,2.8457865E-1,8.259189E-1,8.28003E-2,5.284514E-1,-6.68182E-3,1.3584698E0,7.5807345E-1,-6.2133234E-2,-3.3333334E-1,-2.5E-1,2.9470143E-1,8.285317E-2,6.413315E-1,1.3429838E0,6.4368874E-2,7.042029E-1,1.2206289E0,2.4527611E-1,-5.9756637E-2,3.4945318E-1,6.8309885E-1,-1.7208916E-1,2.1608858E-1,1.772169E0,6.730768E-1,-1.5459912E-1,7.900507E-1,3.9002073E-1,-6.4931765E-2,1.0657058E0,1.4567528E0,2.3433675E-1,7.3779315E-1,-1.0313386E-1,3.5187513E-2,4.314822E-1,1.9753352E-1,1.3589534E-1,7.516502E-1,-2.5E-1,-6.278554E-2,7.413924E-1,1.9990721E-1,3.635022E-1,-3.75E-1,6.150589E-1,9.25966E-1,1.4008012E-1,4.5776978E-1,-1.249139E-2,-7.824809E-2,1.1021742E0,4.0656665E-1,1.4778599E0,6.0531247E-1,3.7543386E-2,3.1396174E-1],"categories":[],"categories_nodes":[],"categories_segments":[],"categories_sizes":[],"default_left":[1,1,1,1,1,1,1,1,0,1,0,1,1,1,1,0,0,1,0,1,1,1,1,1,1,1,0,0,0,1,1,0,0,1,1,0,0,0,1,1,0,1,1,1,1,1,1,0,0,0,1,0,0,1,0,1,0,0,1,1,1,1,0,0,1,1,1,1,1,1,1,1,0,0,0,0,0,0,0,0,0,0,0,0,0,0,0,0,0,0,0,0,0,0,0,0,0],"id":0,"left_children":[1,3,5,7,9,11,13,15,-1,17,-1,19,21,23,25,-1,-1,27,-1,29,31,33,35,37,39,41,-1,-1,-1,43,45,-1,-1,47,49,-1,-1,-1,51,53,-1,55,57,59,61,63,65,-1,-1,-1,67,-1,-1,69,-1,71,-1,-1,73,75,77,79,-1,-1,81,83,85,87,89,91,93,95,-1,-1,-1,-1,-1,-1,-1,-1,-1,-1,-1,-1,-1,-1,-1,-1,-1,-1,-1,-1,-1,-1,-1,-1,-1],"loss_changes":[2.4193604E1,1.7624463E0,1.42229E1,6.797739E-1,2.9383016E-1,3.640007E0,7.415497E0,1.1301279E-2,0E0,3.4503534E-1,0E0,3.6194E0,1.5851617E0,1.2615204E0,1.9525232E0,0E0,0E0,2.3786047E-1,0E0,2.3604202E0,1.9425734E0,8.683933E-1,2.6838398E-1,6.3689804E-1,1.4634552E0,2.2187977E0,0E0,0E0,0E0,1.079195E0,2.379799E0,0E0,0E0,6.340611E-2,4.6707845E-1,0E0,0E0,0E0,1.8986773E-1,1.4478912E0,0E0,4.375763E-1,1.536292E-1,1.765132E-1,2.5827363E-1,1.3591137E0,3.7118607E0,0E0,0E0,0E0,5.395243E-1,0E0,0E0,9.7117615E-1,0E0,1.9011593E-1,0E0,0E0,2.010268E-2,2.6924253E-2,1.6043496E-1,1.836735E-2,0E0,0E0,1.3414621E-2,7.0726323E-1,2.2607803E0,1.3907444E-1,1.8158257E-3,2.0091438E-1,7.589722E-2,3.522183E-2,0E0,0E0,0E0,0E0,0E0,0E0,0E0,0E0,0E0,0E0,0E0,0E0,0E0,0E0,0E0,0E0,0E0,0E0,0E0,0E0,0E0,0E0,0E0,0E0,0E0],"parents":[2147483647,0,0,1,1,2,2,3,3,4,4,5,5,6,6,7,7,9,9,11,11,12,12,13,13,14,14,17,17,19,19,20,20,21,21,22,22,23,23,24,24,25,25,29,29,30,30,33,33,34,34,38,38,39,39,41,41,42,42,43,43,44,44,45,45,46,46,50,50,53,53,55,55,58,58,59,59,60,60,61,61,64,64,65,65,66,66,67,67,68,68,69,69,70,70,71,71],"right_children":[2,4,6,8,10,12,14,16,-1,18,-1,20,22,24,26,-1,-1,28,-1,30,32,34,36,38,40,42,-1,-1,-1,44,46,-1,-1,48,50,-1,-1,-1,52,54,-1,56,58,60,62,64,66,-1,-1,-1,68,-1,-1,70,-1,72,-1,-1,74,76,78,80,-1,-1,82,84,86,88,90,92,94,96,-1,-1,-1,-1,-1,-1,-1,-1,-1,-1,-1,-1,-1,-1,-1,-1,-1,-1,-1,-1,-1,-1,-1,-1,-1],"split_conditions":[1.5761604E1,1.4176538E1,1.2276041E-1,4.3625957E-1,-7.948386E0,3.8146516E3,7.222839E2,3.4728038E0,-2.5E-2,3.9564672E0,-4.6153847E-2,5.29158E0,2.3454105E1,2.4428051E1,9.047942E3,1.4918879E-2,5.7117987E-2,3.5793986E0,2.41067E-2,1.254375E-2,5.3205295E0,4.4045986E3,1.6128807E1,6.1637717E-12,5.5910585E-11,4.9059427E-1,-2.161244E-2,9.537137E-3,-3.75E-2,2.7799099E1,1.8518051E1,-4.0000003E-2,5.3502984E-2,3.7827115E0,2.6830564E0,2.9591808E-2,8.4777735E-2,1.0778349E-1,3.2229486E0,2.6553516E2,2.8457865E-2,3.560579E3,4.40238E3,1.6073831E2,1.15304985E2,4.0726868E1,1.998074E1,-6.2133237E-3,-3.3333335E-2,-2.5E-2,1.1839809E1,8.285317E-3,6.413315E-2,6.8568054E1,6.4368877E-3,1.253142E-1,1.22062884E-1,2.4527611E-2,3.4389758E0,9.28955E1,7.400764E-2,4.3572135E0,2.1608857E-2,1.772169E-1,4.4518173E-1,3.821038E0,2.4482399E1,-7.932293E0,3.123915E0,1.6391426E-1,4.880318E0,4.823264E0,7.3779315E-2,-1.0313386E-2,3.5187514E-3,4.314822E-2,1.9753352E-2,1.3589534E-2,7.5165026E-2,-2.5E-2,-6.2785544E-3,7.413924E-2,1.9990722E-2,3.635022E-2,-3.75E-2,6.150589E-2,9.2596605E-2,1.4008013E-2,4.5776978E-2,-1.2491391E-3,-7.824809E-3,1.10217415E-1,4.0656667E-2,1.4778599E-1,6.0531247E-2,3.7543387E-3,3.1396177E-2],"split_indices":[10,5,13,2,4,8,9,0,0,0,0,0,10,10,9,0,0,0,0,15,0,8,5,14,14,2,0,0,0,10,10,0,0,0,0,0,0,0,0,7,0,9,8,7,9,5,10,0,0,0,4,0,0,7,0,6,0,0,0,7,13,0,0,0,2,0,10,4,0,6,4,0,0,0,0,0,0,0,0,0,0,0,0,0,0,0,0,0,0,0,0,0,0,0,0,0,0],"split_type":[0,0,0,0,0,0,0,0,0,0,0,0,0,0,0,0,0,0,0,0,0,0,0,0,0,0,0,0,0,0,0,0,0,0,0,0,0,0,0,0,0,0,0,0,0,0,0,0,0,0,0,0,0,0,0,0,0,0,0,0,0,0,0,0,0,0,0,0,0,0,0,0,0,0,0,0,0,0,0,0,0,0,0,0,0,0,0,0,0,0,0,0,0,0,0,0,0],"sum_hessian":[3.43E2,2.1E1,3.22E2,4E0,1.7E1,1.82E2,1.4E2,3E0,1E0,5E0,1.2E1,1.56E2,2.6E1,1.07E2,3.3E1,1E0,2E0,4E0,1E0,1.49E2,7E0,1.9E1,7E0,2.5E1,8.2E1,3.1E1,2E0,1E0,3E0,1.9E1,1.3E2,4E0,3E0,4E0,1.5E1,3E0,4E0,1.6E1,9E0,8E1,2E0,2.6E1,5E0,1.4E1,5E0,8E0,1.22E2,2E0,2E0,1E0,1.4E1,1E0,8E0,7.9E1,1E0,2.2E1,4E0,2E0,3E0,8E0,6E0,3E0,2E0,4E0,4E0,4E0,1.18E2,1.1E1,3E0,2.6E1,5.3E1,2E0,2E1,2E0,1E0,4E0,4E0,1E0,5E0,1E0,2E0,3E0,1E0,1E0,3E0,5.4E1,6.4E1,3E0,8E0,1E0,2E0,2.4E1,2E0,5.1E1,2E0,1E0,1E0],"tree_param":{"num_deleted":"0","num_feature":"17","num_nodes":"97","size_leaf_vector":"0"}},{"base_weights":[-1.3335552E0,-5.95188E-1,-1.3823057E0,-1.0836978E0,-1.4612653E0,-1.1191409E0,-5.13208E-1,-1.4981129E0,-9.8635733E-1,-4.157589E-1,-1.1346253E0,-1.5445641E0,-1.0899426E0,-4.8107883E-1,-1.147948E0,-1.5028301E0,-2.09055E0,-1.179022E0,-4.6218914E-1,-1.5080261E0,-2.5E-1,-1.2491452E0,-5.3365016E-1,-1.5132762E0,-2.5E-1,-1.5331814E0,-9.381855E-1],"categories":[],"categories_nodes":[],"categories_segments":[],"categories_sizes":[],"default_left":[1,0,1,1,1,1,0,1,0,0,1,1,1,0,0,1,0,1,0,1,0,0,0,1,0,0,0],"id":1,"left_children":[1,-1,3,5,7,9,-1,11,-1,-1,13,15,17,-1,-1,19,-1,21,-1,23,-1,-1,-1,25,-1,-1,-1],"loss_changes":[1.1523743E1,0E0,5.9849243E0,8.6125946E-1,2.9146118E0,2.4710846E-1,0E0,2.69635E0,0E0,0E0,4.9972534E-3,1.529419E0,9.649048E-1,0E0,0E0,8.858948E-1,0E0,3.742695E-1,0E0,8.9642334E-1,0E0,0E0,0E0,7.5946045E-1,0E0,0E0,0E0],"parents":[2147483647,0,0,2,2,3,3,4,4,5,5,7,7,10,10,11,11,12,12,15,15,17,17,19,19,23,23],"right_children":[2,-1,4,6,8,10,-1,12,-1,-1,14,16,18,-1,-1,20,-1,22,-1,24,-1,-1,-1,26,-1,-1,-1],"split_conditions":[1.6391304E1,-5.9518803E-2,8.611368E-13,9.0783095E-1,6.074087E1,2.136448E-2,-5.13208E-2,1.3436339E-3,-9.863573E-2,-4.157589E-2,5.9719093E-2,5.486667E1,5.6170464E-1,-4.8107885E-2,-1.14794806E-1,5.288405E1,-2.0905499E-1,1.165719E3,-4.6218913E-2,2.9176556E1,-2.5E-2,-1.2491452E-1,-5.336502E-2,6.3808413E3,-2.5E-2,-1.5331815E-1,-9.381855E-2],"split_indices":[10,0,14,1,5,6,0,11,0,0,13,5,1,0,0,5,0,7,0,10,0,0,0,9,0,0,0],"split_type":[0,0,0,0,0,0,0,0,0,0,0,0,0,0,0,0,0,0,0,0,0,0,0,0,0,0,0],"sum_hessian":[3.42E2,2.2E1,3.2E2,7E1,2.5E2,6.5E1,5E0,2.3E2,2E1,2E0,6.3E1,2.04E2,2.6E1,2E0,6.1E1,1.93E2,1.1E1,2.2E1,4E0,1.92E2,1E0,1.9E1,3E0,1.91E2,1E0,1.83E2,8E0],"tree_param":{"num_deleted":"0","num_feature":"17","num_nodes":"27","size_leaf_vector":"0"}},{"base_weights":[2.4876163E0,1.6931368E0,2.5344694E0,2.5555167E0,1.6622272E0,2.559267E0,7.283475E-1,2.563043E0,7.283475E-1],"categories":[],"categories_nodes":[],"categories_segments":[],"categories_sizes":[],"default_left":[1,0,1,1,0,1,0,0,0],"id":2,"left_children":[1,-1,3,5,-1,7,-1,-1,-1],"loss_changes":[7.7320557E0,0E0,1.3149414E0,1.5039062E-1,0E0,1.5905762E-1,0E0,0E0,0E0],"parents":[2147483647,0,0,2,2,3,3,5,5],"right_children":[2,-1,4,6,-1,8,-1,-1,-1],"split_conditions":[1.5761604E1,1.6931368E-1,5.243229E0,7.7334795E0,1.6622272E-1,2.9592304E1,7.283475E-2,2.5630432E-1,7.283475E-2],"split_indices":[10,0,0,6,0,10,0,0,0],"split_type":[0,0,0,0,0,0,0,0,0],"sum_hessian":[3.22E2,2E1,3.02E2,2.93E2,9E0,2.92E2,1E0,2.91E2,1E0],"tree_param":{"num_deleted":"0","num_feature":"17","num_nodes":"9","size_leaf_vector":"0"}},{"base_weights":[3.0289814E0],"categories":[],"categories_nodes":[],"categories_segments":[],"categories_sizes":[],"default_left":[0],"id":3,"left_children":[-1],"loss_changes":[0E0],"parents":[2147483647],"right_children":[-1],"split_conditions":[3.0289814E-1],"split_indices":[0],"split_type":[0],"sum_hessian":[3.39E2],"tree_param":{"num_deleted":"0","num_feature":"17","num_nodes":"1","size_leaf_vector":"0"}},{"base_weights":[7.557597E-1,4.7751838E-1,1.0120677E0,-2.5443366E-1,5.6448835E-1,1.0440838E0,-5.839999E-2,-3.8619435E-1,5.331012E-1,6.776999E-1,2.4753512E-1,1.1055138E0,5.009258E-1,-3.45E-1,3.4320003E-1,1.4172935E-1,-4.3083787E-1,6.893151E-1,-2.767515E-1,2.8943336E-1,-3.656876E-1,7.7776295E-1,1.1738005E0,6.4291877E-1,-2.5238305E-2,7.918015E-1,5.489815E-1,4.6699673E-1,1.2345366E-1,3.681168E-1,9.4369787E-1,1.1926488E0,2.2317508E-2,6.87255E-1,2.364887E-1,3.1380168E-1,-3.5586554E-1,4.9694613E-1,8.899582E-1,6.017898E-1,3.7774768E-1,5.905021E-1,2.7782362E-2,-7.647615E-2,2.5237018E-1,-1.3077341E-1,5.09186E-1,8.741571E-1,1.2398206E0,-6.853318E-2,1.02009445E-1,7.1564627E-1,1.7328015E-1,3.1987846E-2,5.5680805E-1,9.971564E-1,5.658735E-1,6.4833E-1,3.6367536E-1,-1.2985533E-1,4.7316948E-1,2.492086E-1,6.609268E-1,1.5139462E-1,-2.3333333E-1,2.3251271E-1,-1.4416385E-1,5.9239317E-2,4.0944815E-1,-2.3919378E-1,4.3033674E-2,9.556434E-1,-2.962983E-1,1.2470716E0,2.5010967E-1,1.984103E-1,7.4463046E-1,-2.5987667E-1,3.0785844E-1,1.2526256E-1,1.0220441E0,6.5104127E-1,2.993968E-1,1.6688329E-1,6.599805E-1,3.5666227E-2,4.0543863E-1,2.2128318E-1,5.3254455E-1,1.2684554E-2,3.2382175E-1,7.1278566E-1,2.8504118E-1,-2.578353E-1,3.396643E-2,2.212592E-1,-4.9820483E-2,4.7396094E-2,4.618908E-1,3.2269818E-1,1.0607193E0],"categories":[],"categories_nodes":[],"categories_segments":[],"categories_sizes":[],"default_left":[1,1,1,1,1,1,1,1,0,1,1,1,1,0,0,0,0,1,0,1,0,1,1,1,1,1,1,1,1,1,0,1,1,1,0,0,0,1,1,1,1,1,1,1,1,1,0,1,1,0,0,1,0,1,0,1,1,1,1,0,1,1,1,0,0,0,1,1,1,0,0,1,0,0,0,0,0,0,0,0,0,0,0,0,0,0,0,0,0,0,0,0,0,0,0,0,0,0,0,0,0],"id":4,"left_children":[1,3,5,7,9,11,13,15,-1,17,19,21,23,-1,-1,-1,-1,25,-1,27,-1,29,31,33,35,37,39,41,43,45,-1,47,49,51,-1,-1,-1,53,55,57,59,61,63,65,67,69,-1,71,73,-1,-1,75,-1,77,-1,79,81,83,85,-1,87,89,91,-1,-1,-1,93,95,97,-1,-1,99,-1,-1,-1,-1,-1,-1,-1,-1,-1,-1,-1,-1,-1,-1,-1,-1,-1,-1,-1,-1,-1,-1,-1,-1,-1,-1,-1,-1,-1],"loss_changes":[2.3478714E1,1.05198555E1,6.024353E0,2.0736709E0,5.0711365E0,5.0851135E0,8.089955E-1,4.381566E-1,0E0,1.376976E0,1.1335607E0,2.4665985E0,1.4357462E0,0E0,0E0,0E0,0E0,1.0898399E0,0E0,1.0622804E0,0E0,1.6238728E0,2.6429138E0,1.0776663E-1,6.7215043E-1,1.265316E0,2.0671844E-1,9.6001077E-1,5.605595E-1,7.703686E-1,0E0,7.340851E-1,2.8711233E-2,6.569338E-2,0E0,0E0,0E0,4.5535517E-1,9.296112E-1,1.5208435E-1,7.39553E-1,1.7178822E-1,1.9671091E-1,2.2175263E-1,3.701204E-1,6.6826075E-2,0E0,2.0952988E0,4.2726135E-1,0E0,0E0,3.2156944E-2,0E0,3.2155573E-1,0E0,5.4465675E-1,1.0011816E-1,4.6915054E-2,9.512949E-2,0E0,6.1625957E-2,6.6483706E-2,1.1249542E-2,0E0,0E0,0E0,1.7074434E-1,1.3471223E-1,1.1101699E-1,0E0,0E0,8.548393E-1,0E0,0E0,0E0,0E0,0E0,0E0,0E0,0E0,0E0,0E0,0E0,0E0,0E0,0E0,0E0,0E0,0E0,0E0,0E0,0E0,0E0,0E0,0E0,0E0,0E0,0E0,0E0,0E0,0E0],"parents":[2147483647,0,0,1,1,2,2,3,3,4,4,5,5,6,6,7,7,9,9,10,10,11,11,12,12,17,17,19,19,21,21,22,22,23,23,24,24,25,25,26,26,27,27,28,28,29,29,31,31,32,32,33,33,37,37,38,38,39,39,40,40,41,41,42,42,43,43,44,44,45,45,47,47,48,48,51,51,53,53,55,55,56,56,57,57,58,58,60,60,61,61,62,62,66,66,67,67,68,68,71,71],"right_children":[2,4,6,8,10,12,14,16,-1,18,20,22,24,-1,-1,-1,-1,26,-1,28,-1,30,32,34,36,38,40,42,44,46,-1,48,50,52,-1,-1,-1,54,56,58,60,62,64,66,68,70,-1,72,74,-1,-1,76,-1,78,-1,80,82,84,86,-1,88,90,92,-1,-1,-1,94,96,98,-1,-1,100,-1,-1,-1,-1,-1,-1,-1,-1,-1,-1,-1,-1,-1,-1,-1,-1,-1,-1,-1,-1,-1,-1,-1,-1,-1,-1,-1,-1,-1],"split_conditions":[2.4428051E1,1.474079E1,9.009471E-1,6.065008E2,3.6972625E3,2.8202194E1,5.5144757E-2,1.6689277E-1,5.3310122E-2,9.249562E-1,1.225047E3,8.799412E-13,1.1700386E2,-3.45E-2,3.4320004E-2,1.4172936E-2,-4.3083787E-2,8.184062E-2,-2.767515E-2,4.559633E-1,-3.656876E-2,1.0354595E-1,1.540375E-1,2.1487273E3,1.04171515E-1,7.833021E-2,6.44244E2,6.203575E-1,2.042581E1,7.477481E1,9.436979E-2,9.6600346E-2,7.1211565E-1,1.7698234E-1,2.3648871E-2,3.138017E-2,-3.5586555E-2,1.0114844E3,8.330245E-1,7.8635546E-4,3.9887146E1,1.5905554E3,8.09644E-1,3.8831395E-1,8.277353E2,7.211912E-1,5.0918605E-2,2.1726992E-3,7.0655176E-11,-6.8533183E-3,1.0200945E-2,6.784814E-2,1.7328015E-2,7.5275743E-1,5.5680808E-2,-6.95875E-2,1.2375693E3,5.2972785E-13,1.1698858E-1,-1.2985534E-2,6.736764E2,4.8211846E-1,1.0535741E3,1.5139462E-2,-2.3333333E-2,2.325127E-2,1.952185E-12,4.8900145E-1,1.3810986E-1,-2.391938E-2,4.3033673E-3,6.95334E2,-2.962983E-2,1.2470716E-1,2.5010968E-2,1.984103E-2,7.446305E-2,-2.5987668E-2,3.0785844E-2,1.2526256E-2,1.02204405E-1,6.510413E-2,2.9939681E-2,1.668833E-2,6.599805E-2,3.5666227E-3,4.0543865E-2,2.212832E-2,5.3254455E-2,1.2684554E-3,3.2382175E-2,7.1278565E-2,2.8504118E-2,-2.578353E-2,3.396643E-3,2.212592E-2,-4.982048E-3,4.7396095E-3,4.618908E-2,3.2269817E-2,1.0607193E-1],"split_indices":[10,10,1,7,8,10,6,1,0,1,7,14,7,0,0,0,0,15,0,2,0,6,15,8,13,13,7,1,10,7,0,13,1,13,0,0,0,8,1,11,12,9,1,6,7,1,0,11,14,0,0,6,0,1,0,15,8,14,6,0,7,1,7,0,0,0,14,2,1,0,0,8,0,0,0,0,0,0,0,0,0,0,0,0,0,0,0,0,0,0,0,0,0,0,0,0,0,0,0,0,0],"split_type":[0,0,0,0,0,0,0,0,0,0,0,0,0,0,0,0,0,0,0,0,0,0,0,0,0,0,0,0,0,0,0,0,0,0,0,0,0,0,0,0,0,0,0,0,0,0,0,0,0,0,0,0,0,0,0,0,0,0,0,0,0,0,0,0,0,0,0,0,0,0,0,0,0,0,0,0,0,0,0,0,0,0,0,0,0,0,0,0,0,0,0,0,0,0,0,0,0,0,0,0,0],"sum_hessian":[3.35E2,1.62E2,1.73E2,1.7E1,1.45E2,1.68E2,5E0,1.5E1,2E0,1.06E2,3.9E1,1.5E2,1.8E1,3E0,2E0,1E0,1.4E1,1.05E2,1E0,3.7E1,2E0,2.8E1,1.22E2,1.4E1,4E0,5.8E1,4.7E1,1.7E1,2E1,9E0,1.9E1,1.2E2,2E0,1.2E1,2E0,2E0,2E0,1.6E1,4.2E1,3.4E1,1.3E1,1.3E1,4E0,8E0,1.2E1,2E0,7E0,1.8E1,1.02E2,1E0,1E0,1.1E1,1E0,2E0,1.4E1,3E1,1.2E1,2.7E1,7E0,2E0,1.1E1,3E0,1E1,3E0,1E0,1E0,7E0,6E0,6E0,1E0,1E0,1.7E1,1E0,1.01E2,1E0,1E0,1E1,1E0,1E0,1E0,2.9E1,8E0,4E0,1E0,2.6E1,1E0,6E0,3E0,8E0,1E0,2E0,8E0,2E0,4E0,3E0,2E0,4E0,1E0,5E0,3E0,1.4E1],"tree_param":{"num_deleted":"0","num_feature":"17","num_nodes":"101","size_leaf_vector":"0"}},{"base_weights":[-1.2009982E0,-4.780908E-1,-1.2379087E0,-6.481076E-1,-1.2688608E0,-3.922687E-1,-7.163327E-1,-5.850479E-1,-1.2878039E0,-1.04838E0,-1.3409634E0,-7.576504E-1,-1.1504472E0,-1.0360982E0,-1.3784873E0,-1.926026E-1,-7.795589E-1,-1.926026E-1,-1.1695782E0,-2.2331749E-1,-1.0564245E0,-1.4025089E0,-9.1027963E-1,-8.04206E-1,-1.926026E-1,-2.8184754E-1,-1.1851137E0,-2.103135E0,-1.3693147E0,-3.2852393E-1,-9.861876E-1,-1.2101097E0,-4.8179176E-1,-1.3007456E0,-1.6177018E0,-4.2300585E-1,-1.0643384E0],"categories":[],"categories_nodes":[],"categories_segments":[],"categories_sizes":[],"default_left":[1,0,1,1,1,0,0,0,1,1,1,1,1,1,1,0,1,0,1,0,0,1,1,0,0,0,1,0,1,0,1,0,0,0,0,0,0],"id":5,"left_children":[1,-1,3,5,7,-1,-1,-1,9,11,13,15,17,19,21,-1,23,-1,25,-1,-1,27,29,-1,-1,-1,31,-1,33,-1,35,-1,-1,-1,-1,-1,-1],"loss_changes":[8.400299E0,0E0,5.01947E0,3.3188343E-2,3.1714783E0,0E0,0E0,0E0,2.33609E0,8.4944916E-1,1.282959E0,7.2683334E-2,5.2604294E-1,2.5971222E-1,1.0627441E0,0E0,9.104252E-2,0E0,2.1762848E-1,0E0,0E0,1.6784363E0,2.500925E-1,0E0,0E0,0E0,1.0261154E-1,0E0,1.1318359E0,0E0,3.392315E-2,0E0,0E0,0E0,0E0,0E0,0E0],"parents":[2147483647,0,0,2,2,3,3,4,4,8,8,9,9,10,10,11,11,12,12,13,13,14,14,16,16,18,18,21,21,22,22,26,26,28,28,30,30],"right_children":[2,-1,4,6,8,-1,-1,-1,10,12,14,16,18,20,22,-1,24,-1,26,-1,-1,28,30,-1,-1,-1,32,-1,34,-1,36,-1,-1,-1,-1,-1,-1],"split_conditions":[1.440615E1,-4.780908E-2,4.7086954E-2,4.842663E-13,2.656122E1,-3.922687E-2,-7.163327E-2,-5.850479E-2,8.6043726E-13,-5.7398193E-2,2.296463E-1,2.5725338E1,2.5098248E1,4.245162E-2,6.304136E1,-1.9260261E-2,2.88097E1,-1.9260261E-2,4.7643573E2,-2.233175E-2,-1.0564245E-1,1.9637356E1,-7.1221024E-2,-8.0420606E-2,-1.9260261E-2,-2.8184755E-2,4.8962316E-1,-2.1031351E-1,7.8714604E-4,-3.2852393E-2,5.6587636E-2,-1.21010974E-1,-4.8179176E-2,-1.3007456E-1,-1.6177018E-1,-4.2300586E-2,-1.06433846E-1],"split_indices":[10,0,6,14,12,0,0,0,14,16,1,5,7,1,5,0,10,0,8,0,0,10,16,0,0,0,2,0,11,0,6,0,0,0,0,0,0],"split_type":[0,0,0,0,0,0,0,0,0,0,0,0,0,0,0,0,0,0,0,0,0,0,0,0,0,0,0,0,0,0,0,0,0,0,0,0,0],"sum_hessian":[3.36E2,1.7E1,3.19E2,1.7E1,3.02E2,5E0,1.2E1,9E0,2.93E2,5.7E1,2.36E2,1.7E1,4E1,2.9E1,2.07E2,1E0,1.6E1,1E0,3.9E1,1E0,2.8E1,1.95E2,1.2E1,1.5E1,1E0,1E0,3.8E1,6E0,1.89E2,2E0,1E1,3.6E1,2E0,1.53E2,3.6E1,2E0,8E0],"tree_param":{"num_deleted":"0","num_feature":"17","num_nodes":"37","size_leaf_vector":"0"}},{"base_weights":[2.2629063E0,1.879683E0,2.3000727E0,2.0022283E0,1.1034697E0,6.4523613E-1,2.3034494E0,2.0584018E0,8.292573E-1,2.1200833E0,8.582542E-1],"categories":[],"categories_nodes":[],"categories_segments":[],"categories_sizes":[],"default_left":[1,1,1,1,0,0,0,1,0,0,0],"id":6,"left_children":[1,3,5,7,-1,-1,-1,9,-1,-1,-1],"loss_changes":[4.3395996E-1,1.1198425E0,1.899414E-1,2.0385742E-1,0E0,0E0,0E0,1.7916107E-1,0E0,0E0,0E0],"parents":[2147483647,0,0,1,1,2,2,3,3,7,7],"right_children":[2,4,6,8,-1,-1,-1,10,-1,-1,-1],"split_conditions":[7.3168024E-2,4.767883E3,9.741308E0,7.184508E-2,1.1034697E-1,6.4523615E-2,2.3034494E-1,1.307231E2,8.292573E-2,2.1200834E-1,8.582542E-2],"split_indices":[13,9,7,13,0,0,0,5,0,0,0],"split_type":[0,0,0,0,0,0,0,0,0,0,0],"sum_hessian":[3.33E2,3.4E1,2.99E2,2.8E1,6E0,1E0,2.98E2,2.6E1,2E0,2.4E1,2E0],"tree_param":{"num_deleted":"0","num_feature":"17","num_nodes":"11","size_leaf_vector":"0"}},{"base_weights":[2.7328112E0],"categories":[],"categories_nodes":[],"categories_segments":[],"categories_sizes":[],"default_left":[0],"id":7,"left_children":[-1],"loss_changes":[0E0],"parents":[2147483647],"right_children":[-1],"split_conditions":[2.7328113E-1],"split_indices":[0],"split_type":[0],"sum_hessian":[3.23E2],"tree_param":{"num_deleted":"0","num_feature":"17","num_nodes":"1","size_leaf_vector":"0"}},{"base_weights":[6.6641074E-1,4.2961434E-1,9.034557E-1,-1.8528196E-1,5.033305E-1,5.861646E-1,9.888773E-1,4.825076E-1,-3.3150998E-1,9.9988455E-1,4.454662E-1,7.19773E-1,2.5330305E-1,1.0092231E0,5.498913E-2,1.6452505E-1,7.182276E-1,-4.039341E-1,4.1363782E-1,1.469403E0,6.5288496E-1,1.6297628E-1,5.2019846E-1,7.621905E-1,-2.1275E-1,3.8062012E-1,-2.9796055E-1,1.0209113E0,-2.7850503E-1,2.6097444E-1,-2.8148338E-1,1.8509743E-1,6.8115395E-1,3.0584747E-1,-1.8192509E-1,5.3839463E-1,-3.3858916E-1,8.281553E-1,3.932879E-1,4.6123213E-1,-2.1275E-1,1.1766421E0,8.97597E-1,-1.4582153E-1,4.0861052E-1,-4.0184468E-1,3.1662088E-2,3.752501E-1,6.408395E-1,8.7433225E-1,2.4425681E-1,4.8765668E-1,1.3636689E-1,8.842364E-2,4.9283046E-1,1.3305352E0,9.1601235E-1,7.29484E-1,1.0432701E0,3.9758715E-1,-3.810705E-1,4.6504483E-1,8.0720656E-2,2.9109114E-1,-1.7082523E-1,4.7375026E-1,1.4009976E-1,6.519284E-1,1.832701E-1,2.3084849E-1,8.960499E-1,2.4713722E-1,1.3566684E0,9.691368E-1,2.210955E-1,4.0289927E-1,7.9853964E-1,1.0760995E0,2.7967465E-1,-5.8770727E-2,2.495974E-1,-2.4063319E-2,-2.1172476E-1,4.9449766E-1,-8.470915E-2,2.2579752E-1,-1.5201843E-1,1.8795036E-1,6.63491E-1,9.98615E-1,5.775648E-1,1.0012643E0,1.4722922E-1,1.7490824E-1,8.005786E-1,9.026788E-1,5.497511E-1,2.0102146E-1,1.0943172E0],"categories":[],"categories_nodes":[],"categories_segments":[],"categories_sizes":[],"default_left":[1,1,1,1,1,1,1,1,1,1,1,1,1,1,1,0,0,0,0,0,1,1,1,1,0,1,0,1,0,0,0,0,0,1,1,1,0,1,1,1,0,1,1,1,1,0,1,1,1,1,0,0,0,0,0,1,1,1,1,0,0,0,1,0,1,1,1,1,0,0,1,0,0,1,0,1,1,1,0,0,0,0,0,0,0,0,0,0,0,0,0,0,0,0,0,0,0,0,0],"id":8,"left_children":[1,3,5,7,9,11,13,15,17,19,21,23,25,27,29,-1,-1,-1,-1,-1,31,33,35,37,-1,39,-1,41,-1,-1,-1,-1,-1,43,45,47,-1,49,51,53,-1,55,57,59,61,-1,63,65,67,69,-1,-1,-1,-1,-1,71,73,75,77,-1,-1,-1,79,-1,81,83,85,87,-1,-1,89,-1,-1,91,-1,93,95,97,-1,-1,-1,-1,-1,-1,-1,-1,-1,-1,-1,-1,-1,-1,-1,-1,-1,-1,-1,-1,-1],"loss_changes":[1.9594635E1,8.25227E0,4.217682E0,2.112947E0,4.1805573E0,1.5966034E0,2.5666046E0,1.8165296E-1,1.0845157E0,1.6474133E0,2.9974442E0,1.2697039E0,1.0258181E0,2.316269E0,3.5069352E-1,0E0,0E0,0E0,0E0,0E0,1.9382477E-2,1.6324885E0,1.9793568E0,3.313303E-1,0E0,6.242876E-1,0E0,1.5171661E0,0E0,0E0,0E0,0E0,0E0,1.1271265E0,4.8244333E-1,1.6481323E0,0E0,3.796177E-1,7.897174E-2,7.422328E-2,0E0,1.0273285E0,1.173626E0,7.9069036E-1,3.140416E-1,0E0,3.6491227E-1,9.990959E-1,2.2554779E-1,7.2647095E-2,0E0,0E0,0E0,0E0,0E0,5.9902954E-1,6.717396E-1,5.8036995E-1,7.017746E-1,0E0,0E0,0E0,1.08896434E-1,0E0,1.8915169E-2,4.126587E-1,4.0983343E-1,2.2937393E-1,0E0,0E0,4.3878555E-2,0E0,0E0,4.3351173E-1,0E0,6.759782E-1,3.3282852E-1,3.8581467E-1,0E0,0E0,0E0,0E0,0E0,0E0,0E0,0E0,0E0,0E0,0E0,0E0,0E0,0E0,0E0,0E0,0E0,0E0,0E0,0E0,0E0],"parents":[2147483647,0,0,1,1,2,2,3,3,4,4,5,5,6,6,7,7,8,8,9,9,10,10,11,11,12,12,13,13,14,14,20,20,21,21,22,22,23,23,25,25,27,27,33,33,34,34,35,35,37,37,38,38,39,39,41,41,42,42,43,43,44,44,46,46,47,47,48,48,49,49,55,55,56,56,57,57,58,58,62,62,64,64,65,65,66,66,67,67,70,70,73,73,75,75,76,76,77,77],"right_children":[2,4,6,8,10,12,14,16,18,20,22,24,26,28,30,-1,-1,-1,-1,-1,32,34,36,38,-1,40,-1,42,-1,-1,-1,-1,-1,44,46,48,-1,50,52,54,-1,56,58,60,62,-1,64,66,68,70,-1,-1,-1,-1,-1,72,74,76,78,-1,-1,-1,80,-1,82,84,86,88,-1,-1,90,-1,-1,92,-1,94,96,98,-1,-1,-1,-1,-1,-1,-1,-1,-1,-1,-1,-1,-1,-1,-1,-1,-1,-1,-1,-1,-1],"split_conditions":[2.4428051E1,1.510685E1,1.2416234E-12,8.7520003E-1,2.9668015E1,2.76707E1,5.862239E0,3.7797198E0,-5.7656737E-4,1.87712E1,2.034061E1,5.5866608E1,3.304188E-13,2.9176556E1,4.4421606E0,1.6452504E-2,7.182276E-2,-4.039341E-2,4.1363783E-2,1.469403E-1,5.348661E-6,1.9713856E1,5.215929E0,5.039323E0,-2.1275E-2,5.095597E0,-2.9796055E-2,-4.2108826E-2,-2.7850503E-2,2.6097445E-2,-2.8148338E-2,1.8509744E-2,6.81154E-2,-7.9252777E0,4.390334E-1,-4.9209505E-2,-3.3858918E-2,8.61089E1,5.5156868E1,3.7967052E0,-2.1275E-2,3.8920685E2,1.305331E3,3.467736E0,3.9659463E3,-4.0184468E-2,4.5784193E-1,4.0030203E3,2.440365E1,3.5591578E0,2.4425682E-2,4.876567E-2,1.3636689E-2,8.842364E-3,4.9283046E-2,7.655838E1,2.1008861E-11,-3.852907E-2,9.349783E2,3.9758716E-2,-3.810705E-2,4.6504483E-2,3.5446181E0,2.9109115E-2,3.1878905E0,3.4361122E1,2.0244897E-12,3.262992E2,1.832701E-2,2.308485E-2,2.0283822E-4,2.4713723E-2,1.3566683E-1,2.3684334E-3,2.2109551E-2,4.9934893E0,1.01816473E3,-4.1998938E-2,2.7967466E-2,-5.877073E-3,2.4959741E-2,-2.406332E-3,-2.1172477E-2,4.9449768E-2,-8.470915E-3,2.2579752E-2,-1.5201843E-2,1.8795036E-2,6.6349104E-2,9.98615E-2,5.775648E-2,1.0012644E-1,1.4722923E-2,1.7490825E-2,8.005786E-2,9.026788E-2,5.497511E-2,2.0102147E-2,1.0943172E-1],"split_indices":[10,10,14,10,9,10,4,0,16,10,10,12,14,10,0,0,0,0,0,0,11,10,0,0,0,0,0,16,0,0,0,0,0,4,2,16,0,5,5,0,0,9,8,0,8,0,2,8,10,0,0,0,0,0,0,8,14,16,9,0,0,0,0,0,0,4,14,8,0,0,11,0,0,11,0,0,8,16,0,0,0,0,0,0,0,0,0,0,0,0,0,0,0,0,0,0,0,0,0],"split_type":[0,0,0,0,0,0,0,0,0,0,0,0,0,0,0,0,0,0,0,0,0,0,0,0,0,0,0,0,0,0,0,0,0,0,0,0,0,0,0,0,0,0,0,0,0,0,0,0,0,0,0,0,0,0,0,0,0,0,0,0,0,0,0,0,0,0,0,0,0,0,0,0,0,0,0,0,0,0,0,0,0,0,0,0,0,0,0,0,0,0,0,0,0,0,0,0,0,0,0],"sum_hessian":[3.55E2,1.79E2,1.76E2,1.9E1,1.6E2,3.9E1,1.37E2,3E0,1.6E1,1.5E1,1.45E2,2.7E1,1.2E1,1.34E2,3E0,2E0,1E0,1.5E1,1E0,5E0,1E1,3.1E1,1.14E2,2.6E1,1E0,1E1,2E0,1.33E2,1E0,2E0,1E0,1E0,9E0,2.2E1,9E0,1.12E2,2E0,2.1E1,5E0,9E0,1E0,5.5E1,7.8E1,4E0,1.8E1,4E0,5E0,4.5E1,6.7E1,1.9E1,2E0,3E0,2E0,1E0,8E0,3.2E1,2.3E1,3.9E1,3.9E1,1E0,3E0,1.5E1,3E0,2E0,3E0,3.1E1,1.4E1,6.5E1,2E0,1E0,1.8E1,1E0,3.1E1,2.1E1,2E0,8E0,3.1E1,3.7E1,2E0,2E0,1E0,1E0,2E0,3E1,1E0,1.1E1,3E0,2E0,6.3E1,1.2E1,6E0,2E1,1E0,6E0,2E0,2E1,1.1E1,1E0,3.6E1],"tree_param":{"num_deleted":"0","num_feature":"17","num_nodes":"99","size_leaf_vector":"0"}},{"base_weights":[-1.0983549E0,-6.865184E-1,-1.1466986E0,-3.9884213E-1,-7.750155E-1,-8.772674E-1,-1.2101368E0,-6.446356E-1,-1.0740644E0,-4.4144374E-1,-9.255882E-1,-1.2477535E0,-6.410834E-1,-1.1943767E0,-1.7609535E-1,-5.523086E-1,-9.6943176E-1,-5.575331E-1,-1.2641178E0,-6.840988E-1,-2.1231212E-1,-3.523569E-1,-1.2923093E0,-2.7604538E-1,-6.6285753E-1,-1.8297248E-1,-9.8255104E-1,-1.2726489E0,-2.256676E-1,-2.5509858E-1,-7.304759E-1,-4.3272802E-1,-1.0108473E0,-5.030536E-1,-1.2847396E0,-2.4968447E-1,-1.0230254E0,-2.814755E-1,-1.2929152E0,-1.0340236E0,-2.8604865E-1,-1.2974294E0,-1.7246272E-1],"categories":[],"categories_nodes":[],"categories_segments":[],"categories_sizes":[],"default_left":[1,1,1,0,1,1,1,0,1,0,1,1,1,1,0,1,1,0,1,1,0,0,0,0,0,0,1,1,0,0,0,0,1,0,1,0,1,0,1,0,0,0,0],"id":9,"left_children":[1,3,5,-1,7,9,11,-1,13,-1,15,17,19,21,-1,23,25,-1,27,29,-1,-1,-1,-1,-1,-1,31,33,-1,-1,-1,-1,35,-1,37,-1,39,-1,41,-1,-1,-1,-1],"loss_changes":[5.94223E0,6.5831566E-1,4.0831604E0,0E0,3.9933777E-1,8.7602234E-1,4.3588867E0,0E0,5.459337E-1,0E0,3.4833527E-1,1.8366089E0,1.6830063E-1,3.94125E-2,0E0,6.1346054E-2,3.051567E-1,0E0,1.6528931E0,1.1209345E-1,0E0,0E0,0E0,0E0,0E0,0E0,2.7824402E-1,1.3729248E0,0E0,0E0,0E0,0E0,1.4315414E-1,0E0,1.3831482E0,0E0,4.4643402E-2,0E0,8.4347534E-1,0E0,0E0,0E0,0E0],"parents":[2147483647,0,0,1,1,2,2,4,4,5,5,6,6,8,8,10,10,11,11,12,12,13,13,15,15,16,16,18,18,19,19,26,26,27,27,32,32,34,34,36,36,38,38],"right_children":[2,4,6,-1,8,10,12,-1,14,-1,16,18,20,22,-1,24,26,-1,28,30,-1,-1,-1,-1,-1,-1,32,34,-1,-1,-1,-1,36,-1,38,-1,40,-1,42,-1,-1,-1,-1],"split_conditions":[7.577812E-2,1.41698E1,8.651386E-13,-3.9884213E-2,1.2212529E0,3.8778923E-2,4.9790945E0,-6.446356E-2,6.273374E1,-4.4144373E-2,-7.3305798E0,2.8385597E1,7.0647144E-1,1.25949615E2,-1.7609535E-2,1.312646E3,2.5098248E1,-5.575331E-2,8.949485E-1,8.3654016E-2,-2.1231212E-2,-3.523569E-2,-1.2923093E-1,-2.7604539E-2,-6.628575E-2,-1.8297248E-2,3.0380524E1,-3.721875E-2,-2.256676E-2,-2.5509859E-2,-7.304759E-2,-4.3272804E-2,7.6279856E-2,-5.0305363E-2,-9.706921E-2,-2.4968447E-2,1.4105313E-1,-2.8147552E-2,2.9176556E1,-1.0340237E-1,-2.8604865E-2,-1.2974295E-1,-1.7246272E-2],"split_indices":[13,10,14,0,4,6,4,0,12,0,4,12,1,9,0,8,7,0,1,1,0,0,0,0,0,0,12,15,0,0,0,0,13,0,16,0,15,0,10,0,0,0,0],"split_type":[0,0,0,0,0,0,0,0,0,0,0,0,0,0,0,0,0,0,0,0,0,0,0,0,0,0,0,0,0,0,0,0,0,0,0,0,0,0,0,0,0,0,0],"sum_hessian":[3.37E2,3.7E1,3E2,1E1,2.7E1,6E1,2.4E2,2.1E1,6E0,7E0,5.3E1,2.24E2,1.6E1,5E0,1E0,7E0,4.6E1,6E0,2.18E2,1.4E1,2E0,1E0,4E0,3E0,4E0,1E0,4.5E1,2.16E2,2E0,2E0,1.2E1,3E0,4.2E1,4E0,2.12E2,1E0,4.1E1,2E0,2.1E2,4E1,1E0,2.09E2,1E0],"tree_param":{"num_deleted":"0","num_feature":"17","num_nodes":"43","size_leaf_vector":"0"}},{"base_weights":[2.0094106E0,1.4040145E0,2.0442085E0,2.063657E0,1.3014349E0,2.0671399E0,4.8502284E-1,2.0700588E0,5.7675767E-1,2.0729966E0,5.7675767E-1],"categories":[],"categories_nodes":[],"categories_segments":[],"categories_sizes":[],"default_left":[1,0,1,1,0,1,0,1,0,0,0],"id":10,"left_children":[1,-1,3,5,-1,7,-1,9,-1,-1,-1],"loss_changes":[4.4188232E0,0E0,2.0092773E0,7.293701E-1,0E0,1.7199707E-1,0E0,1.7736816E-1,0E0,0E0,0E0],"parents":[2147483647,0,0,2,2,3,3,5,5,7,7],"right_children":[2,-1,4,6,-1,8,-1,10,-1,-1,-1],"split_conditions":[1.440615E1,1.4040145E-1,5.29158E0,1.3228641E3,1.301435E-1,7.7334795E0,4.8502285E-2,2.9592304E1,5.7675768E-2,2.0729966E-1,5.7675768E-2],"split_indices":[10,0,0,7,0,6,0,10,0,0,0],"split_type":[0,0,0,0,0,0,0,0,0,0,0],"sum_hessian":[3.45E2,2.1E1,3.24E2,3.14E2,1E1,3.13E2,1E0,3.12E2,1E0,3.11E2,1E0],"tree_param":{"num_deleted":"0","num_feature":"17","num_nodes":"11","size_leaf_vector":"0"}},{"base_weights":[2.447268E0],"categories":[],"categories_nodes":[],"categories_segments":[],"categories_sizes":[],"default_left":[0],"id":11,"left_children":[-1],"loss_changes":[0E0],"parents":[2147483647],"right_children":[-1],"split_conditions":[2.447268E-1],"split_indices":[0],"split_type":[0],"sum_hessian":[3.17E2],"tree_param":{"num_deleted":"0","num_feature":"17","num_nodes":"1","size_leaf_vector":"0"}},{"base_weights":[6.026286E-1,3.8447732E-1,7.8355503E-1,-2.0012468E-1,4.49914E-1,5.044436E-1,8.7054676E-1,-3.5856518E-1,4.0444818E-1,8.4612215E-1,4.0148193E-1,6.2106234E-1,1.426961E-1,8.802669E-1,-2.6457977E-1,1.0391843E-1,4.6998528E-1,1.1397122E0,2.1578498E-1,1.6741262E-1,4.8098135E-1,6.8240017E-1,-2.8112057E-1,-2.1410191E-1,3.250621E-1,3.7863478E-1,9.1090435E-1,4.981945E-1,1.2378174E0,3.7773064E-1,-2.9697162E-1,4.8010394E-2,5.070179E-1,4.906418E-1,-2.2804038E-1,4.4477865E-1,7.76707E-1,8.4002465E-2,-3.096286E-1,-2.7218262E-2,4.2960194E-1,4.8012957E-1,-2.674092E-1,9.2926615E-1,2.4764462E-1,1.4946094E-1,-3.3197665E-1,6.3719505E-1,1.849977E-1,3.9277077E-1,5.582384E-1,5.0472283E-1,1.987096E-1,3.5831714E-1,8.459303E-1,-9.234689E-2,5.15195E-2,1.0722214E-1,5.1334023E-1,1.0115451E0,7.5523895E-1,2.8475875E-1,4.9594074E-2,4.2502588E-1,-3.836374E-2,-2.286014E-2,-3.8922793E-1,4.0459102E-1,-5.18395E-2,2.1999733E-1,5.876625E-1,1.7991783E-1,5.718217E-1,2.1930605E-1,8.6855906E-1,1.0184015E0,2.1437168E-1,5.0228924E-1,8.502079E-1,1.5522389E-1,4.7993731E-1,-3.30512E-1,7.1359605E-2,4.339822E-1,1.956376E-1,2.4969336E-1,3.5758585E-2,3.0129153E-1,6.272743E-1,1.0907326E0,8.411165E-1,7.882151E-1,3.2666025E-1,8.7235916E-1,8.176014E-2],"categories":[],"categories_nodes":[],"categories_segments":[],"categories_sizes":[],"default_left":[1,1,1,1,1,1,1,0,1,1,1,1,1,1,0,0,0,1,1,1,1,1,0,1,1,1,1,0,0,0,0,1,1,1,0,1,1,0,0,1,0,1,0,1,1,1,1,0,0,1,1,1,0,0,1,0,0,0,0,1,1,0,0,1,1,0,0,1,0,1,1,0,0,0,0,1,0,1,1,0,0,0,0,0,0,0,0,0,0,0,0,0,0,0,0],"id":12,"left_children":[1,3,5,7,9,11,13,-1,15,17,19,21,23,25,-1,-1,-1,27,29,31,33,35,-1,37,39,41,43,-1,-1,-1,-1,45,47,49,-1,51,53,-1,-1,55,-1,57,-1,59,61,63,65,-1,-1,67,69,71,-1,-1,73,-1,-1,-1,-1,75,77,-1,-1,79,81,-1,-1,83,-1,85,87,-1,-1,-1,-1,89,-1,91,93,-1,-1,-1,-1,-1,-1,-1,-1,-1,-1,-1,-1,-1,-1,-1,-1],"loss_changes":[1.3631409E1,6.2872543E0,4.222687E0,1.7734308E0,2.4619179E0,1.9363308E0,1.8327866E0,0E0,2.9943287E-2,2.5299768E0,2.375784E0,2.184002E0,9.154781E-1,1.8681946E0,0E0,0E0,0E0,1.2688637E-2,6.104075E-1,1.3948947E0,7.8313255E-1,4.1645527E-1,0E0,1.6839422E-1,3.43139E-1,7.8409195E-1,1.4139862E0,0E0,0E0,0E0,0E0,1.0904645E0,2.593975E-1,4.2246628E-1,0E0,7.671189E-2,3.6302185E-1,0E0,0E0,2.0141914E-2,0E0,5.6419134E-2,0E0,1.1118088E0,2.2630036E-2,1.1549792E0,9.7286105E-2,0E0,0E0,2.469554E-1,4.1810226E-1,9.3265295E-2,0E0,0E0,7.893467E-2,0E0,0E0,0E0,0E0,2.517395E-1,6.779766E-1,0E0,0E0,5.8839202E-2,4.7236195E-1,0E0,0E0,1.7303562E-1,0E0,2.3898304E-2,3.78191E-1,0E0,0E0,0E0,0E0,1.7253876E-1,0E0,4.9577475E-1,4.7338104E-1,0E0,0E0,0E0,0E0,0E0,0E0,0E0,0E0,0E0,0E0,0E0,0E0,0E0,0E0,0E0,0E0],"parents":[2147483647,0,0,1,1,2,2,3,3,4,4,5,5,6,6,8,8,9,9,10,10,11,11,12,12,13,13,17,17,18,18,19,19,20,20,21,21,23,23,24,24,25,25,26,26,31,31,32,32,33,33,35,35,36,36,39,39,41,41,43,43,44,44,45,45,46,46,49,49,50,50,51,51,54,54,59,59,60,60,63,63,64,64,67,67,69,69,70,70,75,75,77,77,78,78],"right_children":[2,4,6,8,10,12,14,-1,16,18,20,22,24,26,-1,-1,-1,28,30,32,34,36,-1,38,40,42,44,-1,-1,-1,-1,46,48,50,-1,52,54,-1,-1,56,-1,58,-1,60,62,64,66,-1,-1,68,70,72,-1,-1,74,-1,-1,-1,-1,76,78,-1,-1,80,82,-1,-1,84,-1,86,88,-1,-1,-1,-1,90,-1,92,94,-1,-1,-1,-1,-1,-1,-1,-1,-1,-1,-1,-1,-1,-1,-1,-1],"split_conditions":[2.4434204E1,1.474079E1,1.2416234E-12,-2.1988126E-3,2.9668015E1,2.7786505E1,2.9176556E1,-3.585652E-2,3.7372396E0,4.896571E0,2.0206005E1,1.0372955E-12,4.4898888E1,1.7605038E1,-2.6457978E-2,1.03918435E-2,4.6998527E-2,1.1970626E-1,5.4032984E0,5.3702602E1,5.215929E0,8.307448E-2,-2.8112058E-2,3.6701355E0,2.8094046E1,4.4592013E0,6.2009113E1,4.981945E-2,1.2378174E-1,3.7773065E-2,-2.9697163E-2,4.8827652E1,3.1105242E0,-4.6654522E-2,-2.2804039E-2,5.991197E-2,1.1034043E3,8.4002465E-3,-3.096286E-2,4.929183E0,4.2960193E-2,3.6110158E0,-2.6740922E-2,2.7258255E1,4.9447036E0,1.420334E3,3.2526476E0,6.37195E-2,1.849977E-2,5.0235504E-1,9.393948E1,3.2847974E-2,1.9870961E-2,3.5831716E-2,3.5591578E0,-9.234689E-3,5.15195E-3,1.0722214E-2,5.1334023E-2,4.9251872E-1,3.804001E1,2.8475875E-2,4.9594077E-3,7.781453E-2,3.832538E-1,-2.286014E-3,-3.8922794E-2,5.6991943E1,-5.18395E-3,5.061936E0,7.837326E-2,1.7991783E-2,5.718217E-2,2.1930605E-2,8.685591E-2,-3.911248E-2,2.1437168E-2,3.3888294E1,4.7246934E3,1.552239E-2,4.799373E-2,-3.30512E-2,7.1359607E-3,4.339822E-2,1.956376E-2,2.4969338E-2,3.5758584E-3,3.0129153E-2,6.272743E-2,1.0907326E-1,8.411165E-2,7.882151E-2,3.2666024E-2,8.723592E-2,8.176014E-3],"split_indices":[10,10,14,16,9,10,10,0,0,0,10,14,12,5,0,0,0,6,0,12,0,6,0,0,10,0,5,0,0,0,0,12,0,16,0,6,8,0,0,0,0,0,0,10,0,8,0,0,0,2,9,6,0,0,0,0,0,0,0,2,12,0,0,13,2,0,0,12,0,0,13,0,0,0,0,16,0,12,8,0,0,0,0,0,0,0,0,0,0,0,0,0,0,0,0],"split_type":[0,0,0,0,0,0,0,0,0,0,0,0,0,0,0,0,0,0,0,0,0,0,0,0,0,0,0,0,0,0,0,0,0,0,0,0,0,0,0,0,0,0,0,0,0,0,0,0,0,0,0,0,0,0,0,0,0,0,0,0,0,0,0,0,0,0,0,0,0,0,0,0,0,0,0,0,0,0,0,0,0,0,0,0,0,0,0,0,0,0,0,0,0,0,0],"sum_hessian":[3.52E2,1.61E2,1.91E2,1.6E1,1.45E2,4.7E1,1.44E2,1.3E1,3E0,1.4E1,1.31E2,3.5E1,1.2E1,1.43E2,1E0,1E0,2E0,9E0,5E0,3.4E1,9.7E1,3.3E1,2E0,4E0,8E0,9E0,1.34E2,2E0,7E0,4E0,1E0,2.6E1,8E0,9.6E1,1E0,1.1E1,2.2E1,1E0,3E0,2E0,6E0,8E0,1E0,1.3E2,4E0,2.1E1,5E0,5E0,3E0,4.2E1,5.4E1,8E0,3E0,4E0,1.8E1,1E0,1E0,1E0,7E0,8.5E1,4.5E1,3E0,1E0,8E0,1.3E1,1E0,4E0,4.1E1,1E0,5E0,4.9E1,2E0,6E0,1E0,1.7E1,8.4E1,1E0,1.4E1,3.1E1,2E0,6E0,3E0,1E1,3.5E1,6E0,4E0,1E0,7E0,4.2E1,5.6E1,2.8E1,4E0,1E1,3E1,1E0],"tree_param":{"num_deleted":"0","num_feature":"17","num_nodes":"95","size_leaf_vector":"0"}},{"base_weights":[-9.939819E-1,-9.366276E-1,-1.2747018E0,-9.981729E-1,-6.5683836E-1,-1.4086243E0,-8.183762E-1,-5.745956E-1,-1.044157E0,-6.835137E-1,-2.320415E-1,-7.1984017E-1,-1.4961336E0,-8.555461E-1,-1.3041368E-1,-3.1433567E-1,-7.0919925E-1,-8.0193603E-1,-1.082673E0,-7.6855594E-1,-5.092284E-1,-6.915183E-2,-2.5547594E-1,-8.264926E-1,-3.021394E-1,-1.1671406E0,-1.7810135E0,-8.867867E-1,-2.090889E-1,-2.5909716E-1,-7.8714275E-1,-3.3572397E-1,-8.3515203E-1,-1.1067299E0,-6.9603693E-1,-9.443779E-1,-5.7079124E-1,-7.179081E-1,-3.9914677E-1,-8.2769626E-1,-1.2997371E-1,-1.82654E-1,-8.503083E-1,-1.6733841E0,-1.0809776E0,-3.1944916E-1,-1.0064051E0,-6.20456E-1,-2.2943467E-1,-8.6132246E-1,-2.1209073E-1,-3.1085655E-1,-8.7679267E-1,-2.6824906E-1,-1.9007612E0,-1.0879151E0,-3.2058826E-1,-2.2062755E-1,-1.046773E0,-4.571045E-1,-7.651786E-1,-2.5171405E-1,-8.938583E-1,-1.8253379E-1,-1.0921177E0],"categories":[],"categories_nodes":[],"categories_segments":[],"categories_sizes":[],"default_left":[1,1,1,1,1,1,1,1,1,1,1,1,1,1,0,0,1,1,1,1,1,0,0,0,0,0,0,0,0,0,1,0,1,1,0,1,1,0,0,1,0,0,1,1,1,0,1,1,0,1,0,0,0,0,0,1,0,0,0,0,0,0,0,0,0],"id":13,"left_children":[1,3,5,7,9,11,13,15,17,19,21,23,25,27,-1,-1,29,31,33,35,37,-1,-1,-1,-1,-1,-1,-1,-1,-1,39,-1,41,43,-1,45,47,-1,-1,49,-1,-1,51,53,55,-1,57,59,-1,61,-1,-1,-1,-1,-1,63,-1,-1,-1,-1,-1,-1,-1,-1,-1],"loss_changes":[4.763275E0,4.6996765E0,2.5139465E0,4.3279266E0,5.099621E-1,1.6354065E0,2.9756927E-1,7.229357E-1,1.249527E0,4.2381668E-1,1.4195144E-3,6.2125444E-2,1.5765228E0,1.17518425E-1,0E0,0E0,3.9245605E-1,2.6161957E-1,1.024826E0,6.7795753E-1,1.9585752E-1,0E0,0E0,0E0,0E0,0E0,0E0,0E0,0E0,0E0,2.6552868E-1,0E0,1.6114807E-1,8.1777954E-1,0E0,3.374672E-1,1.7976046E-1,0E0,0E0,8.642769E-2,0E0,0E0,1.7034149E-1,1.407095E0,5.7440186E-1,0E0,2.4485588E-1,2.8484344E-2,0E0,1.3012886E-2,0E0,0E0,0E0,0E0,0E0,4.5890808E-1,0E0,0E0,0E0,0E0,0E0,0E0,0E0,0E0,0E0],"parents":[2147483647,0,0,1,1,2,2,3,3,4,4,5,5,6,6,7,7,8,8,9,9,10,10,11,11,12,12,13,13,16,16,17,17,18,18,19,19,20,20,30,30,32,32,33,33,35,35,36,36,39,39,42,42,43,43,44,44,46,46,47,47,49,49,55,55],"right_children":[2,4,6,8,10,12,14,16,18,20,22,24,26,28,-1,-1,30,32,34,36,38,-1,-1,-1,-1,-1,-1,-1,-1,-1,40,-1,42,44,-1,46,48,-1,-1,50,-1,-1,52,54,56,-1,58,60,-1,62,-1,-1,-1,-1,-1,64,-1,-1,-1,-1,-1,-1,-1,-1,-1],"split_conditions":[1.4115185E-11,5.305755E1,1.979196E3,7.501888E-2,5.2778215E0,4.0679512E1,-2.4351573E-1,4.8015624E-2,1.0017635E-1,4.0766876E-2,1.6352665E1,4.2648087E0,9.839677E2,2.3161057E-1,-1.3041369E-2,-3.1433567E-2,2.3571157E1,3.0362246E1,1.44752865E1,1.239471E3,2.2523125E1,-6.9151833E-3,-2.5547594E-2,-8.264926E-2,-3.021394E-2,-1.1671406E-1,-1.7810135E-1,-8.867867E-2,-2.090889E-2,-2.5909716E-2,7.120045E3,-3.3572398E-2,1.235182E-13,3.2173508E1,-6.96037E-2,7.884027E-2,1.4313239E-1,-7.179081E-2,-3.991468E-2,7.431146E-2,-1.2997371E-2,-1.82654E-2,2.136448E-2,3.524323E0,1.1783507E-11,-3.1944916E-2,3.061539E-2,-1.3590307E0,-2.2943467E-2,3.1164961E-2,-2.1209074E-2,-3.1085655E-2,-8.767927E-2,-2.6824906E-2,-1.9007613E-1,2.6467314E1,-3.2058828E-2,-2.2062754E-2,-1.046773E-1,-4.5710452E-2,-7.6517865E-2,-2.5171405E-2,-8.938583E-2,-1.8253379E-2,-1.09211765E-1],"split_indices":[14,5,8,13,0,9,4,15,6,3,7,0,8,13,0,0,12,7,4,8,12,0,0,0,0,0,0,0,0,0,8,0,14,12,0,13,6,0,0,13,0,0,6,0,14,0,6,4,0,6,0,0,0,0,0,8,0,0,0,0,0,0,0,0,0],"split_type":[0,0,0,0,0,0,0,0,0,0,0,0,0,0,0,0,0,0,0,0,0,0,0,0,0,0,0,0,0,0,0,0,0,0,0,0,0,0,0,0,0,0,0,0,0,0,0,0,0,0,0,0,0,0,0,0,0,0,0,0,0,0,0,0,0],"sum_hessian":[3.69E2,3.1E2,5.9E1,2.52E2,5.8E1,4.4E1,1.5E1,2.6E1,2.26E2,5.4E1,4E0,6E0,3.8E1,1.4E1,1E0,1E1,1.6E1,3.4E1,1.92E2,3.4E1,2E1,1E0,3E0,4E0,2E0,2E1,1.8E1,1.3E1,1E0,3E0,1.3E1,3E0,3.1E1,1.79E2,1.3E1,1.6E1,1.8E1,5E0,1.5E1,1.2E1,1E0,1E0,3E1,5E0,1.74E2,2E0,1.4E1,1.5E1,3E0,1.1E1,1E0,2E0,2.8E1,1E0,4E0,1.72E2,2E0,1E0,1.3E1,9E0,6E0,1E0,1E1,1E0,1.71E2],"tree_param":{"num_deleted":"0","num_feature":"17","num_nodes":"65","size_leaf_vector":"0"}},{"base_weights":[1.8293303E0,1.2194765E0,1.8538004E0,1.8671808E0,9.8111963E-1],"categories":[],"categories_nodes":[],"categories_segments":[],"categories_sizes":[],"default_left":[1,0,1,0,0],"id":14,"left_children":[1,-1,3,-1,-1],"loss_changes":[2.7982178E0,0E0,1.951416E0,0E0,0E0],"parents":[2147483647,0,0,2,2],"right_children":[2,-1,4,-1,-1],"split_conditions":[1.4615109E1,1.21947646E-1,9.084494E-1,1.8671809E-1,9.8111965E-2],"split_indices":[10,0,1,0,0],"split_type":[0,0,0,0,0],"sum_hessian":[3.38E2,1.5E1,3.23E2,3.17E2,6E0],"tree_param":{"num_deleted":"0","num_feature":"17","num_nodes":"5","size_leaf_vector":"0"}},{"base_weights":[2.2120996E0,2.701175E0,2.1753092E0],"categories":[],"categories_nodes":[],"categories_segments":[],"categories_sizes":[],"default_left":[1,0,0],"id":15,"left_children":[1,-1,-1],"loss_changes":[3.317871E-1,0E0,0E0],"parents":[2147483647,0,0],"right_children":[2,-1,-1],"split_conditions":[1.5761604E1,2.701175E-1,2.1753092E-1],"split_indices":[10,0,0],"split_type":[0,0,0],"sum_hessian":[3.44E2,1.9E1,3.25E2],"tree_param":{"num_deleted":"0","num_feature":"17","num_nodes":"3","size_leaf_vector":"0"}},{"base_weights":[5.028243E-1,5.8832717E-1,2.680237E-1,6.1912054E-1,-1.5100971E-1,-1.16118245E-1,3.786061E-1,3.37585E-1,6.8600446E-1,3.9625597E-1,-4.0576634E-1,-2.8876752E-1,1.1993764E-1,-2.9511464E-1,4.014194E-1,1.9680697E-1,5.6910235E-1,7.0714474E-1,9.817174E-2,-3.470457E-1,2.0528522E-1,3.395621E-1,-8.307234E-2,4.39333E-1,-8.885222E-2,2.821246E-1,-3.203332E-1,8.710898E-1,2.4040335E-1,4.7325528E-1,7.5329185E-1,-2.2401714E-1,4.763649E-1,-6.203215E-2,4.554687E-1,-1.3419566E-1,8.627209E-2,5.18414E-1,3.0297533E-1,-1.7895666E-1,1.8083501E-1,3.6466983E-1,-1.705173E-1,9.6643794E-1,3.582476E-1,-1.9739832E-1,3.745286E-1,5.5912924E-1,1.2427384E-1,5.997366E-1,8.134497E-1,-3.2814634E-1,9.624979E-2,1.8954192E-1,5.588257E-1,3.6242217E-1,3.450771E-2,-2.5242144E-1,-4.5839667E-2,3.8427365E-1,-4.3109193E-2,7.9802334E-2,-2.530478E-1,8.8409424E-2,4.027728E-1,6.1232376E-1,2.0260864E-1,-1.5566614E-1,3.2337105E-1,7.0808774E-1,5.153866E-2,5.4981095E-1,8.590549E-1,2.4226148E-1,-3.702794E-2,1.3999166E-1,5.793456E-1,1.0788241E-1,3.9693463E-1,7.315955E-2,-7.9375744E-2,2.0448263E-1,4.3570092E-1,1.03028774E-1,6.3079035E-1,9.872252E-2,-2.7336985E-1,7.520526E-1,3.3361122E-1,-3.969777E-1,2.3639728E-1,3.8678363E-1,7.740316E-1,2.7520937E-1,8.82466E-1,2.3191765E-1,-2.1930158E-2,4.7848976E-1,8.473157E-1,4.0766865E-1,1.0186103E-1,1.03279434E-1,1.8653154E-2],"categories":[],"categories_nodes":[],"categories_segments":[],"categories_sizes":[],"default_left":[1,1,1,1,1,1,1,1,1,0,0,1,1,0,1,1,1,1,1,0,0,1,1,1,1,1,0,1,1,1,1,1,0,0,0,0,0,1,1,1,0,1,1,0,0,0,1,1,1,1,1,0,0,1,1,1,1,0,0,1,0,0,0,0,0,1,0,1,0,1,1,1,1,0,0,1,1,0,1,1,0,0,0,0,0,0,0,0,0,0,0,0,0,0,0,0,0,0,0,0,0,0,0],"id":16,"left_children":[1,3,5,7,9,11,13,15,17,-1,-1,19,21,-1,23,25,27,29,31,-1,-1,33,35,37,39,41,-1,43,45,47,49,51,-1,-1,-1,-1,-1,53,55,57,-1,59,61,-1,-1,-1,63,65,67,69,71,-1,-1,73,75,77,79,-1,-1,81,-1,-1,-1,-1,-1,83,-1,85,-1,87,89,91,93,-1,-1,95,97,-1,99,101,-1,-1,-1,-1,-1,-1,-1,-1,-1,-1,-1,-1,-1,-1,-1,-1,-1,-1,-1,-1,-1,-1,-1],"loss_changes":[6.8488846E0,5.899002E0,4.0795E0,4.381813E0,1.6944025E0,9.312415E-1,1.2558289E0,1.4850321E0,2.3786926E0,0E0,0E0,4.4554567E-1,4.740678E-1,0E0,1.377368E0,1.5022516E0,1.5773206E0,1.6942291E0,1.081511E0,0E0,0E0,2.609908E-1,6.3522026E-2,5.654154E-1,1.7816173E-1,1.1083584E0,0E0,9.386301E-2,6.6113377E-1,9.4944143E-1,9.624405E-1,1.9832969E-1,0E0,0E0,0E0,0E0,0E0,4.389801E-1,4.1840148E-1,3.7326157E-2,0E0,2.0842218E-1,1.2348883E-1,0E0,0E0,0E0,2.9040933E-2,3.8799095E-1,4.9622005E-1,2.8146038E0,8.502426E-1,0E0,0E0,8.063842E-2,2.2829628E-1,1.5044332E-1,3.2217924E-2,0E0,0E0,1.23568535E-1,0E0,0E0,0E0,0E0,0E0,1.5132523E-1,0E0,1.4675772E-1,0E0,4.0765953E-1,8.4005344E-1,3.9514494E-1,1.0146332E0,0E0,0E0,4.9740463E-2,5.13464E-1,0E0,1.8653393E-2,6.2821414E-3,0E0,0E0,0E0,0E0,0E0,0E0,0E0,0E0,0E0,0E0,0E0,0E0,0E0,0E0,0E0,0E0,0E0,0E0,0E0,0E0,0E0,0E0,0E0],"parents":[2147483647,0,0,1,1,2,2,3,3,4,4,5,5,6,6,7,7,8,8,11,11,12,12,14,14,15,15,16,16,17,17,18,18,21,21,22,22,23,23,24,24,25,25,27,27,28,28,29,29,30,30,31,31,37,37,38,38,39,39,41,41,42,42,46,46,47,47,48,48,49,49,50,50,53,53,54,54,55,55,56,56,59,59,65,65,67,67,69,69,70,70,71,71,72,72,75,75,76,76,78,78,79,79],"right_children":[2,4,6,8,10,12,14,16,18,-1,-1,20,22,-1,24,26,28,30,32,-1,-1,34,36,38,40,42,-1,44,46,48,50,52,-1,-1,-1,-1,-1,54,56,58,-1,60,62,-1,-1,-1,64,66,68,70,72,-1,-1,74,76,78,80,-1,-1,82,-1,-1,-1,-1,-1,84,-1,86,-1,88,90,92,94,-1,-1,96,98,-1,100,102,-1,-1,-1,-1,-1,-1,-1,-1,-1,-1,-1,-1,-1,-1,-1,-1,-1,-1,-1,-1,-1,-1,-1],"split_conditions":[4.2049524E2,5.29158E0,4.0074677E1,1.1575E-2,3.5071815E1,6.2339294E2,-6.7303255E-2,5.036045E1,2.1411951E-3,3.9625596E-2,-4.0576633E-2,4.6930556E0,9.8084375E-2,-2.9511465E-2,4.4148877E-12,6.935698E-4,4.136629E0,8.658381E-13,1.2428959E-1,-3.470457E-2,2.0528523E-2,3.529427E0,4.0071616E0,5.2859505E1,2.2933772E-1,1.1631512E-1,-3.203332E-2,-3.8522273E-2,4.7205677E0,6.642098E-13,2.2587356E-1,4.834071E0,4.763649E-2,-6.203215E-3,4.554687E-2,-1.3419566E-2,8.627209E-3,-5.928301E-2,4.8510492E-1,2.8820167E0,1.8083502E-2,5.102648E0,3.432426E0,9.66438E-2,3.582476E-2,-1.9739833E-2,4.1545918E-5,1.2105625E-1,4.6940536E0,1.04741455E2,6.57332E1,-3.2814633E-2,9.624979E-3,7.89299E2,4.160318E1,2.0830586E-4,5.4643145E3,-2.5242144E-2,-4.583967E-3,3.998994E0,-4.3109194E-3,7.980234E-3,-2.530478E-2,8.840943E-3,4.0277284E-2,4.551819E2,2.0260865E-2,3.796875E0,3.2337107E-2,1.154E-1,5.1301468E1,4.2988367E0,3.2229486E0,2.422615E-2,-3.702794E-3,3.7563252E0,4.053603E3,1.0788241E-2,-1.7040398E-2,1.5444711E1,-7.937575E-3,2.0448264E-2,4.3570094E-2,1.0302878E-2,6.307904E-2,9.872252E-3,-2.7336985E-2,7.520526E-2,3.3361122E-2,-3.969777E-2,2.363973E-2,3.8678363E-2,7.740316E-2,2.7520938E-2,8.824661E-2,2.3191765E-2,-2.1930158E-3,4.7848977E-2,8.473157E-2,4.0766865E-2,1.0186103E-2,1.0327944E-2,1.8653155E-3],"split_indices":[7,0,12,15,5,7,16,12,11,0,0,0,15,0,14,11,0,14,15,0,0,0,0,12,1,3,0,16,0,14,2,0,0,0,0,0,0,16,2,0,0,0,0,0,0,0,11,15,0,7,7,0,0,7,12,11,8,0,0,0,0,0,0,0,0,8,0,0,0,15,12,0,0,0,0,0,9,0,16,5,0,0,0,0,0,0,0,0,0,0,0,0,0,0,0,0,0,0,0,0,0,0,0],"split_type":[0,0,0,0,0,0,0,0,0,0,0,0,0,0,0,0,0,0,0,0,0,0,0,0,0,0,0,0,0,0,0,0,0,0,0,0,0,0,0,0,0,0,0,0,0,0,0,0,0,0,0,0,0,0,0,0,0,0,0,0,0,0,0,0,0,0,0,0,0,0,0,0,0,0,0,0,0,0,0,0,0,0,0,0,0,0,0,0,0,0,0,0,0,0,0,0,0,0,0,0,0,0,0],"sum_hessian":[3.48E2,2.54E2,9.4E1,2.44E2,1E1,2.1E1,7.3E1,4.8E1,1.96E2,3E0,7E0,1.2E1,9E0,2E0,7.1E1,3.1E1,1.7E1,1.89E2,7E0,1.1E1,1E0,4E0,5E0,6.6E1,5E0,2.7E1,4E0,8E0,9E0,3.3E1,1.56E2,4E0,3E0,1E0,3E0,4E0,1E0,4E1,2.6E1,4E0,1E0,2.3E1,4E0,6E0,2E0,2E0,7E0,2.6E1,7E0,4.7E1,1.09E2,3E0,1E0,5E0,3.5E1,2.1E1,5E0,2E0,2E0,2.2E1,1E0,1E0,3E0,1E0,6E0,2.2E1,4E0,3E0,4E0,3.9E1,8E0,1.8E1,9.1E1,4E0,1E0,2E0,3.3E1,3E0,1.8E1,4E0,1E0,6E0,1.6E1,1E0,2.1E1,1E0,2E0,3.4E1,5E0,2E0,6E0,1.2E1,6E0,4E0,8.7E1,1E0,1E0,2.6E1,7E0,1.7E1,1E0,2E0,2E0],"tree_param":{"num_deleted":"0","num_feature":"17","num_nodes":"103","size_leaf_vector":"0"}},{"base_weights":[-8.837733E-1,-4.1613072E-1,-9.1362846E-1,-5.341771E-1,-3.105201E-1,-9.290313E-1,-2.8670526E-1,-9.58485E-1,-6.953069E-1,-3.3446598E-1,-7.96951E-2,-9.944268E-1,-7.4561954E-1,-7.3223376E-1,-3.7632483E-1,-2.5248244E-1,-1.0031972E0,-4.540554E-1,-8.202131E-1,-4.8363844E-1,-7.924387E-1,-1.4469337E0,-9.8017037E-1,-4.7536898E-1,-1.20459944E-1,-2.587538E-1,-8.677339E-1,-1.9980876E-1,-5.3618854E-1,-8.109844E-1,-1.7367147E-1,-2.6722163E-1,-1.5609951E0,-9.1549224E-1,-1.0977098E0,-4.026637E-1,-8.501414E-1,-9.4092214E-1,-6.306763E-1,-1.2239861E0,-8.555619E-1,-3.5133296E-1,-8.8415635E-1],"categories":[],"categories_nodes":[],"categories_segments":[],"categories_sizes":[],"default_left":[1,1,1,0,0,1,1,1,1,0,0,1,1,1,0,0,1,1,1,1,1,1,1,0,0,0,0,0,0,1,0,0,0,1,1,0,1,0,0,0,0,0,0],"id":17,"left_children":[1,3,5,-1,-1,7,9,11,13,-1,-1,15,17,19,-1,-1,21,23,25,27,29,31,33,-1,-1,-1,-1,-1,-1,35,-1,-1,-1,37,39,-1,41,-1,-1,-1,-1,-1,-1],"loss_changes":[4.310913E0,1.0840011E-1,2.7753906E0,0E0,0E0,1.446991E0,6.2327325E-2,1.324234E0,1.7204475E-1,0E0,0E0,1.2303467E0,5.6277657E-1,1.10645294E-1,0E0,0E0,8.807678E-1,2.0948172E-2,6.559448E-1,2.7102232E-2,1.4604092E-1,7.9390526E-1,6.4476013E-1,0E0,0E0,0E0,0E0,0E0,0E0,4.1405678E-2,0E0,0E0,0E0,4.640274E-1,1.1543884E0,0E0,4.5672417E-2,0E0,0E0,0E0,0E0,0E0,0E0],"parents":[2147483647,0,0,1,1,2,2,5,5,6,6,7,7,8,8,11,11,12,12,13,13,16,16,17,17,18,18,19,19,20,20,21,21,22,22,29,29,33,33,34,34,36,36],"right_children":[2,4,6,-1,-1,8,10,12,14,-1,-1,16,18,20,-1,-1,22,24,26,28,30,32,34,-1,-1,-1,-1,-1,-1,36,-1,-1,-1,38,40,-1,42,-1,-1,-1,-1,-1,-1],"split_conditions":[1.6391304E1,8.725748E-2,5.275998E0,-5.3417712E-2,-3.1052012E-2,6.248293E1,8.051702E-1,3.995511E3,1.8473924E2,-3.34466E-2,-7.96951E-3,2.4125664E1,3.6521874E-2,6.745259E1,-3.7632484E-2,-2.5248244E-2,3.247478E1,4.787653E0,2.8482018E0,-5.6976175E0,1.1895312E-1,3.617756E0,5.50945E-4,-4.75369E-2,-1.2045994E-2,-2.587538E-2,-8.677339E-2,-1.9980876E-2,-5.3618856E-2,1.4950241E-5,-1.7367147E-2,-2.6722163E-2,-1.5609951E-1,5.0029945E0,2.6745396E1,-4.0266372E-2,-6.780937E-2,-9.409221E-2,-6.306764E-2,-1.22398615E-1,-8.5556194E-2,-3.51333E-2,-8.841564E-2],"split_indices":[10,3,0,0,0,5,4,8,5,0,0,12,15,5,0,0,12,0,0,4,15,0,11,0,0,0,0,0,0,11,0,0,0,0,10,0,15,0,0,0,0,0,0],"split_type":[0,0,0,0,0,0,0,0,0,0,0,0,0,0,0,0,0,0,0,0,0,0,0,0,0,0,0,0,0,0,0,0,0,0,0,0,0,0,0,0,0,0,0],"sum_hessian":[3.35E2,2.1E1,3.14E2,8E0,1.3E1,3.06E2,8E0,2.69E2,3.7E1,6E0,2E0,2.27E2,4.2E1,3.2E1,5E0,3E0,2.24E2,1E1,3.2E1,8E0,2.4E1,8E0,2.16E2,9E0,1E0,3E0,2.9E1,2E0,6E0,2.3E1,1E0,1E0,7E0,1.45E2,7.1E1,3E0,2E1,1.31E2,1.4E1,4.4E1,2.7E1,2E0,1.8E1],"tree_param":{"num_deleted":"0","num_feature":"17","num_nodes":"43","size_leaf_vector":"0"}},{"base_weights":[1.6379808E0,1.0151992E0,1.6802309E0,7.888959E-1,1.2109308E0,1.6829326E0,4.1593593E-1,6.6708404E-1,1.4264027E0,4.1593593E-1,1.6856517E0,4.065119E-1,1.5286325E0,1.6914313E0,8.163243E-1,1.6939629E0,4.545607E-1],"categories":[],"categories_nodes":[],"categories_segments":[],"categories_sizes":[],"default_left":[1,1,1,0,1,1,0,0,1,0,1,0,0,1,0,0,0],"id":18,"left_children":[1,3,5,-1,7,9,-1,-1,11,-1,13,-1,-1,15,-1,-1,-1],"loss_changes":[7.187866E0,1.0777664E-1,3.7591553E-1,0E0,3.3749008E-1,3.8067627E-1,0E0,0E0,1.0843563E-1,0E0,1.9177246E-1,0E0,0E0,2.008667E-1,0E0,0E0,0E0],"parents":[2147483647,0,0,1,1,2,2,4,4,5,5,8,8,10,10,13,13],"right_children":[2,4,6,-1,8,10,-1,-1,12,-1,14,-1,-1,16,-1,-1,-1],"split_conditions":[1.5918705E1,4.9505913E-1,9.271622E-1,7.888959E-2,1.1928857E3,8.284039E-14,4.1593593E-2,6.670841E-2,2.0316365E-1,4.1593593E-2,2.905665E1,4.065119E-2,1.5286325E-1,7.7334795E0,8.163243E-2,1.693963E-1,4.545607E-2],"split_indices":[10,1,1,0,8,14,0,0,6,0,10,0,0,6,0,0,0],"split_type":[0,0,0,0,0,0,0,0,0,0,0,0,0,0,0,0,0],"sum_hessian":[3.37E2,2.3E1,3.14E2,1.3E1,1E1,3.13E2,1E0,4E0,6E0,1E0,3.12E2,1E0,5E0,3.09E2,3E0,3.08E2,1E0],"tree_param":{"num_deleted":"0","num_feature":"17","num_nodes":"17","size_leaf_vector":"0"}},{"base_weights":[1.9672328E0],"categories":[],"categories_nodes":[],"categories_segments":[],"categories_sizes":[],"default_left":[0],"id":19,"left_children":[-1],"loss_changes":[0E0],"parents":[2147483647],"right_children":[-1],"split_conditions":[1.9672328E-1],"split_indices":[0],"split_type":[0],"sum_hessian":[3.33E2],"tree_param":{"num_deleted":"0","num_feature":"17","num_nodes":"1","size_leaf_vector":"0"}},{"base_weights":[5.147321E-1,3.0062354E-1,6.977388E-1,-2.029977E-2,3.639224E-1,1.362799E-1,7.176924E-1,-2.396543E-1,2.0061627E-1,4.7435668E-1,2.3796108E-1,6.07593E-1,-1.7376396E-1,3.5573237E-2,7.34736E-1,-2.8019232E-1,1.2340096E-1,3.8012323E-1,-2.9830515E-1,5.050175E-1,-3.174192E-1,-1.02498405E-1,2.9337627E-1,-2.2196081E-1,9.511739E-3,1.2763792E-1,-1.6634275E-1,7.464223E-1,-1.17859125E-1,9.378639E-2,-3.2271641E-1,4.3247995E-1,1.1379757E-1,9.297812E-1,4.3405157E-1,1.0779292E-1,-2.2560956E-1,3.197749E-1,-2.3559333E-1,7.843826E-1,4.1181648E-1,-1.6003102E-1,-1.6757667E-2,1.2230115E0,5.0924075E-1,1.251711E-1,4.917636E-1,2.2185642E-1,-1.1719878E-1,-7.372233E-2,-2.8312257E-1,-4.289411E-2,3.6196214E-1,8.905172E-1,5.9536195E-1,4.5565292E-1,4.074989E-2,-1.7069565E-1,2.2047475E-1,-1.9849801E-1,5.1151377E-1,-2.0936893E-1,9.2685536E-2,4.3219912E-1,2.249858E-1,9.2949927E-1,3.8938114E-1,9.1823146E-2,6.3459325E-1,2.410653E-1,5.312777E-1,-2.0833641E-2,8.195847E-2,-2.6913404E-2,-2.2913007E-1,3.1408578E-1,4.8342258E-2,5.7738507E-1,3.4127885E-1,-1.24436915E-2,1.3187651E-1,3.1720397E-1,5.810822E-1,2.930034E-1,-6.93223E-2,9.6636003E-1,5.3133553E-1,4.2544708E-1,6.845981E-2,2.1455462E-1,-1.9955139E-1,6.529111E-1,1.360818E-1,1.671092E-1,5.936364E-1],"categories":[],"categories_nodes":[],"categories_segments":[],"categories_sizes":[],"default_left":[1,1,1,1,1,1,1,1,1,1,1,0,1,1,1,1,0,1,0,1,0,1,1,0,0,0,0,1,1,0,0,0,0,1,1,1,1,1,0,1,1,0,0,0,0,1,1,0,0,0,0,1,1,1,1,1,1,1,1,0,1,0,1,1,1,1,1,1,1,0,1,0,0,0,0,0,0,0,0,0,0,0,0,0,0,0,0,0,0,0,0,0,0,0,0],"id":20,"left_children":[1,3,5,7,9,11,13,15,17,19,21,-1,23,25,27,29,-1,31,-1,33,-1,35,37,-1,-1,-1,-1,39,41,-1,-1,-1,-1,43,45,47,49,51,-1,53,55,-1,-1,-1,-1,57,59,-1,-1,-1,-1,61,63,65,67,69,71,73,75,-1,77,-1,79,81,83,85,87,89,91,-1,93,-1,-1,-1,-1,-1,-1,-1,-1,-1,-1,-1,-1,-1,-1,-1,-1,-1,-1,-1,-1,-1,-1,-1,-1],"loss_changes":[1.2054619E1,2.9732418E0,1.784317E0,1.2595519E0,1.5841961E0,1.128472E0,1.8572464E0,2.2590405E-1,1.277671E0,1.7139988E0,1.1432016E0,0E0,4.627779E-2,1.141783E-1,1.6622238E0,2.2110361E-1,0E0,9.0224266E-2,0E0,1.4653397E0,0E0,2.5732195E-1,7.875042E-1,0E0,0E0,0E0,0E0,1.6584473E0,1.0109175E-2,0E0,0E0,0E0,0E0,3.6371422E-1,9.1888237E-1,1.2865466E-1,3.1540483E-2,7.6522636E-1,0E0,2.2583923E0,2.7422476E-1,0E0,0E0,0E0,0E0,3.196059E-1,7.286434E-1,0E0,0E0,0E0,0E0,1.5482906E-1,3.260765E-1,1.3376389E0,9.8871803E-1,1.3157749E-1,9.320803E-3,1.9038826E-2,1.1372438E-1,0E0,3.0756378E-1,0E0,1.8121496E-2,2.9506207E-1,3.6062008E-1,6.6067505E-1,6.3468695E-2,2.2161883E-1,3.5860252E-1,0E0,1.5059757E-1,0E0,0E0,0E0,0E0,0E0,0E0,0E0,0E0,0E0,0E0,0E0,0E0,0E0,0E0,0E0,0E0,0E0,0E0,0E0,0E0,0E0,0E0,0E0,0E0],"parents":[2147483647,0,0,1,1,2,2,3,3,4,4,5,5,6,6,7,7,8,8,9,9,10,10,12,12,13,13,14,14,15,15,17,17,19,19,21,21,22,22,27,27,28,28,33,33,34,34,35,35,36,36,37,37,39,39,40,40,45,45,46,46,51,51,52,52,53,53,54,54,55,55,56,56,57,57,58,58,60,60,62,62,63,63,64,64,65,65,66,66,67,67,68,68,70,70],"right_children":[2,4,6,8,10,12,14,16,18,20,22,-1,24,26,28,30,-1,32,-1,34,-1,36,38,-1,-1,-1,-1,40,42,-1,-1,-1,-1,44,46,48,50,52,-1,54,56,-1,-1,-1,-1,58,60,-1,-1,-1,-1,62,64,66,68,70,72,74,76,-1,78,-1,80,82,84,86,88,90,92,-1,94,-1,-1,-1,-1,-1,-1,-1,-1,-1,-1,-1,-1,-1,-1,-1,-1,-1,-1,-1,-1,-1,-1,-1,-1],"split_conditions":[2.4434204E1,7.418437E-2,2.0548286E1,4.8090626E-2,1.9464889E3,1.136878E3,3.630156E-2,8.0078554E-1,1.08546875E-1,9.1656166E-1,-6.1597086E-2,6.0759302E-2,6.1858612E1,8.9930284E-1,1.540375E-1,4.2351738E-2,1.2340096E-2,7.120045E3,-2.9830515E-2,2.6251972E1,-3.174192E-2,3.5664473E3,5.2336073E0,-2.2196082E-2,9.511739E-4,1.2763793E-2,-1.6634276E-2,2.5906903E2,7.1211565E-1,9.378639E-3,-3.2271642E-2,4.3247994E-2,1.1379757E-2,7.8210723E-1,2.784531E1,4.5283312E-1,3.605078E1,2.1596855E3,-2.3559334E-2,2.7336945E1,7.4814484E2,-1.6003102E-2,-1.6757668E-3,1.22301154E-1,5.0924074E-2,7.270312E-2,-1.1242263E-1,2.2185642E-2,-1.1719878E-2,-7.3722336E-3,-2.8312257E-2,5.952035E-1,4.553771E-1,6.286624E1,-4.3540627E-2,5.129821E-1,4.864666E-1,4.6861058E-1,9.419516E2,-1.9849801E-2,4.9382042E1,-2.0936893E-2,1.1318579E-1,2.0735092E1,2.617294E1,5.4751038E1,2.4959783E3,2.905665E1,3.3188516E-1,2.410653E-2,8.571161E2,-2.0833642E-3,8.195847E-3,-2.6913404E-3,-2.2913007E-2,3.140858E-2,4.834226E-3,5.773851E-2,3.4127887E-2,-1.2443692E-3,1.31876515E-2,3.1720396E-2,5.810822E-2,2.9300341E-2,-6.93223E-3,9.6636005E-2,5.3133555E-2,4.2544708E-2,6.845981E-3,2.1455463E-2,-1.995514E-2,6.5291114E-2,1.360818E-2,1.671092E-2,5.936364E-2],"split_indices":[10,13,7,15,8,8,6,1,15,1,16,0,5,1,15,13,0,8,0,9,0,8,6,0,0,0,0,7,1,0,0,0,0,1,5,2,5,8,0,10,7,0,0,0,0,15,16,0,0,0,0,1,2,5,15,1,1,1,8,0,5,0,6,5,5,12,8,10,6,0,8,0,0,0,0,0,0,0,0,0,0,0,0,0,0,0,0,0,0,0,0,0,0,0,0],"split_type":[0,0,0,0,0,0,0,0,0,0,0,0,0,0,0,0,0,0,0,0,0,0,0,0,0,0,0,0,0,0,0,0,0,0,0,0,0,0,0,0,0,0,0,0,0,0,0,0,0,0,0,0,0,0,0,0,0,0,0,0,0,0,0,0,0,0,0,0,0,0,0,0,0,0,0,0,0,0,0,0,0,0,0,0,0,0,0,0,0,0,0,0,0,0,0],"sum_hessian":[3.12E2,1.45E2,1.67E2,2.4E1,1.21E2,6E0,1.61E2,1.2E1,1.2E1,6.3E1,5.8E1,2E0,4E0,4E0,1.57E2,1.1E1,1E0,9E0,3E0,6.1E1,2E0,8E0,5E1,3E0,1E0,3E0,1E0,1.55E2,2E0,1E0,1E1,7E0,2E0,7E0,5.4E1,3E0,5E0,4.8E1,2E0,1.38E2,1.7E1,1E0,1E0,3E0,4E0,9E0,4.5E1,2E0,1E0,2E0,3E0,5E0,4.3E1,8.6E1,5.2E1,1.5E1,2E0,2E0,7E0,1E0,4.4E1,2E0,3E0,2.7E1,1.6E1,7.9E1,7E0,4E0,4.8E1,5E0,1E1,1E0,1E0,1E0,1E0,4E0,3E0,3E1,1.4E1,1E0,2E0,1.7E1,1E1,1.3E1,3E0,7.1E1,8E0,6E0,1E0,3E0,1E0,4.6E1,2E0,2E0,8E0],"tree_param":{"num_deleted":"0","num_feature":"17","num_nodes":"95","size_leaf_vector":"0"}},{"base_weights":[-8.0135417E-1,-5.203346E-1,-8.54069E-1,-9.496949E-1,-4.2704573E-1,-8.0329853E-1,-1.1279544E0,-3.02115E-1,-1.2231323E0,-4.4948578E-1,-1.4865236E-1,-4.9407324E-1,-8.559621E-1,-9.2157185E-1,-1.424246E0,-3.1489956E-1,-5.035998E-1,-5.1116586E-1,-1.2996814E-1,-4.5365167E-1,-8.702138E-1,-1.6323563E-1,-9.4446033E-1,-3.5278052E-1,-1.4755806E0,-5.7168853E-1,-3.170624E-1,-4.294868E-1,-6.319268E-1,-7.180056E-1,-2.7554974E-1,-8.7443024E-1,-2.8223492E-2,-9.6824944E-1,-1.74866E-1,-2.1678442E-1,-6.2156665E-1,-1.145025E-1,-4.3820342E-1,-2.590542E-1,-6.805959E-1,-8.175785E-1,-9.9891424E-1,-2.0388895E-1,-9.916024E-1,-6.837313E-1,-2.4859868E-1,-2.6762563E-1,-8.2781726E-1,-8.465139E-1,-1.1312511E0,-2.897877E-1,-1.0095166E0,-7.4479973E-1,-3.448604E-1,-9.12283E-1,-7.228191E-1,-2.2563067E-1,-8.828045E-1,-1.1681535E0,-4.4664714E-1],"categories":[],"categories_nodes":[],"categories_segments":[],"categories_sizes":[],"default_left":[1,1,1,1,1,1,1,0,0,1,0,1,1,1,1,0,1,1,0,1,1,0,1,0,0,1,0,1,1,0,0,1,0,1,0,0,1,0,0,0,0,1,1,0,1,1,0,0,1,1,1,0,0,0,0,0,0,0,0,0,0],"id":21,"left_children":[1,3,5,7,9,11,13,-1,-1,15,-1,17,19,21,23,-1,25,27,-1,29,31,-1,33,-1,-1,35,-1,37,39,-1,-1,41,-1,43,-1,-1,45,-1,-1,-1,-1,47,49,-1,51,53,-1,-1,55,57,59,-1,-1,-1,-1,-1,-1,-1,-1,-1,-1],"loss_changes":[4.4738007E0,1.7974367E0,2.9595795E0,1.2241268E0,2.2679901E-1,3.4529114E0,1.1945801E0,0E0,0E0,1.5458584E-1,0E0,1.6383362E-1,7.6342773E-1,3.144741E-1,3.0449295E-1,0E0,1.8707037E-1,7.382393E-2,0E0,2.2589123E-1,6.6404724E-1,0E0,3.0669212E-1,0E0,0E0,2.192936E-1,0E0,1.5718937E-2,4.1457653E-2,0E0,0E0,5.4919434E-1,0E0,2.4407578E-1,0E0,0E0,2.2417736E-1,0E0,0E0,0E0,0E0,5.5550385E-1,1.717987E-1,0E0,9.191513E-3,3.2868385E-2,0E0,0E0,5.378647E-1,4.7677612E-1,1.6036224E-1,0E0,0E0,0E0,0E0,0E0,0E0,0E0,0E0,0E0,0E0],"parents":[2147483647,0,0,1,1,2,2,3,3,4,4,5,5,6,6,9,9,11,11,12,12,13,13,14,14,16,16,17,17,19,19,20,20,22,22,25,25,27,27,28,28,31,31,33,33,36,36,41,41,42,42,44,44,45,45,48,48,49,49,50,50],"right_children":[2,4,6,8,10,12,14,-1,-1,16,-1,18,20,22,24,-1,26,28,-1,30,32,-1,34,-1,-1,36,-1,38,40,-1,-1,42,-1,44,-1,-1,46,-1,-1,-1,-1,48,50,-1,52,54,-1,-1,56,58,60,-1,-1,-1,-1,-1,-1,-1,-1,-1,-1],"split_conditions":[2.006934E1,5.8386997E1,1.8739742E-11,7.421578E0,7.303432E3,7.83522E-2,4.519453E0,-3.0211499E-2,-1.22313224E-1,1.5918705E1,-1.4865236E-2,2.8534434E0,-1.3937499E-2,-3.721875E-2,-7.9732065E0,-3.1489957E-2,1.9568245E1,3.5521226E-12,-1.2996814E-2,2.4258251E1,3.4361122E1,-1.6323565E-2,2.3161057E-1,-3.5278052E-2,-1.4755806E-1,1.6878815E-1,-3.170624E-2,-7.8347187E0,1.2175E-2,-7.180056E-2,-2.7554974E-2,2.250972E-1,-2.8223493E-3,1.9547274E-11,-1.74866E-2,-2.1678442E-2,2.0901022E0,-1.145025E-2,-4.3820344E-2,-2.5905421E-2,-6.8059586E-2,3.722396E0,1.2647994E-1,-2.0388896E-2,1.6059105E1,1.1210416E-1,-2.4859868E-2,-2.6762564E-2,-5.609933E0,4.6866055E2,2.7147396E1,-2.897877E-2,-1.00951664E-1,-7.4479975E-2,-3.448604E-2,-9.12283E-2,-7.228191E-2,-2.2563068E-2,-8.8280454E-2,-1.1681535E-1,-4.4664714E-2],"split_indices":[10,9,14,9,8,6,0,0,0,10,0,4,15,15,4,0,10,14,0,10,4,0,13,0,0,6,0,4,15,0,0,6,0,14,0,0,6,0,0,0,0,0,13,0,5,15,0,0,4,9,10,0,0,0,0,0,0,0,0,0,0],"split_type":[0,0,0,0,0,0,0,0,0,0,0,0,0,0,0,0,0,0,0,0,0,0,0,0,0,0,0,0,0,0,0,0,0,0,0,0,0,0,0,0,0,0,0,0,0,0,0,0,0,0,0,0,0,0,0,0,0,0,0,0,0],"sum_hessian":[3.31E2,5.4E1,2.77E2,8E0,4.6E1,2.37E2,4E1,3E0,5E0,4.2E1,4E0,3.6E1,2.01E2,2.6E1,1.4E1,1.4E1,2.8E1,3.4E1,2E0,8E0,1.93E2,1E0,2.5E1,1E0,1.3E1,1.9E1,9E0,2.3E1,1.1E1,2E0,6E0,1.92E2,1E0,2.4E1,1E0,3E0,1.6E1,1E0,2.2E1,2E0,9E0,1.37E2,5.5E1,1E0,2.3E1,1.3E1,3E0,3E0,1.34E2,2.9E1,2.6E1,1E0,2.2E1,1E1,3E0,7E1,6.4E1,2E0,2.7E1,2.4E1,2E0],"tree_param":{"num_deleted":"0","num_feature":"17","num_nodes":"61","size_leaf_vector":"0"}},{"base_weights":[1.4778339E0,1.4877343E0,7.844192E-1,1.0305572E0,1.5012771E0,1.1008234E0,4.29395E-1,6.519621E-1,1.5097241E0,1.2409472E0,5.4537E-1,8.1551576E-1,2.7108774E-1,1.5121746E0,3.5789883E-1,1.3801528E0,5.4888684E-1,3.670671E-1,1.5145833E0,4.3183267E-1,1.5166049E0],"categories":[],"categories_nodes":[],"categories_segments":[],"categories_sizes":[],"default_left":[1,1,0,1,1,1,0,1,1,1,0,0,0,1,0,0,0,0,1,0,0],"id":22,"left_children":[1,3,-1,5,7,9,-1,11,13,15,-1,-1,-1,17,-1,-1,-1,-1,19,-1,-1],"loss_changes":[1.21521E0,5.640869E-1,0E0,7.64513E-2,1.3760376E0,1.7937851E-1,0E0,9.039068E-2,3.760376E-1,1.3161659E-2,0E0,0E0,0E0,3.3770752E-1,0E0,0E0,0E0,0E0,5.2124023E-2,0E0,0E0],"parents":[2147483647,0,0,1,1,3,3,4,4,5,5,7,7,8,8,9,9,13,13,18,18],"right_children":[2,4,-1,6,8,10,-1,12,14,16,-1,-1,-1,18,-1,-1,-1,-1,20,-1,-1],"split_conditions":[5.29158E0,2.3995968E1,7.844192E-2,1.2860313E-1,-1.13428086E-1,6.374635E3,4.29395E-2,4.957396E1,1.0000536E-10,1.3334425E3,5.4537E-2,8.1551574E-2,2.7108774E-2,2.6467314E1,3.5789885E-2,1.3801529E-1,5.4888684E-2,3.6706712E-2,2.638439E0,4.3183267E-2,1.5166049E-1],"split_indices":[0,12,0,15,16,8,0,12,14,9,0,0,0,8,0,0,0,0,0,0,0],"split_type":[0,0,0,0,0,0,0,0,0,0,0,0,0,0,0,0,0,0,0,0,0],"sum_hessian":[3.46E2,3.4E2,6E0,1.2E1,3.28E2,1E1,2E0,4E0,3.24E2,7E0,3E0,2E0,2E0,3.23E2,1E0,5E0,2E0,1E0,3.22E2,1E0,3.21E2],"tree_param":{"num_deleted":"0","num_feature":"17","num_nodes":"21","size_leaf_vector":"0"}},{"base_weights":[1.7821846E0],"categories":[],"categories_nodes":[],"categories_segments":[],"categories_sizes":[],"default_left":[0],"id":23,"left_children":[-1],"loss_changes":[0E0],"parents":[2147483647],"right_children":[-1],"split_conditions":[1.7821847E-1],"split_indices":[0],"split_type":[0],"sum_hessian":[3.25E2],"tree_param":{"num_deleted":"0","num_feature":"17","num_nodes":"1","size_leaf_vector":"0"}},{"base_weights":[4.3162057E-1,2.5944898E-1,6.01223E-1,-1.4148355E-1,3.1152415E-1,-3.0741606E-2,6.2481886E-1,3.1691736E-1,-3.1541166E-1,-1.17576115E-1,3.3670413E-1,1.6162042E-1,-2.1541823E-1,6.59167E-1,2.701946E-1,6.1165386E-1,-1.8170376E-1,2.0051728E-1,-4.121543E-1,1.7099532E-1,3.8980615E-1,2.094698E-1,9.036154E-3,-6.676161E-2,-2.4271657E-1,5.264751E-1,7.7953154E-1,3.9243093E-1,-7.721159E-2,2.126942E-2,3.1292605E-1,2.5373366E-1,-2.0802541E-1,3.110013E-1,5.343989E-1,3.751213E-1,6.800843E-1,7.9470843E-1,-1.7177996E-1,1.7997365E-1,4.7616288E-1,7.896942E-2,-2.076554E-1,-2.6438117E-2,5.834225E-2,3.011977E-1,-4.38262E-2,1.6306931E-1,-2.9705274E-1,3.3393776E-1,5.3591166E-2,6.800935E-1,2.5687203E-1,-1.1051333E-1,4.1866064E-1,4.2106092E-1,7.812591E-1,8.06031E-1,-1.5919775E-2,2.1212336E-1,2.5687397E-2,5.1607496E-1,9.838924E-2,-2.6414746E-1,-4.733564E-2,1.2249191E-1,3.6058974E-1,-3.0006355E-1,2.2701989E-1,-3.278142E-1,-7.1622714E-2,3.4181163E-1,-8.499457E-2,1.3154091E-1,-9.418879E-2,3.134622E-1,8.2090336E-1,4.7701317E-1,3.2139525E-2,4.3281853E-2,-2.8594944E-1,6.3702625E-1,3.6289117E-1,4.399246E-2,4.5134056E-1,8.1198627E-1,2.9550722E-1,9.003871E-1,6.6437554E-1,-1.885731E-1,1.9386879E-1,4.1679448E-1,4.5623414E-2,3.5312358E-1,1.3770588E-1,1.8036121E-1,-3.1870157E-2,3.350024E-1,8.134037E-2,1.0119685E0,5.598562E-1,5.6045586E-1,-1.1821508E-2,-1.3146758E-1,1.0858649E-1,8.471474E-2,-1.979196E-2,2.5107685E-1,7.672317E-1,3.7943323E-3,3.8752562E-1,4.8043427E-1,8.0201656E-2,8.2978266E-1,2.1913046E-1,9.929197E-1,5.577601E-1,6.9337046E-1,2.8081948E-1],"categories":[],"categories_nodes":[],"categories_segments":[],"categories_sizes":[],"default_left":[1,1,1,1,1,1,1,1,0,1,1,1,1,1,1,0,0,1,0,1,1,0,0,0,0,1,1,1,1,1,0,1,1,1,1,1,1,1,0,1,1,0,1,0,0,1,1,0,1,1,1,1,1,1,1,1,1,1,0,0,0,0,0,0,0,1,1,0,0,0,0,1,0,1,0,1,1,1,1,1,0,1,1,0,1,1,0,1,1,0,0,0,0,0,0,0,0,0,0,0,0,0,0,0,0,0,0,0,0,0,0,0,0,0,0,0,0,0,0],"id":24,"left_children":[1,3,5,7,9,11,13,15,-1,17,19,21,23,25,27,-1,-1,29,-1,31,33,-1,-1,-1,-1,35,37,39,41,43,-1,45,47,49,51,53,55,57,-1,59,61,-1,63,-1,-1,65,67,-1,69,71,73,75,77,79,81,83,85,87,-1,-1,-1,-1,-1,-1,-1,89,91,-1,-1,-1,-1,93,-1,95,-1,97,99,101,103,105,-1,107,109,-1,111,113,-1,115,117,-1,-1,-1,-1,-1,-1,-1,-1,-1,-1,-1,-1,-1,-1,-1,-1,-1,-1,-1,-1,-1,-1,-1,-1,-1,-1,-1,-1,-1,-1],"loss_changes":[9.626259E0,3.5516853E0,2.524376E0,1.6945356E0,1.6494932E0,2.834894E-1,1.795166E0,9.929108E-1,0E0,9.2597437E-1,1.1740704E0,2.7311444E-2,2.8178096E-5,1.9373932E0,7.097509E-1,0E0,0E0,9.4089404E-2,0E0,1.1817265E0,1.0416298E0,0E0,0E0,0E0,0E0,1.4420872E0,1.2193604E0,1.2777686E-1,1.1826266E-1,6.8484196E-3,0E0,4.369024E-1,2.7970323E-1,4.012928E-1,1.2809324E0,8.708925E-1,5.88274E-1,6.9203186E-1,0E0,1.9352391E-2,6.984556E-2,0E0,1.4666796E-2,0E0,0E0,2.3178697E-1,4.151248E-1,0E0,1.8128335E-2,2.4346209E-1,9.302555E-2,9.300604E-1,6.772892E-1,1.20301336E-1,2.0724154E-1,1.1715436E-1,1.18270874E-1,3.7752533E-1,0E0,0E0,0E0,0E0,0E0,0E0,0E0,2.1418124E-1,3.173337E-1,0E0,0E0,0E0,0E0,9.913778E-2,0E0,4.5637026E-2,0E0,1.2750447E-2,2.3147488E-1,2.9215324E-1,1.1433373E-1,9.516662E-3,0E0,1.0888219E-1,2.727604E-1,0E0,8.02443E-2,5.0284386E-2,0E0,7.460594E-1,1.7228794E-1,0E0,0E0,0E0,0E0,0E0,0E0,0E0,0E0,0E0,0E0,0E0,0E0,0E0,0E0,0E0,0E0,0E0,0E0,0E0,0E0,0E0,0E0,0E0,0E0,0E0,0E0,0E0,0E0,0E0,0E0],"parents":[2147483647,0,0,1,1,2,2,3,3,4,4,5,5,6,6,7,7,9,9,10,10,11,11,12,12,13,13,14,14,17,17,19,19,20,20,25,25,26,26,27,27,28,28,29,29,31,31,32,32,33,33,34,34,35,35,36,36,37,37,39,39,40,40,42,42,45,45,46,46,48,48,49,49,50,50,51,51,52,52,53,53,54,54,55,55,56,56,57,57,65,65,66,66,71,71,73,73,75,75,76,76,77,77,78,78,79,79,81,81,82,82,84,84,85,85,87,87,88,88],"right_children":[2,4,6,8,10,12,14,16,-1,18,20,22,24,26,28,-1,-1,30,-1,32,34,-1,-1,-1,-1,36,38,40,42,44,-1,46,48,50,52,54,56,58,-1,60,62,-1,64,-1,-1,66,68,-1,70,72,74,76,78,80,82,84,86,88,-1,-1,-1,-1,-1,-1,-1,90,92,-1,-1,-1,-1,94,-1,96,-1,98,100,102,104,106,-1,108,110,-1,112,114,-1,116,118,-1,-1,-1,-1,-1,-1,-1,-1,-1,-1,-1,-1,-1,-1,-1,-1,-1,-1,-1,-1,-1,-1,-1,-1,-1,-1,-1,-1,-1,-1],"split_conditions":[2.4482399E1,1.5761604E1,2.5441288E1,8.3846904E-2,2.5084694E-3,1.3150092E3,2.8207191E1,4.040495E0,-3.1541165E-2,4.7541576E1,2.0057194E1,4.808201E0,-1.8227061E0,3.65159E-12,-3.4750638E0,6.116539E-2,-1.8170377E-2,5.1941404E0,-4.121543E-2,1.14481255E-1,1.2386344E-1,2.094698E-2,9.036154E-4,-6.676161E-3,-2.4271658E-2,1.1999271E-1,2.6043332E2,-7.954257E0,4.406781E0,5.1280384E0,3.1292606E-2,1.9717205E1,2.681864E0,5.0868604E3,4.8404466E-12,2.3639557E1,1.6379663E-1,1.505125E-1,-1.7177997E-2,1.6181572E-1,4.9128036E0,7.896942E-3,4.894846E0,-2.6438117E-3,5.834225E-3,1.8911535E-1,-4.4052134E0,1.6306931E-2,4.9334323E-1,3.1405045E1,1.7322079E1,1.9715721E1,-6.3067074E0,4.23254E0,2.9003117E1,-7.48771E0,5.4698406E1,8.3768755E-2,-1.5919775E-3,2.1212338E-2,2.5687397E-3,5.1607497E-2,9.838924E-3,-2.6414746E-2,-4.733564E-3,-7.938869E0,6.8711763E3,-3.0006355E-2,2.270199E-2,-3.278142E-2,-7.1622715E-3,4.8510492E-1,-8.4994575E-3,4.50736E-1,-9.418879E-3,4.9429697E-1,5.3530907E1,1.9682988E3,3.3647747E0,3.6517677E0,-2.8594945E-2,3.7621093E0,3.9802265E0,4.399246E-3,1.6206561E-1,4.8384225E-1,2.9550722E-2,2.0633926E3,4.7488384E0,-1.8857311E-2,1.9386878E-2,4.167945E-2,4.5623416E-3,3.531236E-2,1.3770588E-2,1.8036122E-2,-3.1870157E-3,3.350024E-2,8.134037E-3,1.0119685E-1,5.598562E-2,5.6045588E-2,-1.1821509E-3,-1.3146758E-2,1.0858649E-2,8.471474E-3,-1.9791962E-3,2.5107685E-2,7.672317E-2,3.7943324E-4,3.8752563E-2,4.8043426E-2,8.020165E-3,8.297827E-2,2.1913046E-2,9.929197E-2,5.577601E-2,6.933705E-2,2.8081948E-2],"split_indices":[10,10,7,3,3,8,10,0,0,5,10,0,4,14,4,0,0,0,0,15,13,0,0,0,0,13,7,4,0,0,0,10,0,8,14,5,6,15,0,6,0,0,0,0,0,6,4,0,2,4,5,5,4,0,5,4,12,15,0,0,0,0,0,0,0,4,8,0,0,0,0,2,0,2,0,2,12,8,0,0,0,0,0,0,6,6,0,8,0,0,0,0,0,0,0,0,0,0,0,0,0,0,0,0,0,0,0,0,0,0,0,0,0,0,0,0,0,0,0],"split_type":[0,0,0,0,0,0,0,0,0,0,0,0,0,0,0,0,0,0,0,0,0,0,0,0,0,0,0,0,0,0,0,0,0,0,0,0,0,0,0,0,0,0,0,0,0,0,0,0,0,0,0,0,0,0,0,0,0,0,0,0,0,0,0,0,0,0,0,0,0,0,0,0,0,0,0,0,0,0,0,0,0,0,0,0,0,0,0,0,0,0,0,0,0,0,0,0,0,0,0,0,0,0,0,0,0,0,0,0,0,0,0,0,0,0,0,0,0,0,0],"sum_hessian":[3.34E2,1.67E2,1.67E2,1.9E1,1.48E2,6E0,1.61E2,5E0,1.4E1,8E0,1.4E2,3E0,3E0,1.46E2,1.5E1,3E0,2E0,4E0,4E0,3.5E1,1.05E2,2E0,1E0,1E0,2E0,7.2E1,7.4E1,1.1E1,4E0,2E0,2E0,2.9E1,6E0,7E1,3.5E1,3.8E1,3.4E1,7.3E1,1E0,4E0,7E0,2E0,2E0,1E0,1E0,2.5E1,4E0,1E0,5E0,6.4E1,6E0,2.2E1,1.3E1,3E0,3.5E1,1.1E1,2.3E1,7.2E1,1E0,3E0,1E0,6E0,1E0,1E0,1E0,7E0,1.8E1,2E0,2E0,4E0,1E0,6.3E1,1E0,4E0,2E0,7E0,1.5E1,6E0,7E0,2E0,1E0,5E0,3E1,1E0,1E1,2.1E1,2E0,4E1,3.2E1,1E0,6E0,1.5E1,3E0,5.9E1,4E0,3E0,1E0,6E0,1E0,7E0,8E0,5E0,1E0,2E0,5E0,1E0,1E0,2E0,3E0,2E0,2.8E1,9E0,1E0,2E1,1E0,3E1,1E1,2.9E1,3E0],"tree_param":{"num_deleted":"0","num_feature":"17","num_nodes":"119","size_leaf_vector":"0"}},{"base_weights":[-7.1023905E-1,-4.764072E-1,-7.665316E-1,-2.9091448E-1,-5.628293E-1,-7.8712416E-1,-3.584924E-1,-2.249745E-1,-3.946726E-1,-6.123745E-1,-1.9931E-1,-6.3703954E-1,-8.3188707E-1,-1.1094302E-1,-4.1113448E-1,-5.670298E-2,-2.3194754E-1,-4.455166E-1,-1.6142713E-1,-5.1264924E-1,-9.4719434E-1,-2.3804711E-1,1.65563E-2,-3.9586323E-1,-6.907538E-1,-8.4148484E-1,-1.584216E-1,-1.5374744E-1,-4.4723713E-1,-5.964397E-1,-2.908465E-1,-2.0484892E-1,-4.5178407E-1,-4.8291886E-1,-7.563422E-1,-1.4545791E0,-8.242395E-1,-4.3365236E-2,-1.8231864E-1,-2.2847904E-1,-6.618799E-1,-1.3635501E-2,-3.1720403E-1,-3.617865E-1,-6.5282625E-1,-1.257163E-1,-7.7036744E-1,-6.7851566E-2,-8.318846E-1,-1.9745675E-1,-7.3661816E-1,-7.8289926E-1,-1.6587701E-1,-9.5415756E-2,-6.3615926E-3,-7.607316E-1,-9.621155E-1,-1.8568435E-1,-7.6096815E-1,-5.3964615E-1,-7.9701257E-1,-1.0889119E0,-7.258285E-1],"categories":[],"categories_nodes":[],"categories_segments":[],"categories_sizes":[],"default_left":[1,1,1,1,1,1,1,1,1,1,1,1,1,0,1,0,0,0,0,1,0,0,0,1,1,1,1,0,0,1,1,0,0,1,1,0,1,0,0,0,1,0,0,0,0,0,1,1,1,0,1,0,0,0,0,1,1,0,0,0,0,0,0],"id":25,"left_children":[1,3,5,7,9,11,13,15,17,19,21,23,25,-1,27,-1,-1,-1,-1,29,-1,-1,-1,31,33,35,37,-1,-1,39,41,-1,-1,43,45,-1,47,-1,-1,-1,49,-1,-1,-1,-1,-1,51,53,55,-1,57,-1,-1,-1,-1,59,61,-1,-1,-1,-1,-1,-1],"loss_changes":[4.136566E0,9.423809E-1,2.020111E0,7.5412035E-2,7.0643616E-1,1.2167969E0,1.4986026E-1,6.7950487E-3,2.2954583E-2,8.500223E-1,6.2475443E-2,5.556488E-1,1.1400604E0,0E0,4.2746782E-2,0E0,0E0,0E0,0E0,4.3983173E-1,0E0,0E0,0E0,5.6996107E-2,3.2995796E-1,8.522339E-1,3.091745E-3,0E0,0E0,4.026003E-1,7.604736E-2,0E0,0E0,7.253575E-2,2.3040581E-1,0E0,1.0480347E0,0E0,0E0,0E0,5.1404285E-1,0E0,0E0,0E0,0E0,0E0,1.4284897E-1,4.4777663E-3,1.0194244E0,0E0,7.334328E-2,0E0,0E0,0E0,0E0,5.885925E-1,1.0971375E0,0E0,0E0,0E0,0E0,0E0,0E0],"parents":[2147483647,0,0,1,1,2,2,3,3,4,4,5,5,6,6,7,7,8,8,9,9,10,10,11,11,12,12,14,14,19,19,23,23,24,24,25,25,26,26,29,29,30,30,33,33,34,34,36,36,40,40,46,46,47,47,48,48,50,50,55,55,56,56],"right_children":[2,4,6,8,10,12,14,16,18,20,22,24,26,-1,28,-1,-1,-1,-1,30,-1,-1,-1,32,34,36,38,-1,-1,40,42,-1,-1,44,46,-1,48,-1,-1,-1,50,-1,-1,-1,-1,-1,52,54,56,-1,58,-1,-1,-1,-1,60,62,-1,-1,-1,-1,-1,-1],"split_conditions":[8.579375E-2,1.9139599E1,7.462133E1,5.1646873E-2,9.32353E-4,3.7398872E0,1.8897761E-5,1.417529E-1,6.2202466E-1,-2.1997951E-1,4.660243E0,2.008385E1,5.29158E0,-1.1094302E-2,1.73412E1,-5.670298E-3,-2.3194754E-2,-4.455166E-2,-1.6142713E-2,2.246038E-12,-9.471943E-2,-2.3804711E-2,1.6556301E-3,2.864442E0,4.853125E-2,1.8995659E1,5.2967014E0,-1.5374744E-2,-4.4723716E-2,-7.6510887E0,-4.233341E0,-2.0484893E-2,-4.517841E-2,2.6990543E1,3.5906442E2,-1.4545791E-1,2.0119009E1,-4.336524E-3,-1.8231865E-2,-2.2847904E-2,1.0661365E-5,-1.3635502E-3,-3.1720404E-2,-3.6178652E-2,-6.528263E-2,-1.257163E-2,5.0101304E-1,4.179599E0,5.845846E-4,-1.9745676E-2,3.1164961E-2,-7.8289926E-2,-1.6587703E-2,-9.541576E-3,-6.3615927E-4,8.612227E-2,2.7025845E1,-1.8568436E-2,-7.609682E-2,-5.3964615E-2,-7.970126E-2,-1.0889119E-1,-7.2582856E-2],"split_indices":[13,10,5,15,11,0,11,6,6,4,0,10,0,0,10,0,0,0,0,14,0,0,0,0,15,10,0,0,0,4,4,0,0,5,8,0,10,0,0,0,11,0,0,0,0,0,2,0,11,0,6,0,0,0,0,6,10,0,0,0,0,0,0],"split_type":[0,0,0,0,0,0,0,0,0,0,0,0,0,0,0,0,0,0,0,0,0,0,0,0,0,0,0,0,0,0,0,0,0,0,0,0,0,0,0,0,0,0,0,0,0,0,0,0,0,0,0,0,0,0,0,0,0,0,0,0,0,0,0],"sum_hessian":[3.41E2,6.8E1,2.73E2,2.3E1,4.5E1,2.59E2,1.4E1,1.6E1,7E0,3.9E1,6E0,6.3E1,1.96E2,3E0,1.1E1,1E0,1.5E1,5E0,2E0,3.2E1,7E0,5E0,1E0,1.3E1,5E1,1.93E2,3E0,2E0,9E0,2.2E1,1E1,4E0,9E0,1.4E1,3.6E1,3E0,1.9E2,1E0,2E0,4E0,1.8E1,1E0,9E0,1E1,4E0,1E0,3.5E1,2E0,1.88E2,3E0,1.5E1,3.4E1,1E0,1E0,1E0,1.26E2,6.2E1,1E0,1.4E1,2E1,1.06E2,3.8E1,2.4E1],"tree_param":{"num_deleted":"0","num_feature":"17","num_nodes":"63","size_leaf_vector":"0"}},{"base_weights":[1.334354E0,8.7106705E-1,1.3592955E0,1.3711073E0,7.3019814E-1,1.3764589E0,6.162688E-1,1.7136753E-1,7.0744675E-1],"categories":[],"categories_nodes":[],"categories_segments":[],"categories_sizes":[],"default_left":[1,0,1,1,0,0,1,0,0],"id":26,"left_children":[1,-1,3,5,-1,-1,7,-1,-1],"loss_changes":[2.710083E0,0E0,1.3617554E0,4.0808105E-1,0E0,0E0,4.1027308E-2,0E0,0E0],"parents":[2147483647,0,0,2,2,3,3,6,6],"right_children":[2,-1,4,6,-1,-1,8,-1,-1],"split_conditions":[1.5761604E1,8.7106705E-2,5.29158E0,2.905665E1,7.301982E-2,1.3764589E-1,4.3134146E0,1.7136753E-2,7.074468E-2],"split_indices":[10,0,0,10,0,0,0,0,0],"split_type":[0,0,0,0,0,0,0,0,0],"sum_hessian":[3.36E2,1.9E1,3.17E2,3.1E2,7E0,3.07E2,3E0,1E0,2E0],"tree_param":{"num_deleted":"0","num_feature":"17","num_nodes":"9","size_leaf_vector":"0"}},{"base_weights":[1.6113489E0,2.0818033E0,1.5701276E0],"categories":[],"categories_nodes":[],"categories_segments":[],"categories_sizes":[],"default_left":[1,0,0],"id":27,"left_children":[1,-1,-1],"loss_changes":[3.2473145E0,0E0,0E0],"parents":[2147483647,0,0],"right_children":[2,-1,-1],"split_conditions":[1.66775E1,2.0818034E-1,1.5701276E-1],"split_indices":[10,0,0],"split_type":[0,0,0],"sum_hessian":[3.35E2,2.3E1,3.12E2],"tree_param":{"num_deleted":"0","num_feature":"17","num_nodes":"3","size_leaf_vector":"0"}},{"base_weights":[3.797824E-1,2.4809445E-1,5.1870215E-1,-1.2551935E-1,2.9618177E-1,5.5151105E-1,6.2571387E-3,1.3541351E-1,-2.3892006E-1,3.613573E-1,1.3456811E-1,6.4654803E-1,3.7025666E-1,2.0586044E-1,-3.9451373E-1,3.2962006E-1,-9.264641E-2,6.750087E-2,-2.9125413E-1,3.9270416E-1,2.3490011E-3,1.8410487E-1,-1.7479984E-1,6.679087E-1,-3.8426176E-2,4.6986632E-2,4.1547918E-1,3.0547225E-1,2.9880524E-2,1.1714101E-1,-2.0162256E-1,-1.1799753E-1,2.1924883E-1,2.234462E-1,4.2832863E-1,3.1989998E-1,-3.7918195E-1,1.4213218E-1,5.368192E-1,1.7014328E-1,-2.6064757E-1,-1.02270514E-1,6.8501943E-1,-1.512335E-1,4.958743E-2,-7.2261594E-2,9.877964E-2,2.3573592E-1,4.7383824E-1,-1.8802375E-2,5.2375615E-2,2.8137195E-1,-1.9859031E-1,6.043837E-1,3.7463728E-1,4.0307957E-1,1.0236049E-1,8.3744116E-2,3.209666E-1,1.5491584E-1,6.124818E-1,-9.8865926E-2,-3.1682193E-1,8.58435E-3,-1.6199012E-1,7.3143893E-1,4.720534E-1,-1.5123785E-2,8.950493E-2,1.9909233E-2,1.10571876E-1,1.4429326E-1,4.2826924E-1,4.9586523E-1,6.625295E-2,-3.953301E-2,3.481885E-1,6.3413936E-1,4.926884E-2,3.895478E-1,4.240963E-2,1.5584625E-1,-7.60448E-2,4.3972403E-2,3.5009432E-1,7.7814037E-1,5.047561E-1,3.3003682E-1,6.886504E-1,1.7320596E-1,9.457429E-3,1.3276279E-2,5.1008683E-1,-1.7914446E-1,6.671896E-2,2.1256882E-1,4.1498283E-1,8.410104E-1,4.448451E-1,5.447909E-1,3.3518392E-1,-3.0563315E-2,1.3066423E-1,-7.906426E-2,1.9939047E-1,-2.9377788E-1,1.5110705E-2,8.608186E-1,5.886881E-1,5.608844E-1,1.9615E-1,9.775908E-2,3.8449812E-1,1.5967607E-2,1.908648E-1,-1.0216892E-2,2.4403036E-2,5.4316044E-2,5.226323E-1],"categories":[],"categories_nodes":[],"categories_segments":[],"categories_sizes":[],"default_left":[1,1,1,1,1,1,1,1,1,1,1,1,1,1,0,0,1,1,0,1,1,1,1,1,1,1,1,0,1,0,0,0,0,1,1,1,0,1,1,0,1,1,1,0,1,0,1,1,1,0,0,1,0,1,1,0,0,1,1,0,0,0,0,0,0,1,1,0,0,0,0,1,0,1,0,1,1,1,0,1,1,1,1,0,0,1,1,1,0,1,1,0,1,0,0,0,0,0,0,0,0,0,0,0,0,0,0,0,0,0,0,0,0,0,0,0,0,0,0],"id":28,"left_children":[1,3,5,7,9,11,13,15,17,19,21,23,25,27,-1,-1,29,31,-1,33,35,37,39,41,43,45,47,-1,49,-1,-1,-1,-1,51,53,55,-1,57,59,-1,61,63,65,-1,67,-1,69,71,73,-1,-1,75,-1,77,79,-1,-1,81,83,-1,-1,-1,-1,-1,-1,85,87,-1,-1,-1,-1,89,-1,91,-1,93,95,97,-1,99,101,103,105,-1,-1,107,109,111,-1,113,115,-1,117,-1,-1,-1,-1,-1,-1,-1,-1,-1,-1,-1,-1,-1,-1,-1,-1,-1,-1,-1,-1,-1,-1,-1,-1,-1,-1],"loss_changes":[6.1461754E0,3.235138E0,2.7874641E0,6.5374243E-1,1.6156282E0,2.447853E0,9.611618E-1,3.405732E-1,2.6020366E-1,1.2595015E0,7.5246066E-1,1.5034447E0,7.991471E-1,1.3110977E-1,0E0,0E0,1.1506557E-1,1.1031783E-1,0E0,5.253525E-1,1.3328556E0,5.3067994E-1,2.516355E-1,1.3615303E0,4.7213595E-2,5.654776E-2,4.0229225E-1,0E0,5.3652907E-3,0E0,0E0,0E0,0E0,5.448134E-1,5.6759644E-1,6.730968E-2,0E0,3.6990923E-1,2.0699978E-2,0E0,2.3204982E-2,2.125121E-2,6.0375595E-1,0E0,9.102983E-3,0E0,3.37895E-3,1.8468422E-1,2.903509E-1,0E0,0E0,3.9971662E-1,0E0,2.6607704E-1,3.1537724E-1,0E0,0E0,3.57485E-1,5.7219446E-2,0E0,0E0,0E0,0E0,0E0,0E0,4.2238235E-1,3.8792706E-1,0E0,0E0,0E0,0E0,4.1245043E-2,0E0,2.265768E-1,0E0,7.128829E-2,4.7666907E-2,2.9159212E-1,0E0,3.575306E-1,2.9754326E-2,2.3057353E-1,2.0291491E-1,0E0,0E0,4.643898E-1,1.6712713E-1,1.3951373E-1,0E0,2.1942168E-2,1.131457E-3,0E0,1.6030121E-1,0E0,0E0,0E0,0E0,0E0,0E0,0E0,0E0,0E0,0E0,0E0,0E0,0E0,0E0,0E0,0E0,0E0,0E0,0E0,0E0,0E0,0E0,0E0,0E0,0E0,0E0],"parents":[2147483647,0,0,1,1,2,2,3,3,4,4,5,5,6,6,7,7,8,8,9,9,10,10,11,11,12,12,13,13,16,16,17,17,19,19,20,20,21,21,22,22,23,23,24,24,25,25,26,26,28,28,33,33,34,34,35,35,37,37,38,38,40,40,41,41,42,42,44,44,46,46,47,47,48,48,51,51,53,53,54,54,57,57,58,58,65,65,66,66,71,71,73,73,75,75,76,76,77,77,79,79,80,80,81,81,82,82,85,85,86,86,87,87,89,89,90,90,92,92],"right_children":[2,4,6,8,10,12,14,16,18,20,22,24,26,28,-1,-1,30,32,-1,34,36,38,40,42,44,46,48,-1,50,-1,-1,-1,-1,52,54,56,-1,58,60,-1,62,64,66,-1,68,-1,70,72,74,-1,-1,76,-1,78,80,-1,-1,82,84,-1,-1,-1,-1,-1,-1,86,88,-1,-1,-1,-1,90,-1,92,-1,94,96,98,-1,100,102,104,106,-1,-1,108,110,112,-1,114,116,-1,118,-1,-1,-1,-1,-1,-1,-1,-1,-1,-1,-1,-1,-1,-1,-1,-1,-1,-1,-1,-1,-1,-1,-1,-1,-1,-1],"split_conditions":[2.4482399E1,1.5918705E1,4.880318E0,6.7021546E-13,3.2873687E3,2.7336945E1,7.1903455E-1,4.2056934E3,2.788093E-1,8.8989455E-1,1.040289E3,1.3565001E-1,7.849431E-2,8.961563E-2,-3.9451372E-2,3.2962006E-2,1.8102422E-1,5.3446937E-1,-2.9125413E-2,7.94996E-2,2.3672045E1,7.6936196E3,2.991877E3,2.3775265E1,7.1211565E-1,1.7741512E-13,-7.989888E0,3.0547226E-2,4.2796442E-1,1.1714101E-2,-2.0162256E-2,-1.1799753E-2,2.1924883E-2,1.3497812E-1,-6.6310787E0,5.4715626E-2,-3.7918195E-2,2.7244291E0,1.3493964E-1,1.7014328E-2,1.1294584E-1,8.8846695E-1,5.383097E1,-1.512335E-2,7.577606E-1,-7.2261593E-3,7.84843E-1,4.315099E2,3.3188516E-1,-1.8802375E-3,5.2375617E-3,4.24375E-3,-1.985903E-2,2.4409895E1,8.782109E-1,4.0307958E-2,1.0236049E-2,1.7165997E-12,9.8695226E-2,1.5491584E-2,6.124818E-2,-9.886593E-3,-3.1682193E-2,8.5843506E-4,-1.6199013E-2,2.28065E2,3.676991E-12,-1.5123785E-3,8.950493E-3,1.9909234E-3,1.1057188E-2,1.6114083E-1,4.2826924E-2,-3.721875E-2,6.6252947E-3,-6.332046E0,2.934987E2,1.4326276E-12,4.926884E-3,1.5066869E2,5.883141E-2,1.9140049E1,-7.4667034E0,4.3972405E-3,3.5009433E-2,9.855312E-2,1.896363E-4,-6.463797E0,6.8865046E-2,3.5118927E1,5.318922E-1,1.3276279E-3,2.7355055E1,-1.7914446E-2,6.6718957E-3,2.1256883E-2,4.1498285E-2,8.410104E-2,4.448451E-2,5.4479092E-2,3.3518393E-2,-3.0563315E-3,1.3066423E-2,-7.906426E-3,1.9939048E-2,-2.9377788E-2,1.5110705E-3,8.608186E-2,5.8868807E-2,5.6088444E-2,1.9615E-2,9.775909E-3,3.8449813E-2,1.5967608E-3,1.908648E-2,-1.0216892E-3,2.4403036E-3,5.4316046E-3,5.226323E-2],"split_indices":[10,10,4,14,8,10,1,8,6,1,7,15,6,15,0,0,1,1,0,13,10,9,9,7,1,14,4,0,1,0,0,0,0,15,4,15,0,6,1,0,15,1,12,0,1,0,1,9,6,0,0,15,0,10,1,0,0,14,13,0,0,0,0,0,0,7,14,0,0,0,0,6,0,15,0,4,7,14,0,9,6,10,4,0,0,15,11,4,0,12,1,0,10,0,0,0,0,0,0,0,0,0,0,0,0,0,0,0,0,0,0,0,0,0,0,0,0,0,0],"split_type":[0,0,0,0,0,0,0,0,0,0,0,0,0,0,0,0,0,0,0,0,0,0,0,0,0,0,0,0,0,0,0,0,0,0,0,0,0,0,0,0,0,0,0,0,0,0,0,0,0,0,0,0,0,0,0,0,0,0,0,0,0,0,0,0,0,0,0,0,0,0,0,0,0,0,0,0,0,0,0,0,0,0,0,0,0,0,0,0,0,0,0,0,0,0,0,0,0,0,0,0,0,0,0,0,0,0,0,0,0,0,0,0,0,0,0,0,0,0,0],"sum_hessian":[3.42E2,1.77E2,1.65E2,2E1,1.57E2,1.55E2,1E1,6E0,1.4E1,1.11E2,4.6E1,1E2,5.5E1,7E0,3E0,3E0,3E0,2E0,1.2E1,1.02E2,9E0,4E1,6E0,9.7E1,3E0,7E0,4.8E1,4E0,3E0,1E0,2E0,1E0,1E0,1.9E1,8.3E1,5E0,4E0,3.7E1,3E0,1E0,5E0,2E0,9.5E1,1E0,2E0,2E0,5E0,1.3E1,3.5E1,1E0,2E0,1.7E1,2E0,1.7E1,6.6E1,3E0,2E0,2.9E1,8E0,1E0,2E0,2E0,3E0,1E0,1E0,7.6E1,1.9E1,1E0,1E0,1E0,4E0,1E1,3E0,3.3E1,2E0,3E0,1.4E1,1.6E1,1E0,6.3E1,3E0,2E1,9E0,1E0,7E0,6.1E1,1.5E1,1.3E1,6E0,8E0,2E0,1E0,3.2E1,1E0,2E0,6E0,8E0,6E0,1E1,1.4E1,4.9E1,2E0,1E0,3E0,1.7E1,2E0,7E0,4E1,2.1E1,1.2E1,3E0,3E0,1E1,1E0,7E0,1E0,1E0,1E0,3.1E1],"tree_param":{"num_deleted":"0","num_feature":"17","num_nodes":"119","size_leaf_vector":"0"}},{"base_weights":[-6.41338E-1,-2.7515554E-1,-6.6495156E-1,-2.928265E-1,-6.563066E-2,-4.4805032E-1,-6.8545014E-1,-2.288233E-1,-4.0403008E-1,1.1446277E-2,-1.0989227E-1,-5.026779E-1,-1.9674854E-1,-1.1978501E0,-6.720221E-1,-5.386783E-2,-2.3747241E-1,-4.7211415E-1,-1.7857465E-1,-3.3282658E-1,-6.7315435E-1,-7.1398035E-2,-3.4008318E-1,-4.4675365E-1,-1.4617099E0,-7.870682E-1,-6.1429346E-1,-8.8888355E-2,-3.447535E-1,-7.236061E-1,-8.431839E-2,-8.132198E-2,-1.5851125E-2,-2.226366E-1,-8.247343E-1,-5.323626E-1,-6.931757E-1,-6.043513E-3,-2.577282E-1,-6.2369263E-1,-9.248742E-1,-2.1270105E-1,-5.546146E-1,-7.413822E-1,-4.4844934E-1,-8.9354865E-2,-6.574623E-1,-9.977399E-1,-4.496856E-1,-7.9336904E-2,-2.7685216E-1,-5.671862E-1,-1.3938509E-1,-7.56917E-1,-2.6864228E-1,-1.9501916E-1,-5.3092104E-1,-1.4976078E-1,1.5728485E-2,-6.7337686E-1,-1.0592757E-1,-7.789127E-1,-1.2677095E0,-5.030998E-1,-1.751572E-1,-9.714672E-2,-1.2953727E-2,-2.9253793E-1,-5.8730966E-1,-7.6465315E-1,-9.609003E-2,-3.0742687E-1,-6.321765E-1],"categories":[],"categories_nodes":[],"categories_segments":[],"categories_sizes":[],"default_left":[1,1,1,1,1,1,1,1,1,0,0,1,1,1,1,0,0,0,0,1,1,1,0,0,0,1,1,0,0,0,0,0,0,1,1,1,1,0,0,1,1,1,1,1,1,1,1,1,1,1,0,1,0,1,0,0,1,0,0,0,0,0,0,0,0,0,0,0,0,0,0,0,0],"id":29,"left_children":[1,3,5,7,9,11,13,15,17,-1,-1,19,21,23,25,-1,-1,-1,-1,27,29,31,-1,-1,-1,33,35,-1,-1,-1,-1,-1,-1,37,39,41,43,-1,-1,45,47,49,51,53,55,57,59,61,63,65,-1,67,-1,69,-1,-1,71,-1,-1,-1,-1,-1,-1,-1,-1,-1,-1,-1,-1,-1,-1,-1,-1],"loss_changes":[2.7137299E0,6.2236667E-2,1.0889893E0,4.989636E-2,1.1492507E-2,3.129387E-1,1.1559601E0,9.905994E-3,7.7919364E-3,0E0,0E0,4.7089195E-1,1.0148823E-1,5.3608036E-1,1.3761139E0,0E0,0E0,0E0,0E0,1.0087371E-2,2.6577282E-1,1.4671758E-3,0E0,0E0,0E0,1.7297821E0,8.653946E-1,0E0,0E0,0E0,0E0,0E0,0E0,5.164659E-2,1.1142769E0,5.791149E-1,7.764778E-1,0E0,0E0,5.006285E-1,1.4210777E0,4.6479106E-2,3.959751E-1,3.6214447E-1,2.7267504E-1,2.139848E-2,1.832161E-1,1.7300911E0,4.3851852E-2,3.470676E-3,0E0,3.145523E-1,0E0,3.0482864E-1,0E0,0E0,9.984207E-2,0E0,0E0,0E0,0E0,0E0,0E0,0E0,0E0,0E0,0E0,0E0,0E0,0E0,0E0,0E0,0E0],"parents":[2147483647,0,0,1,1,2,2,3,3,4,4,5,5,6,6,7,7,8,8,11,11,12,12,13,13,14,14,19,19,20,20,21,21,25,25,26,26,33,33,34,34,35,35,36,36,39,39,40,40,41,41,42,42,43,43,44,44,45,45,46,46,47,47,48,48,49,49,51,51,53,53,56,56],"right_children":[2,4,6,8,10,12,14,16,18,-1,-1,20,22,24,26,-1,-1,-1,-1,28,30,32,-1,-1,-1,34,36,-1,-1,-1,-1,-1,-1,38,40,42,44,-1,-1,46,48,50,52,54,56,58,60,62,64,66,-1,68,-1,70,-1,-1,72,-1,-1,-1,-1,-1,-1,-1,-1,-1,-1,-1,-1,-1,-1,-1,-1],"split_conditions":[1.64555E1,2.3038867E-3,-6.785339E-2,3.82125E-2,3.7057009E0,2.467088E3,-6.370546E-2,1.4717886E-1,6.4565873E-1,1.1446277E-3,-1.0989227E-2,5.850946E-4,2.2418414E2,-6.635992E-2,9.2270294E1,-5.3867833E-3,-2.3747241E-2,-4.7211416E-2,-1.7857466E-2,5.1283695E-2,4.940654E0,4.8176756E0,-3.400832E-2,-4.4675365E-2,-1.4617099E-1,2.214785E1,1.8012694E-1,-8.888836E-3,-3.4475353E-2,-7.236061E-2,-8.43184E-3,-8.132198E-3,-1.5851125E-3,3.120826E1,9.5318954E1,2.1660145E1,5.009996E3,-6.043513E-4,-2.577282E-2,1.8023476E1,2.0086356E3,4.6438804E0,8.61089E1,5.761978E1,2.0926651E1,4.4592013E0,5.263932E0,8.1919495E2,2.9870044E2,4.5823784E0,-2.7685216E-2,3.7531145E-2,-1.3938509E-2,1.2593757E3,-2.6864229E-2,-1.9501915E-2,9.223125E-2,-1.4976079E-2,1.5728485E-3,-6.7337684E-2,-1.0592758E-2,-7.7891275E-2,-1.2677096E-1,-5.0309982E-2,-1.751572E-2,-9.714672E-3,-1.2953727E-3,-2.9253794E-2,-5.8730967E-2,-7.6465316E-2,-9.609004E-3,-3.0742688E-2,-6.3217655E-2],"split_indices":[10,11,16,15,0,8,16,6,6,0,0,11,7,16,7,0,0,0,0,6,0,0,0,0,0,10,6,0,0,0,0,0,0,5,9,10,8,0,0,5,8,0,5,12,10,0,0,8,9,0,0,6,0,7,0,0,15,0,0,0,0,0,0,0,0,0,0,0,0,0,0,0,0],"split_type":[0,0,0,0,0,0,0,0,0,0,0,0,0,0,0,0,0,0,0,0,0,0,0,0,0,0,0,0,0,0,0,0,0,0,0,0,0,0,0,0,0,0,0,0,0,0,0,0,0,0,0,0,0,0,0,0,0,0,0,0,0,0,0,0,0,0,0,0,0,0,0,0,0],"sum_hessian":[3.34E2,2.1E1,3.13E2,1.9E1,2E0,2.9E1,2.84E2,1.4E1,5E0,1E0,1E0,2.3E1,6E0,5E0,2.79E2,1E0,1.3E1,3E0,2E0,1.3E1,1E1,4E0,2E0,2E0,3E0,8.9E1,1.9E2,1E0,1.2E1,9E0,1E0,3E0,1E0,6E0,8.3E1,9.7E1,9.3E1,1E0,5E0,3E1,5.3E1,7E0,9E1,7.6E1,1.7E1,2E0,2.8E1,4.5E1,8E0,3E0,4E0,8.7E1,3E0,7.3E1,3E0,5E0,1.2E1,1E0,1E0,2.7E1,1E0,2.7E1,1.8E1,6E0,2E0,2E0,1E0,7E0,8E1,7.2E1,1E0,5E0,7E0],"tree_param":{"num_deleted":"0","num_feature":"17","num_nodes":"73","size_leaf_vector":"0"}},{"base_weights":[1.2061579E0,8.0794007E-1,1.234391E0,1.1620076E0,6.9074565E-1,1.2428701E0,6.728523E-1,1.3256224E0,2.537741E-1],"categories":[],"categories_nodes":[],"categories_segments":[],"categories_sizes":[],"default_left":[1,1,1,1,0,0,0,0,0],"id":30,"left_children":[1,3,5,7,-1,-1,-1,-1,-1],"loss_changes":[2.9264526E0,2.7621078E-1,7.064209E-1,4.0659428E-1,0E0,0E0,0E0,0E0,0E0],"parents":[2147483647,0,0,1,1,2,2,3,3],"right_children":[2,4,6,8,-1,-1,-1,-1,-1],"split_conditions":[1.5761604E1,8.7520003E-1,5.275998E0,6.8780064E-4,6.907456E-2,1.2428701E-1,6.728523E-2,1.3256225E-1,2.5377411E-2],"split_indices":[10,10,0,11,0,0,0,0,0],"split_type":[0,0,0,0,0,0,0,0,0],"sum_hessian":[3.48E2,2.5E1,3.23E2,4E0,2.1E1,3.17E2,6E0,3E0,1E0],"tree_param":{"num_deleted":"0","num_feature":"17","num_nodes":"9","size_leaf_vector":"0"}},{"base_weights":[1.4468136E0,1.8959923E0,1.4025743E0,7.24675E-1,1.9582214E0],"categories":[],"categories_nodes":[],"categories_segments":[],"categories_sizes":[],"default_left":[1,1,0,0,0],"id":31,"left_children":[1,3,-1,-1,-1],"loss_changes":[4.1765137E0,6.2184143E-1,0E0,0E0,0E0],"parents":[2147483647,0,0,1,1],"right_children":[2,4,-1,-1,-1],"split_conditions":[1.66775E1,3.1105242E0,1.4025743E-1,7.24675E-2,1.9582215E-1],"split_indices":[10,0,0,0,0],"split_type":[0,0,0,0,0],"sum_hessian":[3.43E2,2.7E1,3.16E2,2E0,2.5E1],"tree_param":{"num_deleted":"0","num_feature":"17","num_nodes":"5","size_leaf_vector":"0"}},{"base_weights":[3.4836406E-1,-1.7253225E-1,3.7851244E-1,1.3311374E-1,-2.1388811E-1,2.7011278E-1,4.6865076E-1,2.082864E-1,-2.5097406E-1,5.122974E-1,2.3014271E-1,5.459267E-1,3.4408128E-1,1.1522093E0,2.9395285E-1,9.385342E-2,3.209648E-1,5.8035004E-1,3.448513E-2,7.524155E-2,3.8129264E-1,3.5442546E-1,-1.0639435E-1,1.2534837E-1,-2.4616577E-1,3.8388583E-1,1.5815386E-1,6.2150264E-1,1.3548106E-1,2.3510584E-1,-3.7825134E-1,2.0147507E-1,-4.2493314E-2,3.963803E-1,-2.770717E-1,8.2464665E-2,3.679609E-1,4.680541E-2,-2.0639694E-1,3.24049E-1,8.637216E-2,5.0307125E-2,-3.3286077E-1,3.1602862E-1,5.3801817E-1,7.910284E-2,3.0636808E-1,7.100764E-1,4.658599E-1,-3.3565182E-2,1.8193826E-1,3.431498E-1,1.2678604E-2,9.8031834E-2,3.07624E-1,1.8523544E-2,-1.737888E-1,4.0890247E-1,-1.8373571E-1,9.299758E-2,3.8195825E-1,3.4956136E-4,4.3189055E-1,1.2081872E-2,2.6259655E-1,4.0605417E-1,2.3159055E-1,-3.575355E-2,5.7865316E-1,-6.7143455E-2,1.6497749E-1,1.3678832E-1,4.4175076E-1,3.783678E-1,7.7129966E-1,2.2712666E-1,6.013007E-1,-4.2942077E-2,-7.4056983E-3,2.2547813E-1,3.421245E-2,-1.786226E-2,3.6880165E-2,-5.9810445E-2,5.3059652E-2,4.1961938E-1,6.1836082E-2,2.4112374E-2,-2.3588032E-2,-1.4459911E-1,1.1332042E-1,2.9662806E-1,-7.289076E-2,1.3763657E-1,4.6845642E-1,4.7205892E-1,1.7475893E-1,1.546698E-1,6.319837E-1,6.730381E-2,-1.0076863E-1,-1.8256497E-1,2.1798824E-1,4.7157425E-2,1.808231E-1,5.317303E-1,-2.2949114E-2,4.4652125E-1,8.250923E-1,4.3429375E-2,4.3086222E-1,7.559103E-2,6.2176067E-1,2.5409964E-1,4.118529E-2,4.3163538E-2,8.155137E-3,3.451494E-1,5.0709254E-1],"categories":[],"categories_nodes":[],"categories_segments":[],"categories_sizes":[],"default_left":[1,1,1,0,1,1,1,0,0,1,1,1,1,0,1,1,1,1,1,1,1,1,1,1,1,1,1,1,1,1,0,1,1,1,0,0,1,0,0,1,1,0,0,1,1,1,1,1,1,1,1,0,1,0,0,1,0,1,0,0,0,1,0,1,1,1,1,0,1,1,1,1,0,1,1,1,1,0,0,1,1,0,0,0,0,1,0,0,0,0,0,0,0,0,0,0,0,0,0,0,0,0,0,0,0,0,0,0,0,0,0,0,0,0,0,0,0,0,0],"id":32,"left_children":[1,3,5,-1,7,9,11,-1,-1,13,15,17,19,-1,21,23,25,27,29,31,33,35,37,39,41,43,45,47,49,51,-1,53,55,57,-1,-1,59,-1,-1,61,63,-1,-1,65,67,69,71,73,75,77,79,-1,81,-1,-1,83,-1,85,-1,-1,-1,87,-1,89,91,93,95,-1,97,99,101,103,-1,105,107,109,111,-1,-1,113,115,-1,-1,-1,-1,117,-1,-1,-1,-1,-1,-1,-1,-1,-1,-1,-1,-1,-1,-1,-1,-1,-1,-1,-1,-1,-1,-1,-1,-1,-1,-1,-1,-1,-1,-1,-1,-1,-1],"loss_changes":[5.608883E0,2.8127658E-1,3.1369133E0,0E0,3.3409578E-1,1.372839E0,1.5545044E0,0E0,0E0,2.5954509E0,1.6285391E0,1.9165993E0,6.9159126E-1,0E0,4.492793E-1,6.198453E-1,7.5882626E-1,1.8014679E0,7.51357E-1,1.5718219E-1,7.356167E-1,2.4872899E-2,5.5621613E-2,3.669858E-1,1.4525887E-1,4.2613316E-1,2.5696117E-1,9.6507645E-1,8.4640935E-2,1.3984084E-1,0E0,2.4745017E-2,5.128661E-2,5.255165E-1,0E0,0E0,1.8361568E-2,0E0,0E0,2.7911502E-1,5.728648E-1,0E0,0E0,2.2522783E-1,3.9373207E-1,2.245776E-1,1.2323892E-1,8.8604355E-1,1.0597954E0,4.1786814E-4,4.3741554E-2,0E0,2.876173E-3,0E0,0E0,1.6700277E-2,0E0,2.0094013E-1,0E0,0E0,0E0,2.275237E-3,0E0,5.23975E-1,1.700443E-1,2.5377083E-1,2.4549246E-1,0E0,2.4142075E-1,3.8427807E-2,2.424553E-1,1.1207223E-2,0E0,6.8921924E-1,4.7017097E-1,5.4267305E-1,2.0038795E-1,0E0,0E0,2.1183252E-2,3.477193E-4,0E0,0E0,0E0,0E0,2.0931053E-1,0E0,0E0,0E0,0E0,0E0,0E0,0E0,0E0,0E0,0E0,0E0,0E0,0E0,0E0,0E0,0E0,0E0,0E0,0E0,0E0,0E0,0E0,0E0,0E0,0E0,0E0,0E0,0E0,0E0,0E0,0E0,0E0,0E0],"parents":[2147483647,0,0,1,1,2,2,4,4,5,5,6,6,9,9,10,10,11,11,12,12,14,14,15,15,16,16,17,17,18,18,19,19,20,20,21,21,22,22,23,23,24,24,25,25,26,26,27,27,28,28,29,29,31,31,32,32,33,33,36,36,39,39,40,40,43,43,44,44,45,45,46,46,47,47,48,48,49,49,50,50,52,52,55,55,57,57,61,61,63,63,64,64,65,65,66,66,68,68,69,69,70,70,71,71,73,73,74,74,75,75,76,76,79,79,80,80,85,85],"right_children":[2,4,6,-1,8,10,12,-1,-1,14,16,18,20,-1,22,24,26,28,30,32,34,36,38,40,42,44,46,48,50,52,-1,54,56,58,-1,-1,60,-1,-1,62,64,-1,-1,66,68,70,72,74,76,78,80,-1,82,-1,-1,84,-1,86,-1,-1,-1,88,-1,90,92,94,96,-1,98,100,102,104,-1,106,108,110,112,-1,-1,114,116,-1,-1,-1,-1,118,-1,-1,-1,-1,-1,-1,-1,-1,-1,-1,-1,-1,-1,-1,-1,-1,-1,-1,-1,-1,-1,-1,-1,-1,-1,-1,-1,-1,-1,-1,-1,-1,-1],"split_conditions":[1.474079E1,8.7520003E-1,2.4482399E1,1.3311374E-2,-7.740052E-2,5.873574E1,2.7334301E1,2.082864E-2,-2.5097406E-2,3.6377274E1,1.0338974E-1,5.0185823E0,7.849431E-2,1.1522093E-1,-3.2179013E-2,5.1401043E0,3.4159612E3,6.2009113E1,4.430425E0,2.7772104E1,2.95802E1,3.1164961E-2,5.181684E0,8.948434E2,4.5964325E1,4.301889E-1,3.5556858E0,1.2902977E2,6.3898483E1,2.0166512E1,-3.7825134E-2,5.153801E0,5.2195263E0,6.6806826E3,-2.7707173E-2,8.2464665E-3,-7.911729E0,4.6805413E-3,-2.0639693E-2,2.136448E-2,5.3140846E1,5.0307126E-3,-3.3286076E-2,-5.832963E0,4.1221985E2,2.0285378E0,1.7156239E1,3.9942589E0,1.5794183E-1,5.0778637E0,2.6834953E1,3.4314983E-2,3.9158735E0,9.803183E-3,3.0762402E-2,2.6930088E1,-1.737888E-2,3.3188516E-1,-1.8373571E-2,9.299758E-3,3.8195826E-2,5.061936E0,4.3189056E-2,2.0195845E1,2.30551E1,2.166115E1,1.0618784E-1,-3.5753548E-3,2.0177086E1,3.9297446E3,2.769812E0,6.7035496E-1,4.4175077E-2,3.3300987E1,-7.6755915E0,-3.9150631E0,1.473812E1,-4.294208E-3,-7.4056984E-4,2.4959783E3,4.6666756E0,-1.786226E-3,3.6880167E-3,-5.9810444E-3,5.3059654E-3,3.4200372E2,6.1836084E-3,2.4112375E-3,-2.3588033E-3,-1.4459911E-2,1.1332042E-2,2.9662807E-2,-7.2890758E-3,1.3763658E-2,4.684564E-2,4.720589E-2,1.7475894E-2,1.5466981E-2,6.319837E-2,6.730381E-3,-1.0076864E-2,-1.8256499E-2,2.1798825E-2,4.7157425E-3,1.8082311E-2,5.317303E-2,-2.2949115E-3,4.4652127E-2,8.2509235E-2,4.3429374E-3,4.3086223E-2,7.559103E-3,6.2176067E-2,2.5409965E-2,4.118529E-3,4.3163537E-3,8.155137E-4,3.451494E-2,5.0709255E-2],"split_indices":[10,10,10,0,16,9,10,0,0,12,13,4,6,0,16,0,8,5,0,10,10,6,0,8,5,2,0,7,5,4,0,0,0,9,0,0,4,0,0,6,12,0,0,4,8,6,5,0,6,0,10,0,0,0,0,5,0,6,0,0,0,0,0,10,10,10,13,0,5,8,0,6,0,5,4,4,5,0,0,8,0,0,0,0,0,9,0,0,0,0,0,0,0,0,0,0,0,0,0,0,0,0,0,0,0,0,0,0,0,0,0,0,0,0,0,0,0,0,0],"split_type":[0,0,0,0,0,0,0,0,0,0,0,0,0,0,0,0,0,0,0,0,0,0,0,0,0,0,0,0,0,0,0,0,0,0,0,0,0,0,0,0,0,0,0,0,0,0,0,0,0,0,0,0,0,0,0,0,0,0,0,0,0,0,0,0,0,0,0,0,0,0,0,0,0,0,0,0,0,0,0,0,0,0,0,0,0,0,0,0,0,0,0,0,0,0,0,0,0,0,0,0,0,0,0,0,0,0,0,0,0,0,0,0,0,0,0,0,0,0,0],"sum_hessian":[3.52E2,1.9E1,3.33E2,2E0,1.7E1,1.53E2,1.8E2,1E0,1.6E1,2E1,1.33E2,1.09E2,7.1E1,4E0,1.6E1,5.4E1,7.9E1,1.02E2,7E0,9E0,6.2E1,1.4E1,2E0,5E1,4E0,5.6E1,2.3E1,9.3E1,9E0,5E0,2E0,4E0,5E0,6.1E1,1E0,1E0,1.3E1,1E0,1E0,7E0,4.3E1,1E0,3E0,4.1E1,1.5E1,1.6E1,7E0,5.7E1,3.6E1,2E0,7E0,3E0,2E0,3E0,1E0,4E0,1E0,6E1,1E0,1E0,1.2E1,2E0,5E0,3.1E1,1.2E1,1.8E1,2.3E1,1E0,1.4E1,6E0,1E1,4E0,3E0,1E1,4.7E1,1.4E1,2.2E1,1E0,1E0,5E0,2E0,1E0,1E0,1E0,3E0,5.8E1,2E0,1E0,1E0,1.2E1,1.9E1,1.1E1,1E0,4E0,1.4E1,3E0,2E1,2E0,1.2E1,1E0,5E0,1E0,9E0,2E0,2E0,7E0,3E0,8E0,3.9E1,8E0,6E0,1E0,2.1E1,4E0,1E0,1E0,1E0,3.4E1,2.4E1],"tree_param":{"num_deleted":"0","num_feature":"17","num_nodes":"119","size_leaf_vector":"0"}},{"base_weights":[-6.013911E-1,-5.603201E-1,-7.7803487E-1,-3.3703715E-1,-5.912204E-1,-6.3839656E-1,-1.0761486E0,-4.564668E-1,-2.2999376E-1,-3.2003644E-1,-6.142098E-1,-3.915796E-1,-7.2926885E-1,-4.1736037E-1,-1.1800823E0,-6.1343557E-1,-2.2281858E-1,-2.4026284E-1,-1.230604E-2,-3.486156E-1,-3.2356337E-2,-6.630833E-1,-5.1356363E-1,-1.0489735E-1,-4.6022955E-1,-2.3223664E-1,-7.555388E-1,-9.071212E-2,-6.6743696E-1,-2.6113713E-1,2.2705618E-2,-3.104523E-1,-1.8800648E-1,-1.8665574E-1,-4.0900815E-1,-8.12366E-2,3.2702096E-2,-5.911036E-1,-9.1103715E-1,-2.569584E-1,-5.5243784E-1,-1.15321785E-1,-4.8318815E-1,-7.7136576E-1,-1.5619177E-1,-3.5787907E-1,-7.815959E-1,-7.6560654E-2,-4.3033203E-1,-6.0445446E-1,-6.616538E-2,-1.4982511E-1,-9.583682E-1,-1.551667E-1,-4.2175013E-1,-6.2633115E-1,-4.365625E-1,-5.5205774E-1,-2.418693E-1,-7.8760755E-1,-1.6641885E-1,-1.9127153E-1,-4.887665E-1,-6.240512E-1,-2.69241E-1,-2.1403928E-1,5.4472346E-2,-1.0756172E0,-5.161371E-1,-2.6571797E-2,-1.8811212E-1,-6.6094685E-1,-3.3155665E-1,-1.4711177E-2,-4.8467186E-1,-5.247045E-1,-1.0063119E-1,-6.798316E-1,-4.3566278E-1,-6.365569E-2,-3.7986106E-1,-1.3315668E0,-6.9861615E-1,-6.520018E-1,-7.236212E-2,-2.2075363E-1,-6.822253E-1,3.686088E-2,-8.4713675E-2,-5.265161E-1,-1.2289967E-1],"categories":[],"categories_nodes":[],"categories_segments":[],"categories_sizes":[],"default_left":[1,1,1,1,1,1,1,1,1,1,1,1,1,0,0,1,1,1,0,1,1,1,1,0,1,0,1,0,1,0,0,0,0,0,1,0,0,1,1,1,1,0,1,1,0,0,0,0,1,1,1,0,1,1,0,1,1,0,0,0,0,0,1,1,1,0,0,1,1,0,0,1,0,1,1,0,0,0,0,0,0,0,0,0,0,0,0,0,0,0,0],"id":33,"left_children":[1,3,5,7,9,11,13,15,17,19,21,23,25,-1,-1,27,29,31,-1,33,35,37,39,-1,41,-1,43,-1,45,-1,-1,-1,-1,-1,47,-1,-1,49,51,53,55,-1,57,59,-1,-1,-1,-1,61,63,65,-1,67,69,-1,71,73,-1,-1,-1,-1,-1,75,77,79,-1,-1,81,83,-1,-1,85,-1,87,89,-1,-1,-1,-1,-1,-1,-1,-1,-1,-1,-1,-1,-1,-1,-1,-1],"loss_changes":[2.008957E0,1.7118988E0,1.8523064E0,3.552451E-1,1.3121414E0,7.013016E-1,7.3994446E-1,4.501226E-1,4.398787E-2,1.6137457E-1,7.514725E-1,2.2725344E-1,2.2930336E-1,0E0,0E0,1.9350553E-1,8.119431E-2,1.4989972E-2,0E0,1.0949874E-1,1.2196827E-2,2.0672379E0,6.261482E-1,0E0,3.1382322E-2,0E0,1.5460968E-1,0E0,2.993822E-3,0E0,0E0,0E0,0E0,0E0,5.9211254E-2,0E0,0E0,7.7297974E-1,9.7330856E-1,1.3585156E-1,2.91687E-1,0E0,3.2669544E-2,1.4403915E-1,0E0,0E0,0E0,0E0,7.4145555E-2,5.742874E-1,8.301591E-2,0E0,9.4851685E-1,3.3131048E-2,0E0,1.686039E-1,5.8142424E-1,0E0,0E0,0E0,0E0,0E0,7.2737455E-2,8.177147E-1,1.5775454E-1,0E0,0E0,1.1925983E0,4.351666E-1,0E0,0E0,1.584959E-1,0E0,1.7563311E-2,3.2888126E-1,0E0,0E0,0E0,0E0,0E0,0E0,0E0,0E0,0E0,0E0,0E0,0E0,0E0,0E0,0E0,0E0],"parents":[2147483647,0,0,1,1,2,2,3,3,4,4,5,5,6,6,7,7,8,8,9,9,10,10,11,11,12,12,15,15,16,16,17,17,19,19,20,20,21,21,22,22,24,24,26,26,28,28,34,34,37,37,38,38,39,39,40,40,42,42,43,43,48,48,49,49,50,50,52,52,53,53,55,55,56,56,62,62,63,63,64,64,67,67,68,68,71,71,73,73,74,74],"right_children":[2,4,6,8,10,12,14,16,18,20,22,24,26,-1,-1,28,30,32,-1,34,36,38,40,-1,42,-1,44,-1,46,-1,-1,-1,-1,-1,48,-1,-1,50,52,54,56,-1,58,60,-1,-1,-1,-1,62,64,66,-1,68,70,-1,72,74,-1,-1,-1,-1,-1,76,78,80,-1,-1,82,84,-1,-1,86,-1,88,90,-1,-1,-1,-1,-1,-1,-1,-1,-1,-1,-1,-1,-1,-1,-1,-1],"split_conditions":[1.011204E-11,7.499979E-2,7.3489493E-1,-4.484068E-2,5.6421902E-2,1.4489587E-1,9.7420876E1,2.585951E-1,7.4360065E-2,3.956217E2,3.8851406E1,1.42561084E-11,1.652475E1,-4.1736037E-2,-1.1800823E-1,-5.4053555E0,3.9843056E0,1.930125E2,-1.230604E-3,4.4586517E1,8.808243E-1,3.0933376E1,-5.7841644E-2,-1.0489735E-2,1.09663785E-1,-2.3223665E-2,6.167597E0,-9.071212E-3,5.8645543E-2,-2.6113713E-2,2.2705619E-3,