{"learner":{"attributes":{"best_iteration":"89","best_ntree_limit":"90","scikit_learn":"{\"n_estimators\": 90, \"objective\": \"reg:squarederror\", \"max_depth\": 5, \"max_leaves\": null, \"max_bin\": null, \"grow_policy\": null, \"learning_rate\": null, \"verbosity\": null, \"booster\": null, \"tree_method\": null, \"gamma\": null, \"min_child_weight\": null, \"max_delta_step\": null, \"subsample\": 0.7, \"sampling_method\": null, \"colsample_bytree\": 0.8, \"colsample_bylevel\": null, \"colsample_bynode\": null, \"reg_alpha\": null, \"reg_lambda\": null, \"scale_pos_weight\": null, \"base_score\": null, \"missing\": NaN, \"num_parallel_tree\": null, \"random_state\": null, \"n_jobs\": null, \"monotone_constraints\": null, \"interaction_constraints\": null, \"importance_type\": null, \"gpu_id\": null, \"validate_parameters\": null, \"predictor\": null, \"enable_categorical\": false, \"feature_types\": null, \"max_cat_to_onehot\": null, \"max_cat_threshold\": null, \"eval_metric\": null, \"early_stopping_rounds\": null, \"callbacks\": null, \"kwargs\": {\"eta\": 0.1}, \"evals_result_\": {\"validation_0\": {\"error\": [-1.4035732056509005, -1.3921356265927898, -1.4019012515927898, -1.3960418765927898, -1.4067064763075905, -1.4106127263075905, -1.4150114468793618, -1.4106127263075905, -1.4145189763075905, -1.4130583218793618, -1.4145189763075905, -1.4164721013075905, -1.4145189763075905, -1.4145189763075905, -1.4145189763075905, -1.4145189763075905, -1.4145189763075905, -1.4145189763075905, -1.4169645718793618, -1.4169645718793618, -1.4150114468793618, -1.4189176968793618, -1.4189176968793618, -1.4189176968793618, -1.4208708218793618, -1.4208708218793618, -1.4208708218793618, -1.4208708218793618, -1.4208708218793618, -1.4208708218793618, -1.4208708218793618, -1.4208708218793618, -1.4208708218793618, -1.4208708218793618, -1.4208708218793618, -1.4208708218793618, -1.4208708218793618, -1.4208708218793618, -1.4208708218793618, -1.4208708218793618, -1.4208708218793618, -1.4208708218793618, -1.4208708218793618, -1.4208708218793618, -1.4208708218793618, -1.4208708218793618, -1.4208708218793618, -1.4208708218793618, -1.4208708218793618, -1.4208708218793618, -1.4189176968793618, -1.4189176968793618, -1.4189176968793618, -1.4189176968793618, -1.4208708218793618, -1.4208708218793618, -1.4189176968793618, -1.4169645718793618, -1.4169645718793618, -1.4169645718793618, -1.4169645718793618, -1.4189176968793618, -1.4169645718793618, -1.4169645718793618, -1.4169645718793618, -1.4208708218793618, -1.4169645718793618, -1.4189176968793618, -1.4169645718793618, -1.4208708218793618, -1.4208708218793618, -1.4208708218793618, -1.4189176968793618, -1.4189176968793618, -1.4208708218793618, -1.4208708218793618, -1.4208708218793618, -1.4208708218793618, -1.4208708218793618, -1.4208708218793618, -1.4208708218793618, -1.4208708218793618, -1.4208708218793618, -1.4208708218793618, -1.4208708218793618, -1.4208708218793618, -1.4208708218793618, -1.4208708218793618, -1.4208708218793618, -1.4208708218793618], \"logloss\": [-1.4241168618027586, -27.839388285996392, -42.55712721371674, -50.59310204328358, -52.301800294090754, -53.069928400258505, -53.16770650266335, -53.4304707963729, -53.80304816499938, -53.94273132607941, -53.97520998035509, -54.14898805089683, -54.2288182862203, -54.32886866550507, -54.38433967478272, -54.453770053175504, -54.54875793965175, -54.51834147015825, -54.60076192445263, -54.632189670503976, -54.72437493252528, -54.74980917805425, -54.77404887732223, -54.79543237131702, -54.81076399988615, -54.82539048787771, -54.83808832496587, -54.85374693139693, -54.86536968966516, -54.88462733552217, -54.89389967418197, -54.901123195570506, -54.910922141438846, -54.91557579463558, -54.921196201824614, -54.927169759164826, -54.930760509344736, -54.93520916945681, -54.939836179609756, -54.94285331476294, -54.94569221897609, -54.95025216182785, -54.953523577724525, -54.95605614711235, -54.95985929181873, -54.96190912707655, -54.962878501220985, -54.96448546516933, -54.968149934748, -54.970176504182916, -54.9728119120237, -54.97412326088693, -54.97538569477615, -54.97485107611283, -54.975342428509975, -54.97528208996073, -54.97664152414259, -54.978246130211915, -54.97963747361541, -55.04329019376269, -55.04654345250151, -55.049120268443176, -55.04977583861944, -55.050878298185125, -55.05329758922676, -55.050043294418174, -55.04954250158721, -55.049674961936375, -55.04894040234626, -55.049380390810825, -55.04945253168137, -55.05122069886784, -55.05140016163705, -55.05572422047817, -55.05548369322037, -55.05256109738592, -55.052637371413425, -55.052830372281335, -55.05126446893655, -55.05166048670367, -55.05281416098251, -55.05152540550927, -55.05049487349697, -55.05060942117683, -55.05074148596623, -55.05015736835594, -55.05085811188832, -55.05080260133241, -55.05050463055022, -55.05077686217055]}}, \"_estimator_type\": \"regressor\"}"},"feature_names":["PSD_slope","Picophytoplankton","Nanophytoplankton","Microphytoplankton","AOU","MLD","CHL","Phosphates","Silicates","Nitrates","Temperature","Iron","PAR","Aerosol_thickness","DUWT001","SLA","FSLE"],"feature_types":["float","float","float","float","float","float","float","float","float","float","float","float","float","float","float","float","float"],"gradient_booster":{"model":{"gbtree_model_param":{"num_parallel_tree":"1","num_trees":"360","size_leaf_vector":"0"},"tree_info":[0,1,2,3,0,1,2,3,0,1,2,3,0,1,2,3,0,1,2,3,0,1,2,3,0,1,2,3,0,1,2,3,0,1,2,3,0,1,2,3,0,1,2,3,0,1,2,3,0,1,2,3,0,1,2,3,0,1,2,3,0,1,2,3,0,1,2,3,0,1,2,3,0,1,2,3,0,1,2,3,0,1,2,3,0,1,2,3,0,1,2,3,0,1,2,3,0,1,2,3,0,1,2,3,0,1,2,3,0,1,2,3,0,1,2,3,0,1,2,3,0,1,2,3,0,1,2,3,0,1,2,3,0,1,2,3,0,1,2,3,0,1,2,3,0,1,2,3,0,1,2,3,0,1,2,3,0,1,2,3,0,1,2,3,0,1,2,3,0,1,2,3,0,1,2,3,0,1,2,3,0,1,2,3,0,1,2,3,0,1,2,3,0,1,2,3,0,1,2,3,0,1,2,3,0,1,2,3,0,1,2,3,0,1,2,3,0,1,2,3,0,1,2,3,0,1,2,3,0,1,2,3,0,1,2,3,0,1,2,3,0,1,2,3,0,1,2,3,0,1,2,3,0,1,2,3,0,1,2,3,0,1,2,3,0,1,2,3,0,1,2,3,0,1,2,3,0,1,2,3,0,1,2,3,0,1,2,3,0,1,2,3,0,1,2,3,0,1,2,3,0,1,2,3,0,1,2,3,0,1,2,3,0,1,2,3,0,1,2,3,0,1,2,3,0,1,2,3,0,1,2,3,0,1,2,3,0,1,2,3,0,1,2,3,0,1,2,3,0,1,2,3,0,1,2,3,0,1,2,3],"trees":[{"base_weights":[5.95414E-1,-8.433115E-2,1.4181256E0,2.8997755E-1,-4.1626915E-1,1.7036136E0,8.508378E-4,-4.161243E-1,5.444659E-1,1.5289775E-1,-4.572302E-1,1.768906E0,-4E-1,7.103895E-1,-4.722222E-1,-3.976509E-2,-4.6348572E-1,-1.0882393E-1,8.5976774E-1,8.057955E-1,-4E-1,-4.8450682E-1,-2.68544E-1,1.1412941E0,1.9688812E0,1.785107E0,-5.0107583E-2,-3.3333334E-1,4.2046982E-1,-4.7727272E-1,-8.008587E-2,9.9513274E-1,-3.793719E-1,9.199827E-1,-3.259194E-2,-4.9267524E-1,-9.156527E-2,-4.1179585E-1,1.0031895E-1,4.77754E-1,1.6749198E0,1.9935701E0,-2.5E-1,6.997131E-1,-4.1666666E-1],"categories":[],"categories_nodes":[],"categories_segments":[],"categories_sizes":[],"default_left":[1,1,1,1,1,1,1,1,1,1,1,1,0,1,0,1,1,1,1,0,0,1,1,1,1,0,1,0,0,0,0,0,0,0,0,0,0,0,0,0,0,0,0,0,0],"id":0,"left_children":[1,3,5,7,9,11,13,15,17,19,21,23,-1,25,-1,27,29,31,33,-1,-1,35,37,39,41,-1,43,-1,-1,-1,-1,-1,-1,-1,-1,-1,-1,-1,-1,-1,-1,-1,-1,-1,-1],"loss_changes":[2.0647704E2,2.5342907E1,6.7569275E1,1.7477253E1,2.5877876E0,1.9799133E1,1.0069708E1,4.4501686E-1,1.4718395E1,3.2102036E0,3.8970566E-1,1.4696381E1,0E0,9.897282E0,0E0,6.80598E-1,8.335352E-2,7.545683E0,2.6091843E0,0E0,0E0,2.3413277E-1,8.339155E-1,1.1592667E1,6.0313416E0,0E0,2.4903758E0,0E0,0E0,0E0,0E0,0E0,0E0,0E0,0E0,0E0,0E0,0E0,0E0,0E0,0E0,0E0,0E0,0E0,0E0],"parents":[2147483647,0,0,1,1,2,2,3,3,4,4,5,5,6,6,7,7,8,8,9,9,10,10,11,11,13,13,15,15,16,16,17,17,18,18,21,21,22,22,23,23,24,24,26,26],"right_children":[2,4,6,8,10,12,14,16,18,20,22,24,-1,26,-1,28,30,32,34,-1,-1,36,38,40,42,-1,44,-1,-1,-1,-1,-1,-1,-1,-1,-1,-1,-1,-1,-1,-1,-1,-1,-1,-1],"split_conditions":[2.506885E1,2.5811453E2,2.0792755E2,2.1441395E1,2.9673953E0,2.8777199E1,1.0384497E-1,-2.6856251E-2,1.6485702E-12,6.8704846E2,1.1045271E0,2.591045E1,-4.0000003E-2,4.5863015E-13,-4.7222223E-2,4.3981338E0,2.1382694E1,3.446115E1,1.4735248E-11,8.057955E-2,-4.0000003E-2,2.47863E1,8.1988086E2,3.5063018E-12,6.768012E1,1.7851071E-1,7.323463E-2,-3.3333335E-2,4.2046983E-2,-4.7727272E-2,-8.008587E-3,9.951328E-2,-3.793719E-2,9.199827E-2,-3.2591939E-3,-4.9267527E-2,-9.156528E-3,-4.1179586E-2,1.0031896E-2,4.77754E-2,1.6749199E-1,1.9935702E-1,-2.5E-2,6.9971316E-2,-4.1666668E-2],"split_indices":[10,7,7,10,0,10,6,15,14,7,6,10,0,14,0,0,10,5,14,0,0,10,7,14,5,0,6,0,0,0,0,0,0,0,0,0,0,0,0,0,0,0,0,0,0],"split_type":[0,0,0,0,0,0,0,0,0,0,0,0,0,0,0,0,0,0,0,0,0,0,0,0,0,0,0,0,0,0,0,0,0,0,0,0,0,0,0,0,0,0,0,0,0],"sum_hessian":[3.68E2,2.02E2,1.66E2,9.5E1,1.07E2,1.38E2,2.8E1,2.5E1,7E1,7E0,1E2,1.34E2,4E0,1.1E1,1.7E1,3E0,2.2E1,2.3E1,4.7E1,3E0,4E0,8.6E1,1.4E1,3.4E1,1E2,4E0,7E0,2E0,1E0,2.1E1,1E0,4E0,1.9E1,4.4E1,3E0,8.4E1,2E0,1E1,4E0,1.6E1,1.8E1,9.9E1,1E0,2E0,5E0],"tree_param":{"num_deleted":"0","num_feature":"17","num_nodes":"45","size_leaf_vector":"0"}},{"base_weights":[-1.2458072E0,-1.75228E0,-7.1834445E-1,-1.0624506E0,-2.066863E0,-5.95216E-1,-9.7360027E-1,-4.6153846E-1,-1.2030634E0,-2.1774564E0,-1.1704433E0,-5.1501966E-1,-8.6425394E-1,-4.7826087E-1,-1.2712919E0,-4.2857143E-1,-1.3035009E0,-2.2350407E0,-5.096647E-1,-5.5505717E-1,-1.3997045E0,-9.4703895E-1,-4.1666666E-1,-1.3708134E0,-4E-1,-1.3653088E0,-3.75E-1,-2.5E-1,-2.2514088E0,-1.4896749E0,-2.5E-1,-1.0979539E0,-4.6679917E-1,-3.3333334E-1,-1.4308695E0],"categories":[],"categories_nodes":[],"categories_segments":[],"categories_sizes":[],"default_left":[1,1,1,1,1,1,1,0,1,1,1,0,1,0,1,0,1,1,0,0,1,1,0,1,0,0,0,0,0,0,0,0,0,0,0],"id":1,"left_children":[1,3,5,7,9,11,13,-1,15,17,19,-1,21,-1,23,-1,25,27,-1,-1,29,31,-1,33,-1,-1,-1,-1,-1,-1,-1,-1,-1,-1,-1],"loss_changes":[9.598224E1,3.7950623E1,5.0777664E0,4.5145035E0,9.94281E0,2.230301E0,7.7971153E0,0E0,3.1751785E0,9.521118E0,1.4804325E0,0E0,6.058426E-1,0E0,2.4866066E0,0E0,1.8983307E0,2.9137573E0,0E0,0E0,7.654133E-1,1.081934E0,0E0,1.4545593E0,0E0,0E0,0E0,0E0,0E0,0E0,0E0,0E0,0E0,0E0,0E0],"parents":[2147483647,0,0,1,1,2,2,3,3,4,4,5,5,6,6,8,8,9,9,10,10,12,12,14,14,16,16,17,17,20,20,21,21,23,23],"right_children":[2,4,6,8,10,12,14,-1,16,18,20,-1,22,-1,24,-1,26,28,-1,-1,30,32,-1,34,-1,-1,-1,-1,-1,-1,-1,-1,-1,-1,-1],"split_conditions":[1.66036E2,2.50825E1,2.40119E1,2.1382694E1,8.784729E-1,5.286248E1,1.0189992E-4,-4.6153847E-2,8.664184E-5,1.4426236E-3,1.6582155E-4,-5.1501967E-2,1.7772245E-3,-4.782609E-2,2.857034E1,-4.2857144E-2,8.912171E-1,2.2581204E-5,-5.096647E-2,-5.550572E-2,2.6466838E3,5.8614784E1,-4.1666668E-2,3.5734756E2,-4.0000003E-2,-1.3653088E-1,-3.75E-2,-2.5E-2,-2.2514088E-1,-1.4896749E-1,-2.5E-2,-1.0979539E-1,-4.6679918E-2,-3.3333335E-2,-1.4308695E-1],"split_indices":[7,10,10,10,1,12,11,0,11,11,11,0,11,0,10,0,1,11,0,0,8,12,0,8,0,0,0,0,0,0,0,0,0,0,0],"split_type":[0,0,0,0,0,0,0,0,0,0,0,0,0,0,0,0,0,0,0,0,0,0,0,0,0,0,0,0,0,0,0,0,0,0,0],"sum_hessian":[3.63E2,1.84E2,1.79E2,5.9E1,1.25E2,1.23E2,5.6E1,1.2E1,4.7E1,1.1E2,1.5E1,9.7E1,2.6E1,2.2E1,3.4E1,6E0,4.1E1,1.06E2,4E0,5E0,1E1,2.1E1,5E0,3E1,4E0,3.8E1,3E0,1E0,1.05E2,9E0,1E0,1.5E1,6E0,2E0,2.8E1],"tree_param":{"num_deleted":"0","num_feature":"17","num_nodes":"35","size_leaf_vector":"0"}},{"base_weights":[2.003814E0,2.292797E0,1.5704777E0,1.3656515E0,2.3605893E0,1.9109055E0,2.4564128E0,2.1986172E0,1.52262E0,9.7112995E-1,2.4700143E0,2.4839911E0,9.7112995E-1],"categories":[],"categories_nodes":[],"categories_segments":[],"categories_sizes":[],"default_left":[1,1,0,0,1,1,1,0,0,0,1,0,0],"id":2,"left_children":[1,3,-1,-1,5,7,9,-1,-1,-1,11,-1,-1],"loss_changes":[3.8600708E1,9.346802E0,0E0,0E0,3.277832E0,7.857666E-1,6.1138916E-1,0E0,0E0,0E0,6.673584E-1,0E0,0E0],"parents":[2147483647,0,0,1,1,4,4,5,5,6,6,10,10],"right_children":[2,4,-1,-1,6,8,10,-1,-1,-1,12,-1,-1],"split_conditions":[2.1562933E2,2.128525E1,1.5704778E-1,1.3656515E-1,1.3562801E-12,4.708719E1,2.7833141E1,2.1986173E-1,1.52262E-1,9.7113E-2,2.0008229E-1,2.4839912E-1,9.7113E-2],"split_indices":[7,10,0,0,14,5,12,0,0,0,15,0,0],"split_type":[0,0,0,0,0,0,0,0,0,0,0,0,0],"sum_hessian":[3.36E2,1.99E2,1.37E2,1.5E1,1.84E2,3.6E1,1.48E2,1.8E1,1.8E1,2E0,1.46E2,1.44E2,2E0],"tree_param":{"num_deleted":"0","num_feature":"17","num_nodes":"13","size_leaf_vector":"0"}},{"base_weights":[3.385832E0,3.093472E0,3.6941094E0,3.7458053E0,2.592243E0],"categories":[],"categories_nodes":[],"categories_segments":[],"categories_sizes":[],"default_left":[1,0,1,0,0],"id":3,"left_children":[1,-1,3,-1,-1],"loss_changes":[2.1559082E1,0E0,1.4428711E-1,0E0,0E0],"parents":[2147483647,0,0,2,2],"right_children":[2,-1,4,-1,-1],"split_conditions":[1.7993842E2,3.093472E-1,1.7384167E-1,3.7458053E-1,2.592243E-1],"split_indices":[7,0,13,0,0],"split_type":[0,0,0,0,0],"sum_hessian":[3.65E2,1.93E2,1.72E2,1.62E2,1E1],"tree_param":{"num_deleted":"0","num_feature":"17","num_nodes":"5","size_leaf_vector":"0"}},{"base_weights":[4.9013487E-1,2.4966498E-1,1.5796204E0,7.360264E-1,-3.1465884E-2,1.6796569E0,-3.4084147E-1,1.835266E-1,1.2174556E0,-1.2921341E-1,1.1786618E0,8.4977454E-1,1.8069485E0,6.345703E-1,-2.4090372E-1,1.497187E0,5.281937E-1,3.6232108E-1,-2.9967728E-1,1.4712632E0,3.5772657E-1,1.3067133E0,1.3149317E-1,1.8512471E0,-2.2613636E-1,1.1471157E0,-4.0407887E-1,5.1086926E-1,-3.5616156E-1,9.1563386E-1,2.0917652E0,1.0409092E0,-4.2620325E-1,5.1869243E-1,-4.257331E-1,2.4352548E-1,-3.4737098E-1,-3.0426508E-1,9.0047604E-1,2.8855166E-1,-2.4837041E-1,1.1826057E0,2.0488715E0],"categories":[],"categories_nodes":[],"categories_segments":[],"categories_sizes":[],"default_left":[1,1,1,1,1,1,0,1,1,1,1,1,1,1,1,1,1,1,1,0,1,0,1,1,0,0,0,0,0,0,0,0,0,0,0,0,0,0,0,0,0,0,0],"id":4,"left_children":[1,3,5,7,9,11,-1,13,15,17,19,21,23,25,27,29,31,33,35,-1,37,-1,39,41,-1,-1,-1,-1,-1,-1,-1,-1,-1,-1,-1,-1,-1,-1,-1,-1,-1,-1,-1],"loss_changes":[9.261153E1,3.9948673E1,1.2867935E1,2.8237438E1,2.2153679E1,4.9083557E0,0E0,9.916139E0,1.0199272E1,1.46040535E1,2.836584E0,3.110283E0,5.101898E0,1.3772395E1,2.521441E0,1.1915863E1,9.251652E0,5.7661343E0,3.4266434E0,0E0,2.0704615E0,0E0,3.699717E-1,4.3161316E0,0E0,0E0,0E0,0E0,0E0,0E0,0E0,0E0,0E0,0E0,0E0,0E0,0E0,0E0,0E0,0E0,0E0,0E0,0E0],"parents":[2147483647,0,0,1,1,2,2,3,3,4,4,5,5,7,7,8,8,9,9,10,10,11,11,12,12,13,13,14,14,15,15,16,16,17,17,18,18,20,20,22,22,23,23],"right_children":[2,4,6,8,10,12,-1,14,16,18,20,22,24,26,28,30,32,34,36,-1,38,-1,40,42,-1,-1,-1,-1,-1,-1,-1,-1,-1,-1,-1,-1,-1,-1,-1,-1,-1,-1,-1],"split_conditions":[1.3659667E-11,1.4428812E2,4.89398E-1,9.773403E-2,1.5520364E-1,2.1090893E1,-3.408415E-2,-4.6581402E-2,-3.3634E0,1.1003588E-1,-5.724496E0,8.731563E-2,9.662673E1,1.0866375E-1,-7.040354E0,1.3017095E3,7.511626E1,5.200656E0,7.1230005E2,1.4712632E-1,1.7299694E-1,1.3067134E-1,4.3385344E0,7.5607806E2,-2.2613635E-2,1.14711575E-1,-4.040789E-2,5.108693E-2,-3.5616156E-2,9.156339E-2,2.0917653E-1,1.0409092E-1,-4.2620327E-2,5.1869243E-2,-4.257331E-2,2.4352549E-2,-3.47371E-2,-3.0426508E-2,9.0047605E-2,2.8855165E-2,-2.4837041E-2,1.1826058E-1,2.0488715E-1],"split_indices":[14,9,2,13,13,5,0,16,4,6,4,15,5,6,4,8,9,0,8,0,13,0,0,8,0,0,0,0,0,0,0,0,0,0,0,0,0,0,0,0,0,0,0],"split_type":[0,0,0,0,0,0,0,0,0,0,0,0,0,0,0,0,0,0,0,0,0,0,0,0,0,0,0,0,0,0,0,0,0,0,0,0,0,0,0,0,0,0,0],"sum_hessian":[3.54E2,2.91E2,6.3E1,1.06E2,1.85E2,6E1,3E0,5E1,5.6E1,1.72E2,1.3E1,9E0,5.1E1,2.4E1,2.6E1,3.9E1,1.7E1,4.4E1,1.28E2,9E0,4E0,5E0,4E0,5E1,1E0,1.6E1,8E0,3E0,2.3E1,2.1E1,1.8E1,1.1E1,6E0,3.7E1,7E0,1E1,1.18E2,2E0,2E0,3E0,1E0,1.3E1,3.7E1],"tree_param":{"num_deleted":"0","num_feature":"17","num_nodes":"43","size_leaf_vector":"0"}},{"base_weights":[-1.1211694E0,-6.5842783E-1,-1.5750126E0,-1.3629615E0,-5.7994646E-1,-1.2594637E0,-2.066938E0,-1.5704476E0,-2.9602027E-1,-5.0128007E-1,-8.213856E-1,-1.3511233E0,-3.9067754E-1,-2.1571198E0,-4.99222E-1,-4.488772E-1,-7.513312E-1,-4.2397243E-1,-1.0911419E0,-1.4098135E0,-3.699799E-1,-2.2432048E0,-1.1356823E0,-1.0590101E0,-4.033202E-1,-1.1549741E0,-3.018803E-1,-1.4915601E0,-7.269153E-1,-1.3809758E0,-2.3344722E0],"categories":[],"categories_nodes":[],"categories_segments":[],"categories_sizes":[],"default_left":[1,1,1,1,1,1,1,0,0,1,1,1,0,1,0,0,1,0,1,1,0,1,0,0,0,0,0,0,0,0,0],"id":5,"left_children":[1,3,5,7,9,11,13,-1,-1,15,17,19,-1,21,-1,-1,23,-1,25,27,-1,29,-1,-1,-1,-1,-1,-1,-1,-1,-1],"loss_changes":[7.330725E1,8.996376E0,2.50271E1,3.2984982E0,2.6461525E0,8.311371E0,8.536926E0,0E0,0E0,1.2875652E0,3.611164E0,5.23674E0,0E0,3.0799866E0,0E0,0E0,1.7143917E0,0E0,7.597027E-1,4.163269E0,0E0,1.3403625E0,0E0,0E0,0E0,0E0,0E0,0E0,0E0,0E0,0E0],"parents":[2147483647,0,0,1,1,2,2,3,3,4,4,5,5,6,6,9,9,10,10,11,11,13,13,16,16,18,18,19,19,21,21],"right_children":[2,4,6,8,10,12,14,-1,-1,16,18,20,-1,22,-1,-1,24,-1,26,28,-1,30,-1,-1,-1,-1,-1,-1,-1,-1,-1],"split_conditions":[2.4538E1,5.179235E2,7.1765944E-12,-4.467168E0,3.5005666E-12,3.014395E2,1.6841183E2,-1.5704475E-1,-2.9602027E-2,1.23695835E-1,2.037924E1,2.88097E1,-3.9067756E-2,1.2681043E-1,-4.99222E-2,-4.4887718E-2,1.6199924E3,-4.2397242E-2,-3.0256823E-2,-1.2405485E-2,-3.699799E-2,8.0786005E-2,-1.1356824E-1,-1.0590102E-1,-4.033202E-2,-1.1549741E-1,-3.018803E-2,-1.4915602E-1,-7.269153E-2,-1.3809758E-1,-2.3344722E-1],"split_indices":[10,8,14,4,14,7,7,0,0,13,10,10,0,4,0,0,9,0,16,4,0,6,0,0,0,0,0,0,0,0,0],"split_type":[0,0,0,0,0,0,0,0,0,0,0,0,0,0,0,0,0,0,0,0,0,0,0,0,0,0,0,0,0,0,0],"sum_hessian":[3.53E2,1.76E2,1.77E2,1.6E1,1.6E2,1.1E2,6.7E1,1.3E1,3E0,1.23E2,3.7E1,9.9E1,1.1E1,6.3E1,4E0,1.04E2,1.9E1,1.6E1,2.1E1,9.3E1,6E0,5.7E1,6E0,9E0,1E1,1.9E1,2E0,8.2E1,1.1E1,7E0,5E1],"tree_param":{"num_deleted":"0","num_feature":"17","num_nodes":"31","size_leaf_vector":"0"}},{"base_weights":[1.8359838E0,2.0998008E0,1.4291868E0,2.1331463E0,1.2965628E0,2.1743348E0,1.4747072E0,1.3383493E0,2.2040546E0,2.224024E0,1.2542664E0],"categories":[],"categories_nodes":[],"categories_segments":[],"categories_sizes":[],"default_left":[1,1,0,1,0,1,0,0,1,0,0],"id":6,"left_children":[1,3,-1,5,-1,7,-1,-1,9,-1,-1],"loss_changes":[3.4882935E1,2.9125366E0,0E0,2.2717896E0,0E0,1.7210693E0,0E0,0E0,6.245117E-1,0E0,0E0],"parents":[2147483647,0,0,1,1,3,3,5,5,8,8],"right_children":[2,4,-1,6,-1,8,-1,-1,10,-1,-1],"split_conditions":[2.0870282E2,8.139221E1,1.4291869E-1,1.3494767E-3,1.2965629E-1,4.83785E-5,1.4747073E-1,1.3383494E-1,5.217491E0,2.2240241E-1,1.2542664E-1],"split_indices":[7,5,0,11,0,11,0,0,0,0,0],"split_type":[0,0,0,0,0,0,0,0,0,0,0],"sum_hessian":[3.52E2,2.11E2,1.41E2,2.01E2,1E1,1.87E2,1.4E1,8E0,1.79E2,1.74E2,5E0],"tree_param":{"num_deleted":"0","num_feature":"17","num_nodes":"11","size_leaf_vector":"0"}},{"base_weights":[3.024462E0,2.8143916E0,3.3483503E0],"categories":[],"categories_nodes":[],"categories_segments":[],"categories_sizes":[],"default_left":[1,0,0],"id":7,"left_children":[1,-1,-1],"loss_changes":[1.4662598E1,0E0,0E0],"parents":[2147483647,0,0],"right_children":[2,-1,-1],"split_conditions":[2.1562933E2,2.8143916E-1,3.3483502E-1],"split_indices":[7,0,0],"split_type":[0,0,0],"sum_hessian":[3.53E2,2.2E2,1.33E2],"tree_param":{"num_deleted":"0","num_feature":"17","num_nodes":"3","size_leaf_vector":"0"}},{"base_weights":[4.377672E-1,-1.2423164E-1,1.1042078E0,1.7257835E-1,-3.5898036E-1,1.320599E0,-2.4912585E-2,-3.8742155E-1,4.0983897E-1,2.2043243E-1,-3.8811585E-1,-2.9378727E-1,1.407125E0,-3.1572002E-1,6.2409425E-1,-1.08618885E-1,-4.311864E-1,6.050974E-1,-2.553278E-1,-2.835086E-1,5.432801E-1,-2.7240843E-1,-4.115841E-1,-4.9478364E-1,2.061346E-1,1.4511863E0,-3.876647E-1,-4.1012025E-1,1.6441089E-1,1.5145438E0,-3.9117414E-1,-3.2252946E-1,3.7351173E-1,-4.4544825E-1,-5.871302E-2,7.39837E-1,-4.8384258E-1,-3.9823204E-1,4.4903326E-1,3.704745E-1,-4.0013748E-1,3.0757183E-1,1.6300678E-3,1.4896624E0,-1.4284578E-1,3.585614E-1,-2.0902033E-1],"categories":[],"categories_nodes":[],"categories_segments":[],"categories_sizes":[],"default_left":[1,1,1,1,1,1,1,1,1,1,1,1,1,1,1,1,1,1,1,0,0,1,0,0,1,1,0,0,1,0,0,0,0,0,0,0,0,0,0,0,0,0,0,0,0,0,0],"id":8,"left_children":[1,3,5,7,9,11,13,15,17,19,21,23,25,27,29,31,33,35,37,-1,-1,39,-1,-1,41,43,-1,-1,45,-1,-1,-1,-1,-1,-1,-1,-1,-1,-1,-1,-1,-1,-1,-1,-1,-1,-1],"loss_changes":[1.3759293E2,1.3997106E1,4.1080597E1,1.1983847E1,1.9762774E0,2.0109192E1,5.4816475E0,2.826128E-1,8.336902E0,1.1302017E0,1.7843437E-1,9.0585184E-1,1.1159393E1,9.739177E-1,8.728858E0,6.361328E-1,9.6025944E-2,7.547409E0,1.6886622E0,0E0,0E0,1.872652E0,0E0,0E0,6.173177E-2,8.247345E0,0E0,0E0,3.6495408E-1,0E0,0E0,0E0,0E0,0E0,0E0,0E0,0E0,0E0,0E0,0E0,0E0,0E0,0E0,0E0,0E0,0E0,0E0],"parents":[2147483647,0,0,1,1,2,2,3,3,4,4,5,5,6,6,7,7,8,8,9,9,10,10,11,11,12,12,13,13,14,14,15,15,16,16,17,17,18,18,21,21,24,24,25,25,28,28],"right_children":[2,4,6,8,10,12,14,16,18,20,22,24,26,28,30,32,34,36,38,-1,-1,40,-1,-1,42,44,-1,-1,46,-1,-1,-1,-1,-1,-1,-1,-1,-1,-1,-1,-1,-1,-1,-1,-1,-1,-1],"split_conditions":[2.506885E1,2.5260449E2,2.0414024E2,2.1449299E1,2.7717795E0,2.8522594E-5,2.7724594E1,-2.6856251E-2,5.059983E0,1.4458905E1,2.361252E-1,2.457722E-5,2.8777199E1,1.2800312E-1,2.8745949E1,4.583637E0,5.5579872E1,1.3200936E-3,4.6971405E-4,-2.835086E-2,5.4328013E-2,1.617657E3,-4.115841E-2,-4.9478363E-2,5.024132E0,1.8080086E-3,-3.876647E-2,-4.1012026E-2,-1.6771945E0,1.5145437E-1,-3.9117415E-2,-3.225295E-2,3.7351172E-2,-4.4544827E-2,-5.871302E-3,7.39837E-2,-4.838426E-2,-3.9823204E-2,4.4903327E-2,3.704745E-2,-4.001375E-2,3.0757183E-2,1.6300679E-4,1.4896624E-1,-1.4284578E-2,3.585614E-2,-2.0902034E-2],"split_indices":[10,7,7,10,0,11,10,15,0,5,1,11,10,15,10,0,12,11,11,0,0,9,0,0,0,11,0,0,4,0,0,0,0,0,0,0,0,0,0,0,0,0,0,0,0,0,0],"split_type":[0,0,0,0,0,0,0,0,0,0,0,0,0,0,0,0,0,0,0,0,0,0,0,0,0,0,0,0,0,0,0,0,0,0,0,0,0,0,0,0,0,0,0,0,0,0,0],"sum_hessian":[3.66E2,1.99E2,1.67E2,8.8E1,1.11E2,1.4E2,2.7E1,2.6E1,6.2E1,5E0,1.06E2,7E0,1.33E2,1.9E1,8E0,4E0,2.2E1,4.8E1,1.4E1,2E0,3E0,2E1,8.6E1,5E0,2E0,1.3E2,3E0,1.6E1,3E0,4E0,4E0,3E0,1E0,2.1E1,1E0,4.3E1,5E0,1.2E1,2E0,3E0,1.7E1,1E0,1E0,1.27E2,3E0,2E0,1E0],"tree_param":{"num_deleted":"0","num_feature":"17","num_nodes":"47","size_leaf_vector":"0"}},{"base_weights":[-1.0533674E0,-7.280246E-1,-1.5703722E0,-6.82094E-1,-1.8197341E0,-2.1873212E0,-1.3510753E0,-9.0653783E-1,-5.4390734E-1,-7.820818E-1,-2.0352712E0,-2.3819156E0,-9.1466004E-1,-5.68563E-1,-1.5044987E0,-4.5936087E-1,-1.1388261E0,-4.9940035E-1,-8.518342E-1,-3.635068E-1,-2.4432082E0,-1.034023E0,-1.5892264E-1,-3.6270276E-1,-6.9698095E-1,-1.5807581E0,-2.6237667E-1,-1.0335888E0,-3.7543607E-1,-3.6837852E-1,-1.2768072E0,-9.27955E-1,-4.675887E-1,-1.0469093E0,-2.5230202E-1,-3.270199E-1,-8.891183E-1,-1.6116701E0,-2.7073386E-1],"categories":[],"categories_nodes":[],"categories_segments":[],"categories_sizes":[],"default_left":[1,1,1,1,1,1,1,1,1,0,0,1,1,1,1,1,1,1,1,0,0,0,0,0,1,1,0,0,0,0,0,0,0,0,0,0,0,0,0],"id":9,"left_children":[1,3,5,7,9,11,13,15,17,-1,-1,19,21,23,25,27,29,31,33,-1,-1,-1,-1,-1,35,37,-1,-1,-1,-1,-1,-1,-1,-1,-1,-1,-1,-1,-1],"loss_changes":[5.671884E1,9.439201E0,1.4903748E1,5.8960495E0,1.9747162E-1,5.9939117E0,1.1150177E1,7.47517E0,1.3562279E0,0E0,0E0,2.5758514E0,3.769126E-1,2.2305346E-1,7.447296E0,9.61328E-1,4.845001E0,1.1475296E0,1.4901695E0,0E0,0E0,0E0,0E0,0E0,4.20074E-1,2.7223206E0,0E0,0E0,0E0,0E0,0E0,0E0,0E0,0E0,0E0,0E0,0E0,0E0,0E0],"parents":[2147483647,0,0,1,1,2,2,3,3,4,4,5,5,6,6,7,7,8,8,11,11,12,12,13,13,14,14,15,15,16,16,17,17,18,18,24,24,25,25],"right_children":[2,4,6,8,10,12,14,16,18,-1,-1,20,22,24,26,28,30,32,34,-1,-1,-1,-1,-1,36,38,-1,-1,-1,-1,-1,-1,-1,-1,-1,-1,-1,-1,-1],"split_conditions":[3.8115934E-12,1.9985585E-1,2.4159557E1,1.295405E2,4.3584366E1,1.552728E-3,3.775625E-2,9.6220276E-5,1.3818935E-1,-7.820818E-2,-2.0352712E-1,3.8185225E0,4.9830675E-1,-6.9550304E0,1.4292101E-3,2.0106172E-13,7.378569E-2,3.3313077E-13,2.9205814E1,-3.635068E-2,-2.4432082E-1,-1.0340231E-1,-1.5892265E-2,-3.6270276E-2,4.036933E0,1.126178E2,-2.6237667E-2,-1.0335888E-1,-3.7543606E-2,-3.6837853E-2,-1.2768072E-1,-9.27955E-2,-4.675887E-2,-1.0469093E-1,-2.5230203E-2,-3.270199E-2,-8.891183E-2,-1.6116701E-1,-2.7073387E-2],"split_indices":[14,13,5,9,12,11,15,11,13,0,0,9,2,4,11,14,13,14,5,0,0,0,0,0,0,5,0,0,0,0,0,0,0,0,0,0,0,0,0],"split_type":[0,0,0,0,0,0,0,0,0,0,0,0,0,0,0,0,0,0,0,0,0,0,0,0,0,0,0,0,0,0,0,0,0,0,0,0,0,0,0],"sum_hessian":[3.43E2,2.12E2,1.31E2,2.05E2,7E0,3.2E1,9.9E1,7.6E1,1.29E2,2E0,5E0,2.7E1,5E0,1.7E1,8.2E1,2.7E1,4.9E1,1.15E2,1.4E1,1E0,2.6E1,4E0,1E0,8E0,9E0,7.7E1,5E0,2E0,2.5E1,8E0,4.1E1,6E0,1.09E2,1E1,4E0,4E0,5E0,7.5E1,2E0],"tree_param":{"num_deleted":"0","num_feature":"17","num_nodes":"39","size_leaf_vector":"0"}},{"base_weights":[1.6241825E0,1.8281213E0,1.2928356E0,1.0978924E0,1.885856E0,1.1374497E0,1.3971255E0,1.5032309E0,1.996461E0,1.0988921E0,1.4758762E0,1.1141009E0,1.6463475E0,2.0096695E0,6.837568E-1,1.0056397E0,1.7801673E0,2.044044E0,1.2554777E0],"categories":[],"categories_nodes":[],"categories_segments":[],"categories_sizes":[],"default_left":[1,1,1,0,1,0,1,1,1,0,0,0,1,1,0,0,0,0,0],"id":10,"left_children":[1,3,5,-1,7,-1,9,11,13,-1,-1,-1,15,17,-1,-1,-1,-1,-1],"loss_changes":[2.1152405E1,6.909546E0,6.1476135E-1,0E0,5.29364E0,0E0,1.8659973E-1,8.38974E-1,1.2093506E0,0E0,0E0,0E0,1.0391846E0,1.244751E0,0E0,0E0,0E0,0E0,0E0],"parents":[2147483647,0,0,1,1,2,2,4,4,6,6,7,7,8,8,12,12,13,13],"right_children":[2,4,6,-1,8,-1,10,12,14,-1,-1,-1,16,18,-1,-1,-1,-1,-1],"split_conditions":[2.2258076E2,2.002259E1,2.4283801E-4,1.09789245E-1,1.432671E-12,1.13744974E-1,1.811956E1,2.448956E1,2.878215E1,1.0988921E-1,1.4758763E-1,1.114101E-1,2.6293717E-5,1.4239135E-3,6.8375684E-2,1.00563966E-1,1.7801674E-1,2.044044E-1,1.2554777E-1],"split_indices":[7,10,11,0,14,0,10,10,10,0,0,0,11,11,0,0,0,0,0],"split_type":[0,0,0,0,0,0,0,0,0,0,0,0,0,0,0,0,0,0,0],"sum_hessian":[3.47E2,2.12E2,1.35E2,1.7E1,1.95E2,5.9E1,7.6E1,4.7E1,1.48E2,1.9E1,5.7E1,1.5E1,3.2E1,1.46E2,2E0,7E0,2.5E1,1.38E2,8E0],"tree_param":{"num_deleted":"0","num_feature":"17","num_nodes":"19","size_leaf_vector":"0"}},{"base_weights":[2.737802E0,2.9380934E0,2.4599051E0,3.0044658E0,2.361008E0],"categories":[],"categories_nodes":[],"categories_segments":[],"categories_sizes":[],"default_left":[1,0,1,0,0],"id":11,"left_children":[1,-1,3,-1,-1],"loss_changes":[1.242041E1,0E0,1.2001953E0,0E0,0E0],"parents":[2147483647,0,0,2,2],"right_children":[2,-1,4,-1,-1],"split_conditions":[3.063982E-12,2.9380935E-1,2.1232895E1,3.004466E-1,2.361008E-1],"split_indices":[14,0,10,0,0],"split_type":[0,0,0,0,0],"sum_hessian":[3.52E2,1.99E2,1.53E2,1.9E1,1.34E2],"tree_param":{"num_deleted":"0","num_feature":"17","num_nodes":"5","size_leaf_vector":"0"}},{"base_weights":[3.6254582E-1,1.0184841E0,-6.960107E-2,1.1665171E0,4.627763E-1,-1.679221E-1,1.0813444E0,1.6324057E-1,1.2903571E0,9.6245855E-1,4.393366E-2,5.7635352E-2,-3.4089154E-1,8.997021E-2,1.199643E0,-4.010089E-1,5.21269E-1,6.5375847E-1,1.4072355E0,1.341525E0,1.7027155E-1,-1.01003975E-1,6.1270076E-1,3.613332E-1,-2.408271E-1,-3.789378E-1,-5.1841576E-2,1.2863965E0,3.949125E-1,-1.1981183E-1,1.058096E0,-2.5802165E-1,8.5331595E-1,1.4607244E0,-6.7837566E-2,-2.1154825E-1,4.1406852E-1,-5.1423687E-1,3.3914153E-2,8.2686347E-1,8.548824E-2,-2.8998625E-1,5.7683575E-1,-3.8325986E-1,-1.04234986E-1,-3.4010038E-1,1.2629786E-1],"categories":[],"categories_nodes":[],"categories_segments":[],"categories_sizes":[],"default_left":[1,1,1,1,1,1,1,1,1,1,1,1,1,0,1,0,1,1,1,0,1,1,0,1,1,1,1,0,0,0,0,0,0,0,0,0,0,0,0,0,0,0,0,0,0,0,0],"id":12,"left_children":[1,3,5,7,9,11,13,15,17,19,21,23,25,-1,27,-1,29,31,33,-1,35,37,-1,39,41,43,45,-1,-1,-1,-1,-1,-1,-1,-1,-1,-1,-1,-1,-1,-1,-1,-1,-1,-1,-1,-1],"loss_changes":[1.0636902E2,1.1717361E1,2.5869387E1,1.4326111E1,6.864228E0,8.212702E0,2.0030766E0,3.0372767E0,6.8180847E0,4.2759476E0,1.6281645E0,8.42612E0,1.2890301E0,0E0,6.0899544E-1,0E0,3.2241182E0,3.4953198E0,6.963379E0,0E0,6.461145E-1,9.0948164E-1,0E0,5.8363643E0,2.0564678E0,8.471584E-2,8.1320786E-1,0E0,0E0,0E0,0E0,0E0,0E0,0E0,0E0,0E0,0E0,0E0,0E0,0E0,0E0,0E0,0E0,0E0,0E0,0E0,0E0],"parents":[2147483647,0,0,1,1,2,2,3,3,4,4,5,5,6,6,7,7,8,8,9,9,10,10,11,11,12,12,14,14,16,16,17,17,18,18,20,20,21,21,23,23,24,24,25,25,26,26],"right_children":[2,4,6,8,10,12,14,16,18,20,22,24,26,-1,28,-1,30,32,34,-1,36,38,-1,40,42,44,46,-1,-1,-1,-1,-1,-1,-1,-1,-1,-1,-1,-1,-1,-1,-1,-1,-1,-1,-1,-1],"split_conditions":[1.2416179E2,5.2985096E1,1.7301096E-1,7.716897E-2,1.4026843E2,2.8910727E2,3.70477E1,4.462934E0,6.564369E-2,1.1721747E-1,7.881724E2,3.9338844E1,5.5450867E1,8.997021E-3,7.978438E-2,-4.010089E-2,7.3312506E-2,4.746003E1,6.958414E1,1.341525E-1,1.9572947E1,2.931675E1,6.1270077E-2,1.8777469E2,5.4804672E1,1.4974727E-1,4.5484375E-2,1.2863965E-1,3.949125E-2,-1.1981184E-2,1.0580961E-1,-2.5802165E-2,8.53316E-2,1.4607243E-1,-6.783757E-3,-2.1154827E-2,4.140685E-2,-5.1423687E-2,3.3914153E-3,8.268635E-2,8.548824E-3,-2.8998626E-2,5.7683576E-2,-3.8325988E-2,-1.0423499E-2,-3.4010038E-2,1.26297865E-2],"split_indices":[7,12,13,13,9,7,12,0,6,6,9,5,12,0,15,0,15,5,5,0,9,7,0,7,12,13,15,0,0,0,0,0,0,0,0,0,0,0,0,0,0,0,0,0,0,0,0],"split_type":[0,0,0,0,0,0,0,0,0,0,0,0,0,0,0,0,0,0,0,0,0,0,0,0,0,0,0,0,0,0,0,0,0,0,0,0,0,0,0,0,0,0,0,0,0,0,0],"sum_hessian":[3.74E2,1.48E2,2.26E2,1.16E2,3.2E1,2.09E2,1.7E1,1.3E1,1.03E2,1.4E1,1.8E1,9.1E1,1.18E2,2E0,1.5E1,5E0,8E0,1.7E1,8.6E1,9E0,5E0,1.5E1,3E0,4.5E1,4.6E1,1.04E2,1.4E1,1.3E1,2E0,4E0,4E0,3E0,1.4E1,8.3E1,3E0,2E0,3E0,3E0,1.2E1,1.6E1,2.9E1,4.4E1,2E0,1.02E2,2E0,5E0,9E0],"tree_param":{"num_deleted":"0","num_feature":"17","num_nodes":"47","size_leaf_vector":"0"}},{"base_weights":[-9.3378377E-1,-5.52917E-1,-1.3596284E0,-4.140727E-1,-8.349829E-1,-7.871905E-1,-1.677434E0,-3.5878426E-1,-7.7348214E-1,-5.240843E-1,-1.0208387E0,-9.8622715E-1,-3.6238283E-1,-1.7616686E0,-8.3569235E-1,-3.4631798E-1,-9.086703E-1,-4.9819916E-1,-1.3345215E0,-9.0655816E-1,-4.3478084E-1,-2.893672E-1,-1.0961679E0,-1.190324E0,-2.842798E-1,-2.836155E-1,-5.251599E-1,-1.2655933E-1,-1.7769065E0,-1.136841E0,-1.8671578E-1,-7.151908E-1,-3.2229277E-1,-3.2025543E-1,-6.5080243E-1,-1.1665944E0,-2.5871423E-1,-1.2523236E0,-1.5288623E-1,-8.049907E-2,-2.9660797E-1,-2.9445517E-1,-5.509021E-2,-6.125599E-1,-4.407975E-2,-1.580261E0,-2.027452E0,-1.2605203E0,-1.3554321E-1],"categories":[],"categories_nodes":[],"categories_segments":[],"categories_sizes":[],"default_left":[1,1,1,1,1,1,1,1,1,1,1,1,1,1,1,0,0,1,0,0,1,0,1,1,1,1,1,0,1,1,0,0,0,0,0,0,0,0,0,0,0,0,0,0,0,0,0,0,0],"id":13,"left_children":[1,3,5,7,9,11,13,15,17,19,21,23,25,27,29,-1,-1,31,-1,-1,33,-1,35,37,39,41,43,-1,45,47,-1,-1,-1,-1,-1,-1,-1,-1,-1,-1,-1,-1,-1,-1,-1,-1,-1,-1,-1],"loss_changes":[5.9258606E1,7.369419E0,3.033432E1,2.3852272E0,3.163063E0,5.053955E0,6.398102E0,4.9420547E-1,1.9607E0,4.9390793E-1,1.831749E0,5.8220215E0,1.3313007E-1,2.266693E0,2.1329956E0,0E0,0E0,2.6571178E-1,0E0,0E0,3.6059618E-1,0E0,1.7624435E0,1.9311218E0,3.7580132E-3,2.5889874E-2,2.2527719E-1,0E0,1.6736755E0,8.198633E-1,0E0,0E0,0E0,0E0,0E0,0E0,0E0,0E0,0E0,0E0,0E0,0E0,0E0,0E0,0E0,0E0,0E0,0E0,0E0],"parents":[2147483647,0,0,1,1,2,2,3,3,4,4,5,5,6,6,7,7,8,8,9,9,10,10,11,11,12,12,13,13,14,14,17,17,20,20,22,22,23,23,24,24,25,25,26,26,28,28,29,29],"right_children":[2,4,6,8,10,12,14,16,18,20,22,24,26,28,30,-1,-1,32,-1,-1,34,-1,36,38,40,42,44,-1,46,48,-1,-1,-1,-1,-1,-1,-1,-1,-1,-1,-1,-1,-1,-1,-1,-1,-1,-1,-1],"split_conditions":[2.4538E1,3.0629063E-12,2.2872297E-12,5.6042698E1,2.201981E1,4.7315716E1,1.8404187E2,1.8107536E-1,1.22570306E-1,2.7753632E0,7.6908335E-2,3.449406E2,6.009517E-13,1.4891212E1,4.218591E0,-3.46318E-2,-9.0867035E-2,5.7419964E1,-1.3345216E-1,-9.065582E-2,4.5050783E0,-2.893672E-2,1.5416892E3,2.2143238E-12,3.7726385E2,1.2017153E-1,7.136226E1,-1.2655933E-2,2.73633E1,4.8883438E-1,-1.8671578E-2,-7.1519084E-2,-3.222928E-2,-3.2025542E-2,-6.508025E-2,-1.1665944E-1,-2.5871424E-2,-1.2523237E-1,-1.5288623E-2,-8.049907E-3,-2.9660797E-2,-2.9445518E-2,-5.509021E-3,-6.125599E-2,-4.4079754E-3,-1.580261E-1,-2.027452E-1,-1.2605204E-1,-1.3554322E-2],"split_indices":[10,14,14,12,10,5,7,13,13,0,13,9,14,5,0,0,0,12,0,0,0,0,9,14,9,13,5,0,10,2,0,0,0,0,0,0,0,0,0,0,0,0,0,0,0,0,0,0,0],"split_type":[0,0,0,0,0,0,0,0,0,0,0,0,0,0,0,0,0,0,0,0,0,0,0,0,0,0,0,0,0,0,0,0,0,0,0,0,0,0,0,0,0,0,0,0,0,0,0,0,0],"sum_hessian":[3.69E2,1.96E2,1.73E2,1.33E2,6.3E1,6.3E1,1.1E2,1.17E2,1.6E1,2.5E1,3.8E1,4.2E1,2.1E1,9.9E1,1.1E1,1.16E2,1E0,1.2E1,4E0,3E0,2.2E1,4E0,3.4E1,3.2E1,1E1,1.6E1,5E0,1E0,9.8E1,7E0,4E0,4E0,8E0,1.6E1,6E0,3.1E1,3E0,3E1,2E0,1E0,9E0,1.5E1,1E0,4E0,1E0,5.9E1,3.9E1,6E0,1E0],"tree_param":{"num_deleted":"0","num_feature":"17","num_nodes":"49","size_leaf_vector":"0"}},{"base_weights":[1.4765662E0,1.7115557E0,1.1981845E0,1.0456606E0,1.7591239E0,1.3611007E0,1.1011066E0,7.6257926E-1,1.7780863E0,9.8538136E-1,1.5230292E0,1.8008274E0,8.5636026E-1,1.6235043E0,8.4613866E-1,1.8118477E0,6.01778E-1,6.235182E-1,1.6693861E0],"categories":[],"categories_nodes":[],"categories_segments":[],"categories_sizes":[],"default_left":[1,1,1,0,1,1,0,0,1,0,1,1,0,1,0,0,0,0,0],"id":14,"left_children":[1,3,5,-1,7,9,-1,-1,11,-1,13,15,-1,17,-1,-1,-1,-1,-1],"loss_changes":[2.0910583E1,4.1154785E0,1.0950317E0,0E0,1.9321289E0,1.9670868E0,0E0,0E0,2.0212402E0,0E0,1.210701E0,1.0900269E0,0E0,4.2730713E-1,0E0,0E0,0E0,0E0,0E0],"parents":[2147483647,0,0,1,1,2,2,4,4,5,5,8,8,10,10,11,11,13,13],"right_children":[2,4,6,-1,8,10,-1,-1,12,-1,14,16,-1,18,-1,-1,-1,-1,-1],"split_conditions":[1.7049765E2,2.14365E1,2.8888885E2,1.0456606E-1,-3.71125E-2,2.3047705E1,1.1011066E-1,7.625793E-2,5.2324924E0,9.853814E-2,2.8049805E1,6.305477E0,8.563603E-2,1.732133E2,8.461387E-2,1.8118477E-1,6.01778E-2,6.2351823E-2,1.6693862E-1],"split_indices":[7,10,7,0,15,10,0,0,0,0,10,4,0,7,0,0,0,0,0],"split_type":[0,0,0,0,0,0,0,0,0,0,0,0,0,0,0,0,0,0,0],"sum_hessian":[3.5E2,1.87E2,1.63E2,1.4E1,1.73E2,5.6E1,1.07E2,4E0,1.69E2,1.9E1,3.7E1,1.64E2,5E0,3.1E1,6E0,1.62E2,2E0,2E0,2.9E1],"tree_param":{"num_deleted":"0","num_feature":"17","num_nodes":"19","size_leaf_vector":"0"}},{"base_weights":[2.4446614E0,2.6629806E0,2.2400477E0],"categories":[],"categories_nodes":[],"categories_segments":[],"categories_sizes":[],"default_left":[1,0,0],"id":15,"left_children":[1,-1,-1],"loss_changes":[9.759033E0,0E0,0E0],"parents":[2147483647,0,0],"right_children":[2,-1,-1],"split_conditions":[2.451295E1,2.6629806E-1,2.2400478E-1],"split_indices":[10,0,0],"split_type":[0,0,0],"sum_hessian":[3.51E2,1.64E2,1.87E2],"tree_param":{"num_deleted":"0","num_feature":"17","num_nodes":"3","size_leaf_vector":"0"}},{"base_weights":[3.7496337E-1,-1.563835E-1,8.8974357E-1,-2.9524598E-1,1.1479935E-1,-3.133438E-1,1.0068858E0,-3.1818107E-1,6.899927E-1,-1.382444E-1,4.385672E-1,-3.9794195E-1,2.140948E-1,1.0715652E0,-4.1256368E-1,-3.5755304E-1,-2.923956E-2,-3.685093E-1,2.3347504E-1,-8.049916E-2,5.323396E-1,3.0669254E-1,1.4449656E-2,1.2355105E0,6.511113E-1,-3.6232895E-1,6.2407315E-2,5.325763E-1,-2.140749E-1,3.9056286E-1,-2.568852E-1,2.3554854E-1,-3.6971378E-1,5.74109E-1,-1.9329384E-1,1.3514377E0,3.802952E-1,7.343651E-1,-4.2745817E-1],"categories":[],"categories_nodes":[],"categories_segments":[],"categories_sizes":[],"default_left":[1,1,1,1,1,1,1,1,0,1,1,0,1,1,0,1,1,0,1,1,1,0,0,1,1,0,0,0,0,0,0,0,0,0,0,0,0,0,0],"id":16,"left_children":[1,3,5,7,9,11,13,15,-1,17,19,-1,21,23,-1,25,27,-1,29,31,33,-1,-1,35,37,-1,-1,-1,-1,-1,-1,-1,-1,-1,-1,-1,-1,-1,-1],"loss_changes":[9.860881E1,6.7368608E0,2.6106094E1,2.8859339E0,5.0582027E0,8.437427E-1,1.5774216E1,1.3091841E0,0E0,3.0818255E0,1.3570533E0,0E0,5.1028475E-2,1.0224579E1,0E0,2.2719383E-1,1.6716628E0,0E0,1.1787444E0,5.4411364E-1,8.0808544E-1,0E0,0E0,1.078833E1,4.534277E0,0E0,0E0,0E0,0E0,0E0,0E0,0E0,0E0,0E0,0E0,0E0,0E0,0E0,0E0],"parents":[2147483647,0,0,1,1,2,2,3,3,4,4,5,5,6,6,7,7,9,9,10,10,12,12,13,13,15,15,16,16,18,18,19,19,20,20,23,23,24,24],"right_children":[2,4,6,8,10,12,14,16,-1,18,20,-1,22,24,-1,26,28,-1,30,32,34,-1,-1,36,38,-1,-1,-1,-1,-1,-1,-1,-1,-1,-1,-1,-1,-1,-1],"split_conditions":[2.448956E1,2.9086774E-12,2.8522594E-5,1.8107536E-1,4.7186418E0,2.6228223E-5,2.8777199E1,5.627208E1,6.8999276E-2,5.254229E1,2.7319416E-4,-3.9794195E-2,5.024132E0,5.1657513E1,-4.125637E-2,1.6406131E-1,5.6767212E1,-3.685093E-2,1.03133336E-1,4.9697914E0,5.2634115E0,3.0669255E-2,1.4449656E-3,3.1575098E3,1.3031018E-3,-3.6232896E-2,6.2407316E-3,5.3257633E-2,-2.140749E-2,3.9056286E-2,-2.568852E-2,2.3554854E-2,-3.697138E-2,5.7410903E-2,-1.9329384E-2,1.3514377E-1,3.8029518E-2,7.343651E-2,-4.2745817E-2],"split_indices":[10,14,11,13,0,11,10,12,0,12,11,0,0,12,0,13,12,0,15,0,0,0,0,8,11,0,0,0,0,0,0,0,0,0,0,0,0,0,0],"split_type":[0,0,0,0,0,0,0,0,0,0,0,0,0,0,0,0,0,0,0,0,0,0,0,0,0,0,0,0,0,0,0,0,0,0,0,0,0,0,0],"sum_hessian":[3.59E2,1.77E2,1.82E2,1.17E2,6E1,1.6E1,1.66E2,1.15E2,2E0,3.4E1,2.6E1,1.4E1,2E0,1.59E2,7E0,1.01E2,1.4E1,2.1E1,1.3E1,4E0,2.2E1,1E0,1E0,1.13E2,4.6E1,1E2,1E0,3E0,1.1E1,1E1,3E0,2E0,2E0,2.1E1,1E0,9.9E1,1.4E1,4.3E1,3E0],"tree_param":{"num_deleted":"0","num_feature":"17","num_nodes":"39","size_leaf_vector":"0"}},{"base_weights":[-8.3886385E-1,-1.1429453E0,-4.1436118E-1,-6.28472E-1,-1.3519408E0,-3.5206428E-1,-6.746554E-1,-4.4176087E-1,-8.98729E-1,-1.0138506E0,-1.4959459E0,-3.2850465E-1,-7.2584283E-1,-4.2211825E-1,-9.33118E-1,-6.0499936E-1,-3.0092525E-1,-3.4057048E-1,-1.1278789E0,-5.9946454E-1,-1.1912245E0,-1.1814289E-1,-1.5341866E0,-3.0717042E-1,-6.4730495E-1,-1.0474527E0,-2.227722E-1,-3.0643544E-1,-7.2147846E-1,-1.0494541E0,-1.5673412E-1,-3.0497754E-1,-9.419045E-1,-3.1075507E-1,-1.2853156E-1,-4.76278E-2,-3.7123483E-1,-6.0007966E-1,-1.3417718E0,-9.0253294E-1,-2.9706344E-1,2.3235286E-2,-1.2678542E0,-1.9637725E-1,-1.5716087E0,-3.2204035E-1,-2.0501637E-1,-8.952148E-1,-2.3756881E-1,-8.635821E-1,-1.4758384E-1,-3.123501E-1,-1.2604499E0],"categories":[],"categories_nodes":[],"categories_segments":[],"categories_sizes":[],"default_left":[1,1,1,1,1,1,1,1,1,1,1,1,1,1,1,1,1,1,1,1,1,0,1,1,1,0,0,0,1,1,0,0,0,0,0,0,0,0,0,0,0,0,0,0,0,0,0,0,0,0,0,0,0],"id":17,"left_children":[1,3,5,7,9,11,13,15,17,19,21,23,25,27,29,31,33,35,37,39,41,-1,43,45,47,-1,-1,-1,49,51,-1,-1,-1,-1,-1,-1,-1,-1,-1,-1,-1,-1,-1,-1,-1,-1,-1,-1,-1,-1,-1,-1,-1],"loss_changes":[4.8836243E1,2.3020355E1,2.3731747E0,2.9333363E0,6.1271667E0,9.2396164E-1,1.5642557E0,7.605219E-1,2.941328E0,2.9609642E0,5.5090485E0,6.5813637E-1,8.99204E-1,3.6763763E-1,1.1000166E0,1.5321603E0,7.2836876E-4,6.316507E-2,1.2268963E0,1.2899103E0,3.1936302E0,0E0,4.9480286E0,1.16259575E-1,4.9836826E-1,0E0,0E0,0E0,1.9875932E-1,1.4726086E0,0E0,0E0,0E0,0E0,0E0,0E0,0E0,0E0,0E0,0E0,0E0,0E0,0E0,0E0,0E0,0E0,0E0,0E0,0E0,0E0,0E0,0E0,0E0],"parents":[2147483647,0,0,1,1,2,2,3,3,4,4,5,5,6,6,7,7,8,8,9,9,10,10,11,11,12,12,13,13,14,14,15,15,16,16,17,17,18,18,19,19,20,20,22,22,23,23,24,24,28,28,29,29],"right_children":[2,4,6,8,10,12,14,16,18,20,22,24,26,28,30,32,34,36,38,40,42,-1,44,46,48,-1,-1,-1,50,52,-1,-1,-1,-1,-1,-1,-1,-1,-1,-1,-1,-1,-1,-1,-1,-1,-1,-1,-1,-1,-1,-1,-1],"split_conditions":[2.1473137E2,2.4538E1,5.459736E1,1.02270134E-1,9.822065E-2,2.7724594E1,2.2158195E1,7.337129E-2,2.2803183E-4,2.691166E-4,8.541724E-2,1.5585616E-1,2.8076445E1,1.1868177E-1,-1.4606698E0,2.7448754E-4,1.5164688E-1,3.3808044E1,-6.2487316E0,5.0161457E0,1.8197264E2,-1.1814289E-2,7.200589E-5,2.562895E1,3.993835E2,-1.0474527E-1,-2.227722E-2,-3.0643543E-2,6.3086865E3,-7.8162494E0,-1.5673412E-2,-3.0497754E-2,-9.419045E-2,-3.1075507E-2,-1.2853156E-2,-4.76278E-3,-3.7123483E-2,-6.0007967E-2,-1.341772E-1,-9.025329E-2,-2.9706344E-2,2.3235285E-3,-1.2678543E-1,-1.9637724E-2,-1.5716086E-1,-3.2204036E-2,-2.0501638E-2,-8.952148E-2,-2.3756882E-2,-8.635821E-2,-1.4758385E-2,-3.123501E-2,-1.2604499E-1],"split_indices":[7,10,12,13,6,10,10,6,11,11,13,13,10,13,4,11,15,5,4,0,8,0,11,10,9,0,0,0,8,4,0,0,0,0,0,0,0,0,0,0,0,0,0,0,0,0,0,0,0,0,0,0,0],"split_type":[0,0,0,0,0,0,0,0,0,0,0,0,0,0,0,0,0,0,0,0,0,0,0,0,0,0,0,0,0,0,0,0,0,0,0,0,0,0,0,0,0,0,0,0,0,0,0,0,0,0,0,0,0],"sum_hessian":[3.81E2,2.21E2,1.6E2,6.5E1,1.56E2,1.31E2,2.9E1,4E1,2.5E1,4.9E1,1.07E2,1.25E2,6E0,1.6E1,1.3E1,1.7E1,2.3E1,8E0,1.7E1,1.6E1,3.3E1,3E0,1.04E2,1.19E2,6E0,3E0,3E0,1.3E1,3E0,1.1E1,2E0,1E1,7E0,2.1E1,2E0,1E0,7E0,6E0,1.1E1,7E0,9E0,2E0,3.1E1,3E0,1.01E2,1.02E2,1.7E1,3E0,3E0,2E0,1E0,3E0,8E0],"tree_param":{"num_deleted":"0","num_feature":"17","num_nodes":"53","size_leaf_vector":"0"}},{"base_weights":[1.3222659E0,1.1422864E0,1.5356014E0,9.994774E-1,1.4169222E0,9.308438E-1,1.5963324E0,8.9923215E-1,1.6112021E0,1.6275096E0,7.536491E-1,1.6794984E0,7.152729E-1,1.6382785E0,5.968177E-1,1.70366E0,3.4443587E-1,4.058866E-1,1.6444007E0],"categories":[],"categories_nodes":[],"categories_segments":[],"categories_sizes":[],"default_left":[1,1,1,0,1,0,1,0,1,1,0,1,0,1,0,0,0,0,0],"id":18,"left_children":[1,3,5,-1,7,-1,9,-1,11,13,-1,15,-1,17,-1,-1,-1,-1,-1],"loss_changes":[1.1914917E1,6.310272E0,4.3904724E0,0E0,5.0886383E0,0E0,2.5566711E0,0E0,1.6133728E0,5.539551E-1,0E0,7.680054E-1,0E0,3.587036E-1,0E0,0E0,0E0,0E0,0E0],"parents":[2147483647,0,0,1,1,2,2,4,4,6,6,8,8,9,9,11,11,13,13],"right_children":[2,4,6,-1,8,-1,10,-1,12,14,-1,16,-1,18,-1,-1,-1,-1,-1],"split_conditions":[2.523575E1,3.0629063E-12,4.7744823E-5,9.994774E-2,2.1089294E1,9.308438E-2,2.8839645E1,8.992322E-2,1.9644843E-3,4.9142914E0,7.536491E-2,1.8222375E0,7.1527295E-2,-1.1415698E-1,5.968177E-2,1.70366E-1,3.4443587E-2,4.058866E-2,1.6444008E-1],"split_indices":[10,14,11,0,10,0,10,0,11,4,0,4,0,16,0,0,0,0,0],"split_type":[0,0,0,0,0,0,0,0,0,0,0,0,0,0,0,0,0,0,0],"sum_hessian":[3.55E2,1.96E2,1.59E2,1.32E2,6.4E1,1.6E1,1.43E2,1.9E1,4.5E1,1.37E2,6E0,4.1E1,4E0,1.35E2,2E0,4E1,1E0,1E0,1.34E2],"tree_param":{"num_deleted":"0","num_feature":"17","num_nodes":"19","size_leaf_vector":"0"}},{"base_weights":[2.2044766E0,1.937538E0,2.3841367E0,2.4291422E0,1.6556797E0],"categories":[],"categories_nodes":[],"categories_segments":[],"categories_sizes":[],"default_left":[1,0,1,0,0],"id":19,"left_children":[1,-1,3,-1,-1],"loss_changes":[1.34609375E1,0E0,3.2235107E0,0E0,0E0],"parents":[2147483647,0,0,2,2],"right_children":[2,-1,4,-1,-1],"split_conditions":[1.2655505E2,1.9375381E-1,1.7384167E-1,2.4291423E-1,1.6556798E-1],"split_indices":[7,0,13,0,0],"split_type":[0,0,0,0,0],"sum_hessian":[3.76E2,1.56E2,2.2E2,2.05E2,1.5E1],"tree_param":{"num_deleted":"0","num_feature":"17","num_nodes":"5","size_leaf_vector":"0"}},{"base_weights":[3.094486E-1,-1.5018377E-1,7.5022066E-1,2.9880887E-1,-2.3137076E-1,-2.676085E-1,9.0172684E-1,-4.1826385E-1,4.3574864E-1,3.696981E-1,-2.627213E-1,4.7918496E-1,-3.5338116E-1,9.602442E-1,-3.5207662E-1,-3.2177404E-1,5.5928874E-1,6.0027885E-1,-2.146961E-1,8.923671E-2,-2.837713E-1,-3.7069187E-1,1.3727188E-2,7.7047634E-1,1.3358352E0,1.2857111E-1,7.230044E-1,-2.8848356E-1,3.2617745E-1,-3.103509E-1,-1.1143433E-1,-3.8796094E-1,-4.0208995E-3,8.651866E-1,-3.4642106E-1,5.6572467E-2,1.4146105E0],"categories":[],"categories_nodes":[],"categories_segments":[],"categories_sizes":[],"default_left":[1,1,1,1,1,1,1,0,1,1,1,0,1,1,0,0,1,0,0,1,1,1,0,1,1,0,0,0,0,0,0,0,0,0,0,0,0],"id":20,"left_children":[1,3,5,7,9,11,13,-1,15,17,19,-1,21,23,-1,-1,25,-1,-1,27,29,31,-1,33,35,-1,-1,-1,-1,-1,-1,-1,-1,-1,-1,-1,-1],"loss_changes":[7.426175E1,6.63056E0,2.9078094E1,2.9317398E0,2.980235E0,1.770697E0,1.2297272E1,0E0,2.425991E0,1.2068781E0,1.1069956E0,0E0,1.5125155E-1,1.0089676E1,0E0,0E0,1.3878622E0,0E0,0E0,8.9957273E-1,5.975456E-1,1.3774538E-1,0E0,1.1512569E1,5.0594635E0,0E0,0E0,0E0,0E0,0E0,0E0,0E0,0E0,0E0,0E0,0E0,0E0],"parents":[2147483647,0,0,1,1,2,2,3,3,4,4,5,5,6,6,8,8,9,9,10,10,12,12,13,13,16,16,19,19,20,20,21,21,23,23,24,24],"right_children":[2,4,6,8,10,12,14,-1,16,18,20,-1,22,24,-1,-1,26,-1,-1,28,30,32,-1,34,36,-1,-1,-1,-1,-1,-1,-1,-1,-1,-1,-1,-1],"split_conditions":[2.4544346E1,1.0106298E2,6.495466E-5,6.0381365E-1,6.692171E-2,4.525166E2,2.8777199E1,-4.1826386E-2,2.3733053E-4,2.0997282E-3,4.7667072E2,4.7918495E-2,8.875426E-1,2.764405E1,-3.5207663E-2,-3.2177404E-2,4.9861612E2,6.0027886E-2,-2.146961E-2,1.3310444E-12,1.6368575E0,5.6961246E-5,1.3727188E-3,3.361417E3,3.9744942E0,1.2857111E-2,7.230044E-2,-2.8848356E-2,3.2617744E-2,-3.103509E-2,-1.1143434E-2,-3.8796093E-2,-4.0208997E-4,8.651866E-2,-3.4642108E-2,5.657247E-3,1.4146106E-1],"split_indices":[10,7,11,1,1,8,10,0,11,11,8,0,1,10,0,0,8,0,0,14,6,11,0,8,9,0,0,0,0,0,0,0,0,0,0,0,0],"split_type":[0,0,0,0,0,0,0,0,0,0,0,0,0,0,0,0,0,0,0,0,0,0,0,0,0,0,0,0,0,0,0,0,0,0,0,0,0],"sum_hessian":[3.65E2,1.79E2,1.86E2,2.7E1,1.52E2,2.4E1,1.62E2,4E0,2.3E1,7E0,1.45E2,2E0,2.2E1,1.55E2,7E0,3E0,2E1,5E0,2E0,8E0,1.37E2,2.1E1,1E0,1.05E2,5E1,6E0,1.4E1,3E0,5E0,1.18E2,1.9E1,2E1,1E0,9.7E1,8E0,3E0,4.7E1],"tree_param":{"num_deleted":"0","num_feature":"17","num_nodes":"37","size_leaf_vector":"0"}},{"base_weights":[-7.4826497E-1,-5.308673E-1,-1.2288927E0,-7.538162E-1,-3.458346E-1,-6.546746E-1,-1.4544991E0,-3.4510896E-1,-8.2114446E-1,-3.161771E-1,-1.0418311E0,-2.7848333E-1,-8.38466E-1,-1.7789965E0,-1.1179765E0,-2.510464E-1,-5.206498E-1,-4.2511272E-1,-8.927726E-1,-7.241161E-1,-2.9733014E-1,-9.4506747E-1,-3.083279E-1,-8.354508E-1,-1.868049E0,-1.1694217E0,-9.368012E-2,-2.8001392E-1,-1.15865976E-1,-6.646468E-1,-2.0310287E-1,-5.240887E-1,-2.2298817E-1,-5.110582E-1,-9.553805E-1,-1.4728567E-1,-8.3150226E-1,-2.7678505E-1,-4.2954183E-1,-5.073163E-1,-1.2007617E0,-4.2894173E-1,-1.7093901E-1,-1.9018717E0,-3.9286205E-1,-3.1177184E-1,-1.2340268E0],"categories":[],"categories_nodes":[],"categories_segments":[],"categories_sizes":[],"default_left":[1,1,1,1,1,1,1,1,1,1,0,0,1,1,1,1,1,1,1,1,1,1,1,0,1,1,0,0,0,0,0,0,0,0,0,0,0,0,0,0,0,0,0,0,0,0,0],"id":21,"left_children":[1,3,5,7,9,11,13,15,17,19,-1,-1,21,23,25,27,29,31,33,35,37,39,41,-1,43,45,-1,-1,-1,-1,-1,-1,-1,-1,-1,-1,-1,-1,-1,-1,-1,-1,-1,-1,-1,-1,-1],"loss_changes":[3.550026E1,9.639984E0,1.2909348E1,2.688511E0,2.4159174E0,1.9790049E0,6.310364E0,1.499939E-1,2.2302399E0,7.765045E-1,0E0,0E0,8.9539146E-1,1.5482712E0,1.998249E0,1.8461883E-2,9.363735E-2,2.0322204E-1,1.3519135E0,1.8724966E-1,2.2064781E-1,1.2936516E0,9.532124E-3,0E0,8.993454E-1,1.720787E0,0E0,0E0,0E0,0E0,0E0,0E0,0E0,0E0,0E0,0E0,0E0,0E0,0E0,0E0,0E0,0E0,0E0,0E0,0E0,0E0,0E0],"parents":[2147483647,0,0,1,1,2,2,3,3,4,4,5,5,6,6,7,7,8,8,9,9,12,12,13,13,14,14,15,15,16,16,17,17,18,18,19,19,20,20,21,21,22,22,24,24,25,25],"right_children":[2,4,6,8,10,12,14,16,18,20,-1,-1,22,24,26,28,30,32,34,36,38,40,42,-1,44,46,-1,-1,-1,-1,-1,-1,-1,-1,-1,-1,-1,-1,-1,-1,-1,-1,-1,-1,-1,-1,-1],"split_conditions":[4.3215874E-12,2.1327759E2,2.4679852E1,4.83785E-5,2.7724594E1,2.0108E1,7.7575E-2,2.824865E1,8.096215E-2,2.7717795E0,-1.04183115E-1,-2.7848333E-2,1.0974687E-1,6.9371924E-2,2.9127659E1,2.64953E1,8.890953E-2,-4.4208236E-2,3.1711247E-3,2.5026343E3,4.904694E-1,7.240312E-2,3.101881E0,-8.354508E-2,2.679482E3,1.744093E2,-9.368013E-3,-2.8001392E-2,-1.1586598E-2,-6.6464685E-2,-2.0310288E-2,-5.240887E-2,-2.2298818E-2,-5.1105823E-2,-9.553805E-2,-1.4728568E-2,-8.315023E-2,-2.7678505E-2,-4.2954184E-2,-5.073163E-2,-1.2007617E-1,-4.2894173E-2,-1.7093902E-2,-1.9018717E-1,-3.9286207E-2,-3.1177184E-2,-1.2340268E-1],"split_indices":[14,7,10,11,10,10,15,10,13,0,0,0,15,6,10,10,6,16,3,9,2,15,0,0,9,8,0,0,0,0,0,0,0,0,0,0,0,0,0,0,0,0,0,0,0,0,0],"split_type":[0,0,0,0,0,0,0,0,0,0,0,0,0,0,0,0,0,0,0,0,0,0,0,0,0,0,0,0,0,0,0,0,0,0,0,0,0,0,0,0,0,0,0,0,0,0,0],"sum_hessian":[3.45E2,2.39E2,1.06E2,1.07E2,1.32E2,3.1E1,7.5E1,1.6E1,9.1E1,1.28E2,4E0,1.1E1,2E1,3.6E1,3.9E1,1.2E1,4E0,1.5E1,7.6E1,4E0,1.24E2,1.6E1,4E0,4E0,3.2E1,3.7E1,2E0,9E0,3E0,2E0,2E0,9E0,6E0,1.2E1,6.4E1,1E0,3E0,1.1E2,1.4E1,7E0,9E0,1E0,3E0,3.1E1,1E0,3E0,3.4E1],"tree_param":{"num_deleted":"0","num_feature":"17","num_nodes":"47","size_leaf_vector":"0"}},{"base_weights":[1.2038392E0,1.3778466E0,9.811114E-1,8.106418E-1,1.4187905E0,8.750036E-1,1.1928244E0,1.4345496E0,5.550969E-1,8.12368E-1,1.0212164E0,7.2201633E-1,1.2745745E0,5.99743E-1,1.4497689E0,1.1627216E0,7.467311E-1,6.575731E-1,1.3568566E0,1.4585832E0,4.435304E-1,5.539317E-1,1.2475507E0,1.382044E0,2.2505516E-1],"categories":[],"categories_nodes":[],"categories_segments":[],"categories_sizes":[],"default_left":[1,1,1,0,1,1,1,1,0,0,1,0,1,0,1,1,0,0,1,0,0,0,0,0,0],"id":22,"left_children":[1,3,5,-1,7,9,11,13,-1,-1,15,-1,17,-1,19,21,-1,-1,23,-1,-1,-1,-1,-1,-1],"loss_changes":[1.2833008E1,3.5642395E0,2.640442E0,0E0,1.7625732E0,2.0526886E-1,1.0811386E0,1.4682617E0,0E0,0E0,2.9699135E-1,0E0,1.290802E0,0E0,9.4955444E-1,2.3851776E-1,0E0,0E0,7.4372864E-1,0E0,0E0,0E0,0E0,0E0,0E0],"parents":[2147483647,0,0,1,1,2,2,4,4,5,5,6,6,7,7,10,10,12,12,14,14,15,15,18,18],"right_children":[2,4,6,-1,8,10,12,14,-1,-1,16,-1,18,-1,20,22,-1,-1,24,-1,-1,-1,-1,-1,-1],"split_conditions":[1.7993842E2,2.025395E1,5.181068E1,8.106419E-2,2.8777199E1,2.47863E1,1.623139E1,2.6096646E-2,5.5509694E-2,8.12368E-2,-1.455241E0,7.220163E-2,-7.274078E-2,5.99743E-2,1.7144687E-1,8.6012945E-2,7.467311E-2,6.575731E-2,2.7890911E1,1.4585833E-1,4.435304E-2,5.539317E-2,1.2475508E-1,1.382044E-1,2.2505516E-2],"split_indices":[7,10,12,0,10,10,5,6,0,0,4,0,16,0,15,13,0,0,10,0,0,0,0,0,0],"split_type":[0,0,0,0,0,0,0,0,0,0,0,0,0,0,0,0,0,0,0,0,0,0,0,0,0],"sum_hessian":[3.65E2,2.02E2,1.63E2,1.5E1,1.87E2,1.12E2,5.1E1,1.83E2,4E0,8.3E1,2.9E1,9E0,4.2E1,4E0,1.79E2,1.7E1,1.2E1,6E0,3.6E1,1.77E2,2E0,3E0,1.4E1,3.5E1,1E0],"tree_param":{"num_deleted":"0","num_feature":"17","num_nodes":"25","size_leaf_vector":"0"}},{"base_weights":[1.9755772E0,1.745838E0,2.1471493E0,2.188328E0,1.4790475E0,8.6951554E-1,2.1985483E0],"categories":[],"categories_nodes":[],"categories_segments":[],"categories_sizes":[],"default_left":[1,0,1,1,0,0,0],"id":23,"left_children":[1,-1,3,5,-1,-1,-1],"loss_changes":[9.495605E0,0E0,1.9355469E0,4.4708252E-1,0E0,0E0,0E0],"parents":[2147483647,0,0,2,2,3,3],"right_children":[2,-1,4,6,-1,-1,-1],"split_conditions":[1.3855457E2,1.7458381E-1,1.6408783E-1,1.4341772E2,1.4790475E-1,8.6951554E-2,2.1985483E-1],"split_indices":[7,0,13,8,0,0,0],"split_type":[0,0,0,0,0,0,0],"sum_hessian":[3.35E2,1.48E2,1.87E2,1.74E2,1.3E1,2E0,1.72E2],"tree_param":{"num_deleted":"0","num_feature":"17","num_nodes":"7","size_leaf_vector":"0"}},{"base_weights":[2.5874358E-1,-1.4222202E-1,6.455361E-1,-1.7117195E-1,6.0597944E-1,3.8117075E-1,1.117283E0,1.2071944E-1,-2.3197648E-1,6.820412E-1,7.4804485E-2,8.7042695E-1,1.4079219E-1,1.2942257E0,7.8847986E-1,3.0681646E-1,-4.526615E-1,1.15142755E-1,-2.6111317E-1,1.1752764E0,2.8399292E-1,3.273889E-1,-4.257024E-1,1.3672376E0,7.338472E-1,-3.510853E-1,1.011632E0,-3.0345067E-1,4.440424E-1,-2.910613E-1,3.5462746E-1,-2.8079152E-1,3.0668247E-1,1.2616359E0,3.8488978E-1,-2.6728284E-1,4.4408542E-1,-3.3088648E-1,5.0515825E-1,8.893348E-1,-5.35921E-1,1.3841568E0,3.875299E-1,1.4453757E-1,8.079759E-1,-1.2187478E-1,-6.339637E-1,1.9564072E-2,1.1098605E0],"categories":[],"categories_nodes":[],"categories_segments":[],"categories_sizes":[],"default_left":[1,1,1,1,1,1,1,1,1,0,0,1,1,1,1,1,0,1,1,1,1,1,1,1,1,1,1,0,0,0,0,0,0,0,0,0,0,0,0,0,0,0,0,0,0,0,0,0,0],"id":24,"left_children":[1,3,5,7,9,11,13,15,17,-1,-1,19,21,23,25,27,-1,29,31,33,35,37,39,41,43,45,47,-1,-1,-1,-1,-1,-1,-1,-1,-1,-1,-1,-1,-1,-1,-1,-1,-1,-1,-1,-1,-1,-1],"loss_changes":[5.7320206E1,4.0459166E0,2.3020264E1,3.1517086E0,2.3179483E-1,1.422547E1,2.8775482E0,3.4467227E0,1.5066957E0,0E0,0E0,6.817192E0,8.9129715E0,7.1504974E-1,6.966875E0,2.144613E0,0E0,1.2705742E0,1.5945082E0,1.2891006E0,1.4425229E0,7.5394835E0,3.5203862E0,6.034088E-2,1.8901038E-1,2.4692935E-1,2.1221733E0,0E0,0E0,0E0,0E0,0E0,0E0,0E0,0E0,0E0,0E0,0E0,0E0,0E0,0E0,0E0,0E0,0E0,0E0,0E0,0E0,0E0,0E0],"parents":[2147483647,0,0,1,1,2,2,3,3,4,4,5,5,6,6,7,7,8,8,11,11,12,12,13,13,14,14,15,15,17,17,18,18,19,19,20,20,21,21,22,22,23,23,24,24,25,25,26,26],"right_children":[2,4,6,8,10,12,14,16,18,-1,-1,20,22,24,26,28,-1,30,32,34,36,38,40,42,44,46,48,-1,-1,-1,-1,-1,-1,-1,-1,-1,-1,-1,-1,-1,-1,-1,-1,-1,-1,-1,-1,-1,-1],"split_conditions":[2.4523195E1,1.7261165E-1,8.962367E-12,1.1860527E2,-3.0462325E0,-7.1102843E0,9.1928124E-2,1.1205E-1,4.9201306E2,6.820413E-2,7.4804486E-3,2.42644E2,2.6336042E3,4.818192E0,1.0398125E-1,2.8917287E-4,-4.526615E-2,-7.720288E0,5.2310383E-1,4.55838E1,5.6815624E-2,2.8522594E-5,3.2032103E-13,2.641201E3,5.545568E1,4.665363E0,2.010091E1,-3.0345067E-2,4.4404242E-2,-2.910613E-2,3.546275E-2,-2.8079152E-2,3.0668247E-2,1.2616359E-1,3.848898E-2,-2.6728285E-2,4.440854E-2,-3.308865E-2,5.0515827E-2,8.893348E-2,-5.3592097E-2,1.3841568E-1,3.875299E-2,1.4453757E-2,8.079759E-2,-1.2187478E-2,-6.339637E-2,1.9564072E-3,1.10986054E-1],"split_indices":[10,13,14,7,4,4,15,15,8,0,0,9,8,0,15,11,0,4,3,5,15,11,14,9,5,0,5,0,0,0,0,0,0,0,0,0,0,0,0,0,0,0,0,0,0,0,0,0,0],"split_type":[0,0,0,0,0,0,0,0,0,0,0,0,0,0,0,0,0,0,0,0,0,0,0,0,0,0,0,0,0,0,0,0,0,0,0,0,0,0,0,0,0,0,0,0,0,0,0,0,0],"sum_hessian":[3.68E2,1.81E2,1.87E2,1.75E2,6E0,1.21E2,6.6E1,3E1,1.45E2,5E0,1E0,3.9E1,8.2E1,4.1E1,2.5E1,2.3E1,7E0,1.1E1,1.34E2,2.5E1,1.4E1,6.2E1,2E1,3.5E1,6E0,4E0,2.1E1,4E0,1.9E1,4E0,7E0,1.3E2,4E0,2.2E1,3E0,3E0,1.1E1,1.3E1,4.9E1,1E0,1.9E1,3.4E1,1E0,1E0,5E0,3E0,1E0,2E0,1.9E1],"tree_param":{"num_deleted":"0","num_feature":"17","num_nodes":"49","size_leaf_vector":"0"}},{"base_weights":[-7.035561E-1,-9.5437115E-1,-3.6039472E-1,-5.5326414E-1,-1.109063E0,-3.1615576E-1,-5.371345E-1,-2.5662258E-1,-6.8134904E-1,-2.6412785E-1,-1.1603937E0,-2.89485E-1,-6.800313E-1,-1.1102916E0,-4.0625298E-1,-1.9999782E-2,-2.8180292E-1,-3.3890113E-1,-8.7905157E-1,-1.0717603E-1,-3.1608206E-1,-6.826622E-1,-1.2558227E0,-2.645221E-1,-6.582348E-1,-9.5848465E-1,-1.619568E-1,-2.0771666E-1,-6.2056893E-1,2.5226176E-3,-3.252229E-2,-5.3982246E-1,-2.3555438E-1,-9.3455046E-1,-1.4204314E-1,-1.1797714E-1,-3.717286E-1,-1.7962153E-1,-8.2459337E-1,-1.0159397E0,-1.5213147E0,-3.6684188E-1,-2.4550572E-1,-1.9899227E-1,-9.529186E-1,-2.2278415E-1,1.6141385E-3,-8.0026495E-1,-2.0894156E-1],"categories":[],"categories_nodes":[],"categories_segments":[],"categories_sizes":[],"default_left":[1,1,1,1,1,1,1,1,1,1,1,1,1,0,1,1,0,1,1,0,1,1,1,1,1,0,0,1,1,0,0,0,0,0,0,0,0,0,0,0,0,0,0,0,0,0,0,0,0],"id":25,"left_children":[1,3,5,7,9,11,13,15,17,19,21,23,25,-1,27,29,-1,31,33,-1,35,37,39,41,43,-1,-1,45,47,-1,-1,-1,-1,-1,-1,-1,-1,-1,-1,-1,-1,-1,-1,-1,-1,-1,-1,-1,-1],"loss_changes":[3.1329803E1,1.2540573E1,1.0577316E0,2.1428642E0,6.285904E0,1.0453606E0,1.7994108E0,1.1352873E-1,2.5456066E0,4.766661E-2,5.6619873E0,9.3969536E-1,9.9884367E-1,0E0,9.773841E-1,9.2815224E-4,0E0,2.2584009E-1,9.3073654E-1,0E0,3.3311427E-2,1.70821E0,5.9694977E0,1.3369942E-1,7.576959E-1,0E0,0E0,4.767096E-2,7.204046E-1,0E0,0E0,0E0,0E0,0E0,0E0,0E0,0E0,0E0,0E0,0E0,0E0,0E0,0E0,0E0,0E0,0E0,0E0,0E0,0E0],"parents":[2147483647,0,0,1,1,2,2,3,3,4,4,5,5,6,6,7,7,8,8,9,9,10,10,11,11,12,12,14,14,15,15,17,17,18,18,20,20,21,21,22,22,23,23,24,24,27,27,28,28],"right_children":[2,4,6,8,10,12,14,16,18,20,22,24,26,-1,28,30,-1,32,34,-1,36,38,40,42,44,-1,-1,46,48,-1,-1,-1,-1,-1,-1,-1,-1,-1,-1,-1,-1,-1,-1,-1,-1,-1,-1,-1,-1],"split_conditions":[2.1473137E2,2.4544346E1,1.1045271E0,2.2803183E-4,2.8522594E-5,2.7724594E1,1.617657E3,3.753037E1,2.189455E1,3.7169807E1,-5.763676E-2,1.5585616E-1,2.857034E1,-1.1102916E-1,-4.07494E-2,4.016059E0,-2.8180292E-2,1.25738E-1,1.3200936E-3,-1.0717603E-2,2.2929044E-2,2.691166E-4,4.5597956E-2,9.672047E2,1.09954904E-4,-9.584846E-2,-1.6195681E-2,1.2371979E-1,3.080723E0,2.5226176E-4,-3.2522292E-3,-5.3982247E-2,-2.3555439E-2,-9.345505E-2,-1.4204315E-2,-1.1797714E-2,-3.717286E-2,-1.7962154E-2,-8.245934E-2,-1.0159397E-1,-1.5213148E-1,-3.668419E-2,-2.4550572E-2,-1.9899227E-2,-9.529186E-2,-2.2278415E-2,1.6141385E-4,-8.00265E-2,-2.0894157E-2],"split_indices":[7,10,6,11,11,10,9,5,10,5,16,13,10,0,16,0,0,6,11,0,6,11,3,8,11,0,0,15,0,0,0,0,0,0,0,0,0,0,0,0,0,0,0,0,0,0,0,0,0],"split_type":[0,0,0,0,0,0,0,0,0,0,0,0,0,0,0,0,0,0,0,0,0,0,0,0,0,0,0,0,0,0,0,0,0,0,0,0,0,0,0,0,0,0,0,0,0,0,0,0,0],"sum_hessian":[3.67E2,2.11E2,1.56E2,6E1,1.51E2,1.27E2,2.9E1,1.9E1,4.1E1,9E0,1.42E2,1.2E2,7E0,4E0,2.5E1,2E0,1.7E1,1.6E1,2.5E1,3E0,6E0,2.5E1,1.17E2,1.14E2,6E0,4E0,3E0,1.4E1,1.1E1,1E0,1E0,4E0,1.2E1,2.3E1,2E0,2E0,4E0,6E0,1.9E1,6.4E1,5.3E1,1.5E1,9.9E1,3E0,3E0,1.3E1,1E0,7E0,4E0],"tree_param":{"num_deleted":"0","num_feature":"17","num_nodes":"49","size_leaf_vector":"0"}},{"base_weights":[1.0678596E0,1.2343836E0,8.0212E-1,7.119392E-1,1.2752316E0,7.615241E-1,1.0205714E0,6.8951607E-1,1.3024297E0,7.364974E-1,1.0260915E0,6.410737E-1,1.1885222E0,5.784472E-1,1.3188701E0,1.3448613E0,5.3962886E-1,1.3351272E0,6.1134255E-1,1.4303591E0,3.3043903E-1],"categories":[],"categories_nodes":[],"categories_segments":[],"categories_sizes":[],"default_left":[1,1,1,0,1,1,1,0,1,0,0,0,1,0,1,1,0,0,0,0,0],"id":26,"left_children":[1,3,5,-1,7,9,11,-1,13,-1,-1,-1,15,-1,17,19,-1,-1,-1,-1,-1],"loss_changes":[1.476358E1,3.7230835E0,4.643631E-1,0E0,2.2880554E0,5.2078247E-2,4.4907188E-1,0E0,1.4985657E0,0E0,0E0,0E0,4.91642E-1,0E0,1.3117065E0,3.079319E-1,0E0,0E0,0E0,0E0,0E0],"parents":[2147483647,0,0,1,1,2,2,4,4,5,5,6,6,8,8,12,12,14,14,15,15],"right_children":[2,4,6,-1,8,10,12,-1,14,-1,-1,-1,16,-1,18,20,-1,-1,-1,-1,-1],"split_conditions":[2.1562933E2,2.14365E1,1.6368575E0,7.1193926E-2,3.2375904E1,2.7724594E1,1.5188871E1,6.895161E-2,2.6096646E-2,7.364974E-2,1.0260915E-1,6.410737E-2,3.34056E1,5.7844725E-2,2.8777199E1,5.8614784E1,5.3962886E-2,1.3351272E-1,6.1134256E-2,1.4303592E-1,3.3043902E-2],"split_indices":[7,10,6,0,12,10,5,0,6,0,0,0,5,0,10,12,0,0,0,0,0],"split_type":[0,0,0,0,0,0,0,0,0,0,0,0,0,0,0,0,0,0,0,0,0],"sum_hessian":[3.55E2,2.16E2,1.39E2,1.7E1,1.99E2,1.21E2,1.8E1,1E1,1.89E2,1.14E2,7E0,7E0,1.1E1,5E0,1.84E2,8E0,3E0,1.79E2,5E0,7E0,1E0],"tree_param":{"num_deleted":"0","num_feature":"17","num_nodes":"21","size_leaf_vector":"0"}},{"base_weights":[1.7983748E0,1.9466684E0,1.5918037E0,1.9695151E0,1.2404349E0,2.0186086E0,1.5236104E0,2.078642E0,1.785729E0,5.612862E-1,2.0713167E0,2.1382806E0,1.4462254E0,2.0341718E0,1.6176112E0,6.190154E-1,1.5403531E0],"categories":[],"categories_nodes":[],"categories_segments":[],"categories_sizes":[],"default_left":[1,1,1,1,0,1,0,1,1,0,0,0,1,0,0,0,0],"id":27,"left_children":[1,3,5,7,-1,9,-1,11,13,-1,-1,-1,15,-1,-1,-1,-1],"loss_changes":[7.7147217E0,8.001709E-1,1.3775024E0,1.5887451E-1,0E0,2.2001648E-1,0E0,1.2449341E0,9.155273E-3,0E0,0E0,0E0,5.8721542E-2,0E0,0E0,0E0,0E0],"parents":[2147483647,0,0,1,1,2,2,3,3,5,5,7,7,8,8,12,12],"right_children":[2,4,6,8,-1,10,-1,12,14,-1,-1,-1,16,-1,-1,-1,-1],"split_conditions":[3.0629418E-12,1.7384167E-1,2.037924E1,2.451295E1,1.2404349E-1,3.751324E-12,1.5236104E-1,5.5715874E1,9.573473E-5,5.612862E-2,2.0713167E-1,2.1382807E-1,-6.1805665E-2,2.0341718E-1,1.6176112E-1,6.190154E-2,1.5403531E-1],"split_indices":[14,13,10,10,0,14,0,12,11,0,0,0,16,0,0,0,0],"split_type":[0,0,0,0,0,0,0,0,0,0,0,0,0,0,0,0,0],"sum_hessian":[3.52E2,2E2,1.52E2,1.92E2,8E0,1.7E1,1.35E2,1.14E2,7.8E1,1E0,1.6E1,1.02E2,1.2E1,2.7E1,5.1E1,2E0,1E1],"tree_param":{"num_deleted":"0","num_feature":"17","num_nodes":"17","size_leaf_vector":"0"}},{"base_weights":[2.670703E-1,-4.1603133E-2,7.2530866E-1,-1.9742025E-1,2.039699E-1,-3.0447716E-1,8.0722505E-1,-2.2265714E-1,4.0331328E-1,4.5438638E-1,-5.0979253E-2,-4.4934356E-1,-1.75876E-1,8.748107E-1,-2.887418E-1,-2.5142625E-1,7.027136E-3,-1.039145E-1,6.829058E-1,5.22744E-1,-3.769652E-1,-1.8266705E-1,4.9606827E-1,-2.0945406E-1,2.9585153E-2,1.1150947E0,6.391925E-1,-2.7247435E-1,-7.259955E-2,4.6413046E-1,-1.8401818E-1,7.106426E-2,-2.2693601E-1,6.829428E-1,9.188947E-3,-3.0746144E-1,3.4194067E-4,5.7090515E-1,-5.1313385E-2,1.00168526E-1,1.1800051E0,2.9471946E-1,9.384599E-1],"categories":[],"categories_nodes":[],"categories_segments":[],"categories_sizes":[],"default_left":[1,1,1,1,1,1,1,1,1,1,1,0,1,1,0,1,1,1,0,1,0,1,1,0,0,1,1,0,0,0,0,0,0,0,0,0,0,0,0,0,0,0,0],"id":28,"left_children":[1,3,5,7,9,11,13,15,17,19,21,-1,23,25,-1,27,29,31,-1,33,-1,35,37,-1,-1,39,41,-1,-1,-1,-1,-1,-1,-1,-1,-1,-1,-1,-1,-1,-1,-1,-1],"loss_changes":[5.3779663E1,8.764569E0,1.315229E1,2.2122917E0,5.705233E0,1.4453101E-1,1.0770767E1,8.9382076E-1,9.218663E-1,2.7543707E0,3.332392E0,0E0,6.1388582E-2,6.8736877E0,0E0,4.318943E-1,1.4826475E0,8.07055E-2,0E0,3.4491024E0,0E0,8.451296E-1,3.9797425E-1,0E0,0E0,4.1639557E0,6.939686E0,0E0,0E0,0E0,0E0,0E0,0E0,0E0,0E0,0E0,0E0,0E0,0E0,0E0,0E0,0E0,0E0],"parents":[2147483647,0,0,1,1,2,2,3,3,4,4,5,5,6,6,7,7,8,8,9,9,10,10,12,12,13,13,15,15,16,16,17,17,19,19,21,21,22,22,25,25,26,26],"right_children":[2,4,6,8,10,12,14,16,18,20,22,-1,24,26,-1,28,30,32,-1,34,-1,36,38,-1,-1,40,42,-1,-1,-1,-1,-1,-1,-1,-1,-1,-1,-1,-1,-1,-1,-1,-1],"split_conditions":[2.5675556E1,2.8530154E-12,2.8522594E-5,1.6738951E-1,4.1063776E2,4.2168488E1,2.83891E1,5.5715874E1,-5.0496273E-2,1.311953E-3,5.5341187E1,-4.493436E-2,4.985897E0,1.2341578E-1,-2.887418E-2,4.9040502E-1,5.6897835E1,3.9697483E0,6.8290584E-2,-3.4545846E-2,-3.769652E-2,4.843535E1,1.0625625E-1,-2.0945406E-2,2.9585154E-3,-2.0290624E-2,6.7745093E-12,-2.7247434E-2,-7.259955E-3,4.6413045E-2,-1.8401818E-2,7.1064266E-3,-2.2693602E-2,6.829428E-2,9.188947E-4,-3.0746145E-2,3.419407E-5,5.7090517E-2,-5.1313387E-3,1.0016853E-2,1.1800051E-1,2.9471947E-2,9.3845986E-2],"split_indices":[10,14,11,13,9,12,10,12,16,11,12,0,0,6,0,2,12,0,0,16,0,12,15,0,0,15,14,0,0,0,0,0,0,0,0,0,0,0,0,0,0,0,0],"split_type":[0,0,0,0,0,0,0,0,0,0,0,0,0,0,0,0,0,0,0,0,0,0,0,0,0,0,0,0,0,0,0,0,0,0,0,0,0,0,0,0,0,0,0],"sum_hessian":[3.79E2,2.27E2,1.52E2,1.39E2,8.8E1,1.1E1,1.41E2,1.34E2,5E0,4.4E1,4.4E1,4E0,7E0,1.33E2,8E0,1.19E2,1.5E1,2E0,3E0,4.1E1,3E0,3.6E1,8E0,6E0,1E0,6.4E1,6.9E1,1.06E2,1.3E1,4E0,1.1E1,1E0,1E0,3.1E1,1E1,2.1E1,1.5E1,7E0,1E0,4E0,6E1,3.3E1,3.6E1],"tree_param":{"num_deleted":"0","num_feature":"17","num_nodes":"43","size_leaf_vector":"0"}},{"base_weights":[-6.094612E-1,-8.216318E-1,-2.633228E-1,-4.795658E-1,-9.859119E-1,-2.1810979E-1,-5.1465267E-1,-2.714189E-1,-8.04394E-1,-1.0275397E0,-6.564789E-3,-2.2879472E-1,-1.301993E-1,-3.3139318E-1,-8.0764985E-1,-3.5826594E-1,-2.178392E-1,1.13420725E-1,-8.4258795E-1,-1.1403558E0,-6.389611E-1,4.6626355E-2,-9.302843E-2,-2.296565E-2,-2.3264316E-1,-2.7689425E-2,-1.649584E-1,-5.939238E-1,-2.0580086E-1,-1.2998463E-1,-1.052719E0,-2.327657E-1,-5.8781326E-1,-2.2919144E-1,-3.5487834E-2,-4.4281942E-1,-9.3572086E-1,-2.5541407E-1,-1.1719362E0,2.860687E-1,-7.0571506E-1,8.299483E-2,1.6785527E-2,-1.1163822E-1,-2.790443E-2,-3.5981905E-2,1.5334316E-3,-4.770413E-1,-2.2542876E-1,-9.184667E-2,4.5697622E-2,-5.126714E-2,-2.1612751E-1],"categories":[],"categories_nodes":[],"categories_segments":[],"categories_sizes":[],"default_left":[1,1,1,1,1,1,1,1,1,1,1,1,1,1,1,1,1,0,1,1,1,1,1,1,1,1,0,0,1,0,0,0,0,0,0,0,0,0,0,0,0,0,0,0,0,0,0,0,0,0,0,0,0],"id":29,"left_children":[1,3,5,7,9,11,13,15,17,19,21,23,25,27,29,31,33,-1,35,37,39,41,43,45,47,49,-1,-1,51,-1,-1,-1,-1,-1,-1,-1,-1,-1,-1,-1,-1,-1,-1,-1,-1,-1,-1,-1,-1,-1,-1,-1,-1],"loss_changes":[2.578154E1,1.1833817E1,1.4331684E0,4.717346E0,5.9861603E0,8.011055E-2,8.0624104E-1,1.3600445E-1,1.0771065E0,5.4525146E0,3.6531277E-2,7.624626E-2,4.8879683E-2,3.3937573E-1,1.0256863E0,3.2410884E-1,5.6039453E-2,0E0,5.908985E-1,2.7189178E0,2.301364E0,4.0332153E-3,5.206317E-4,1.0118347E-3,7.0542336E-2,2.7738728E-2,0E0,0E0,6.47375E-3,0E0,0E0,0E0,0E0,0E0,0E0,0E0,0E0,0E0,0E0,0E0,0E0,0E0,0E0,0E0,0E0,0E0,0E0,0E0,0E0,0E0,0E0,0E0,0E0],"parents":[2147483647,0,0,1,1,2,2,3,3,4,4,5,5,6,6,7,7,8,8,9,9,10,10,11,11,12,12,13,13,14,14,15,15,16,16,18,18,19,19,20,20,21,21,22,22,23,23,24,24,25,25,28,28],"right_children":[2,4,6,8,10,12,14,16,18,20,22,24,26,28,30,32,34,-1,36,38,40,42,44,46,48,50,-1,-1,52,-1,-1,-1,-1,-1,-1,-1,-1,-1,-1,-1,-1,-1,-1,-1,-1,-1,-1,-1,-1,-1,-1,-1,-1],"split_conditions":[2.1562933E2,2.503539E1,5.5681664E1,1.06608674E-1,2.8719704E1,5.2215324E1,1.1801052E-1,4.884831E-2,2.1934278E1,5.1946087E1,4.735981E0,6.525524E-2,3.1867383E2,2.9590278E0,3.067361E0,9.4479516E-2,2.4700455E1,1.1342073E-2,8.4360405E1,-3.6209375E-2,5.2198483E1,4.2668223E0,4.931597E0,2.6998515E0,2.7895517E0,1.1952606E-1,-1.649584E-2,-5.939238E-2,-7.951272E0,-1.2998464E-2,-1.052719E-1,-2.3276571E-2,-5.8781326E-2,-2.2919144E-2,-3.5487835E-3,-4.428194E-2,-9.357209E-2,-2.5541408E-2,-1.1719362E-1,2.8606871E-2,-7.0571505E-2,8.299484E-3,1.6785527E-3,-1.1163822E-2,-2.7904431E-3,-3.5981906E-3,1.5334316E-4,-4.770413E-2,-2.2542877E-2,-9.184667E-3,4.5697624E-3,-5.1267142E-3,-2.1612752E-2],"split_indices":[7,10,12,13,10,12,13,6,5,12,0,1,7,0,0,13,10,0,9,15,12,0,0,0,0,13,0,0,4,0,0,0,0,0,0,0,0,0,0,0,0,0,0,0,0,0,0,0,0,0,0,0,0],"split_type":[0,0,0,0,0,0,0,0,0,0,0,0,0,0,0,0,0,0,0,0,0,0,0,0,0,0,0,0,0,0,0,0,0,0,0,0,0,0,0,0,0,0,0,0,0,0,0,0,0,0,0,0,0],"sum_hessian":[3.53E2,2.18E2,1.35E2,7.2E1,1.46E2,1.16E2,1.9E1,4.5E1,2.7E1,1.4E2,6E0,1.02E2,1.4E1,1.3E1,6E0,1.5E1,3E1,1E0,2.6E1,1.07E2,3.3E1,4E0,2E0,2E0,1E2,4E0,1E1,3E0,1E1,2E0,4E0,1.1E1,4E0,2.8E1,2E0,6E0,2E1,4E0,1.03E2,2E0,3.1E1,1E0,3E0,1E0,1E0,1E0,1E0,1E0,9.9E1,2E0,2E0,1E0,9E0],"tree_param":{"num_deleted":"0","num_feature":"17","num_nodes":"53","size_leaf_vector":"0"}},{"base_weights":[9.9598E-1,1.1756084E0,8.453832E-1,1.2067777E0,5.624555E-1,7.2581244E-1,9.524666E-1,9.550745E-1,1.2779318E0,8.409216E-1,6.531297E-1,7.983617E-1,1.0971456E0,1.0659132E0,6.1686134E-1,4.8260823E-1,1.2872431E0,9.043643E-1,3.729805E-1,6.188115E-1,9.379994E-1,1.1468313E0,5.250832E-1,1.1270599E0,4.1726777E-1,6.58713E-1,7.824659E-2,6.329331E-1,1.065235E0,2.508781E-1,6.38211E-1,7.8876704E-1,1.2943344E0,8.3769447E-1,1.2655611E0],"categories":[],"categories_nodes":[],"categories_segments":[],"categories_sizes":[],"default_left":[1,1,1,1,0,1,1,1,1,1,0,1,1,1,1,0,0,1,0,1,1,1,0,0,0,0,0,0,0,0,0,0,0,0,0],"id":30,"left_children":[1,3,5,7,-1,9,11,13,15,17,-1,19,21,23,25,-1,-1,27,-1,29,31,33,-1,-1,-1,-1,-1,-1,-1,-1,-1,-1,-1,-1,-1],"loss_changes":[9.123444E0,2.5319672E0,1.9591217E0,1.627121E0,0E0,3.04142E-1,1.4874268E0,8.044739E-1,2.7482605E-1,7.314377E-1,0E0,7.985153E-1,8.758316E-1,6.402645E-1,2.1896124E-1,0E0,0E0,6.793995E-1,0E0,3.260708E-2,5.2119637E-1,6.649246E-1,0E0,0E0,0E0,0E0,0E0,0E0,0E0,0E0,0E0,0E0,0E0,0E0,0E0],"parents":[2147483647,0,0,1,1,2,2,3,3,5,5,6,6,7,7,8,8,9,9,11,11,12,12,13,13,14,14,17,17,19,19,20,20,21,21],"right_children":[2,4,6,8,-1,10,12,14,16,18,-1,20,22,24,26,-1,-1,28,-1,30,32,34,-1,-1,-1,-1,-1,-1,-1,-1,-1,-1,-1,-1,-1],"split_conditions":[1.3608229E2,1.3307666E-3,4.829505E1,2.2569978E-4,5.6245547E-2,2.2081628E2,1.9357144E-12,1.3364124E3,2.0141745E1,2.749496E3,6.5312974E-2,2.629704E-4,2.7966505E1,2.1439482E-4,2.9529841E3,4.8260823E-2,1.2872432E-1,2.3323555E1,3.729805E-2,1.3927249E2,4.4169273E0,2.2270855E1,5.250832E-2,1.12706E-1,4.172678E-2,6.58713E-2,7.824659E-3,6.329331E-2,1.0652351E-1,2.508781E-2,6.38211E-2,7.8876704E-2,1.2943344E-1,8.376945E-2,1.2655611E-1],"split_indices":[7,11,12,11,0,7,14,8,10,8,0,11,10,11,8,0,0,10,0,7,0,10,0,0,0,0,0,0,0,0,0,0,0,0,0],"split_type":[0,0,0,0,0,0,0,0,0,0,0,0,0,0,0,0,0,0,0,0,0,0,0,0,0,0,0,0,0,0,0,0,0,0,0],"sum_hessian":[3.73E2,1.67E2,2.06E2,1.58E2,9E0,1.01E2,1.05E2,3.8E1,1.2E2,3.5E1,6.6E1,5.4E1,5.1E1,2.7E1,1.1E1,2E0,1.18E2,3E1,5E0,2.6E1,2.8E1,4.6E1,5E0,2.4E1,3E0,1E1,1E0,1.3E1,1.7E1,2E0,2.4E1,2.2E1,6E0,1.5E1,3.1E1],"tree_param":{"num_deleted":"0","num_feature":"17","num_nodes":"35","size_leaf_vector":"0"}},{"base_weights":[1.614766E0,1.7477462E0,1.3878932E0,1.8000256E0,1.4232788E0,6.8190974E-1,1.8082932E0],"categories":[],"categories_nodes":[],"categories_segments":[],"categories_sizes":[],"default_left":[1,1,0,1,0,0,0],"id":31,"left_children":[1,3,-1,5,-1,-1,-1],"loss_changes":[8.525879E0,1.2547607E0,0E0,5.233154E-1,0E0,0E0,0E0],"parents":[2147483647,0,0,1,1,3,3],"right_children":[2,4,-1,6,-1,-1,-1],"split_conditions":[3.6733663E-12,1.3048786E-1,1.3878933E-1,5.781094E-2,1.4232789E-1,6.819098E-2,1.8082933E-1],"split_indices":[14,13,0,1,0,0,0],"split_type":[0,0,0,0,0,0,0],"sum_hessian":[3.62E2,2.24E2,1.38E2,1.89E2,3.5E1,2E0,1.87E2],"tree_param":{"num_deleted":"0","num_feature":"17","num_nodes":"7","size_leaf_vector":"0"}},{"base_weights":[2.6686376E-1,5.2632356E-1,-1.15268216E-1,1.7636788E-1,6.646957E-1,-1.3890935E-1,5.791939E-1,5.084913E-1,-1.7215848E-1,7.41392E-1,-1.4974573E-1,-2.3686388E-1,-5.3144313E-2,1.0129822E0,2.3313257E-1,7.166952E-1,-2.2567677E-1,8.917626E-1,4.697694E-1,-4.388911E-1,6.8284047E-1,-3.100257E-1,-2.1987298E-1,7.1174276E-1,-1.278072E-1,1.0751843E-2,1.11213E0,-3.4977677E-1,5.284754E-1,2.009479E-1,-2.990401E-1,6.513815E-1,1.0502764E0,-2.90071E-1,5.944128E-1,-5.1255476E-1,-1.8184103E-1,8.5850847E-1,7.791829E-2,1.0747706E0,-1.3055104E-1,4.9162847E-1,-1.6236508E-1],"categories":[],"categories_nodes":[],"categories_segments":[],"categories_sizes":[],"default_left":[1,1,1,1,1,1,0,1,1,1,1,1,1,1,1,0,1,1,1,1,1,0,0,1,1,0,0,0,0,0,0,0,0,0,0,0,0,0,0,0,0,0,0],"id":32,"left_children":[1,3,5,7,9,11,-1,13,15,17,19,21,23,25,27,-1,29,31,33,35,37,-1,-1,39,41,-1,-1,-1,-1,-1,-1,-1,-1,-1,-1,-1,-1,-1,-1,-1,-1,-1,-1],"loss_changes":[3.5654762E1,1.0245529E1,2.4774656E0,7.2642746E0,9.668114E0,1.1803648E0,0E0,4.209152E0,1.6364095E0,5.2992477E0,3.670031E0,1.3877392E-2,4.488334E0,1.0811014E0,3.9723265E0,0E0,9.990498E-1,2.7071E0,5.0972958E0,1.1508417E-1,3.5816824E-1,0E0,0E0,2.2807448E0,1.5996761E0,0E0,0E0,0E0,0E0,0E0,0E0,0E0,0E0,0E0,0E0,0E0,0E0,0E0,0E0,0E0,0E0,0E0,0E0],"parents":[2147483647,0,0,1,1,2,2,3,3,4,4,5,5,7,7,8,8,9,9,10,10,11,11,12,12,13,13,14,14,16,16,17,17,18,18,19,19,20,20,23,23,24,24],"right_children":[2,4,6,8,10,12,-1,14,16,18,20,22,24,26,28,-1,30,32,34,36,38,-1,-1,40,42,-1,-1,-1,-1,-1,-1,-1,-1,-1,-1,-1,-1,-1,-1,-1,-1,-1,-1],"split_conditions":[2.1473137E2,2.3333801E-4,1.7117849E-1,4.094022E1,1.2817574E-3,4.7274574E1,5.791939E-2,-7.5120683E0,3.8442934E0,1.3483109E-1,1.732133E2,2.4553336E2,4.188305E-13,1.8597077E-12,3.8021877E-2,7.166952E-2,4.756382E2,1.667124E-1,2.8231242E-1,9.666482E-1,3.458288E-1,-3.100257E-2,-2.1987299E-2,-2.1857395E0,1.0173512E3,1.0751843E-3,1.11213006E-1,-3.497768E-2,5.2847542E-2,2.009479E-2,-2.9904012E-2,6.5138154E-2,1.0502764E-1,-2.9007101E-2,5.944128E-2,-5.1255476E-2,-1.8184103E-2,8.585085E-2,7.7918293E-3,1.0747706E-1,-1.3055104E-2,4.9162846E-2,-1.6236508E-2],"split_indices":[7,11,13,5,11,12,0,4,7,6,7,7,14,14,15,0,8,2,2,6,3,0,0,4,8,0,0,0,0,0,0,0,0,0,0,0,0,0,0,0,0,0,0],"split_type":[0,0,0,0,0,0,0,0,0,0,0,0,0,0,0,0,0,0,0,0,0,0,0,0,0,0,0,0,0,0,0,0,0,0,0,0,0,0,0,0,0,0,0],"sum_hessian":[3.58E2,2.13E2,1.45E2,6.1E1,1.52E2,1.41E2,4E0,3.1E1,3E1,1.39E2,1.3E1,6.5E1,7.6E1,1E1,2.1E1,1E0,2.9E1,8.8E1,5.1E1,1E1,3E0,9E0,5.6E1,6E0,7E1,1E0,9E0,7E0,1.4E1,4E0,2.5E1,3.7E1,5.1E1,7E0,4.4E1,7E0,3E0,2E0,1E0,4E0,2E0,3E0,6.7E1],"tree_param":{"num_deleted":"0","num_feature":"17","num_nodes":"43","size_leaf_vector":"0"}},{"base_weights":[-5.8137745E-1,-4.1593933E-1,-1.1019934E0,-5.5599487E-1,-2.6859903E-1,-5.0361484E-1,-1.3158497E0,-5.844801E-1,-2.0050239E-2,-2.1182449E-1,-4.5040396E-1,-1.358147E-1,-8.0438304E-1,-1.6159537E0,-1.0031537E0,-4.2699498E-1,-7.426755E-1,3.9455813E-1,-2.2401272E-1,-1.9960797E-1,-4.6733522E-1,-2.6327628E-1,-6.093814E-1,1.07749686E-1,-1.6775234E-1,-1.0522745E0,-4.4157982E-1,-1.7529086E0,-9.1554314E-1,2.150364E-1,-1.047942E0,-5.9766394E-1,-1.7686553E-1,-2.9907477E-1,-8.392935E-1,2.073126E-3,-2.696445E-1,-1.8197703E-1,-3.4185186E-1,-6.036382E-1,-2.9213171E-2,-4.80418E-1,-1.9794047E-1,-8.884419E-1,-4.0176827E-1,-3.418281E-2,-1.7769101E-1,-4.964729E-1,-5.611068E-2,-3.5375017E-1,-1.7983612E0,-1.0535762E0,-3.8030696E-1,-1.1057588E0,-1.2046065E-1],"categories":[],"categories_nodes":[],"categories_segments":[],"categories_sizes":[],"default_left":[1,1,1,1,1,1,1,1,1,1,1,1,1,1,1,1,1,0,1,1,1,1,1,0,1,0,1,1,1,0,1,0,0,0,0,0,0,0,0,0,0,0,0,0,0,0,0,0,0,0,0,0,0,0,0],"id":33,"left_children":[1,3,5,7,9,11,13,15,17,19,21,23,25,27,29,31,33,-1,35,37,39,41,43,-1,45,-1,47,49,51,-1,53,-1,-1,-1,-1,-1,-1,-1,-1,-1,-1,-1,-1,-1,-1,-1,-1,-1,-1,-1,-1,-1,-1,-1,-1],"loss_changes":[3.0117699E1,5.442974E0,1.0214508E1,2.0950546E0,1.2877264E0,2.5456948E0,4.197113E0,2.946537E0,7.649024E-1,2.3134708E-1,7.617855E-1,1.11421734E-1,7.045021E-1,1.2728729E0,2.0258484E0,2.7971687E0,2.4920158E0,0E0,6.245923E-2,1.910882E-1,2.212351E-1,1.3189995E-1,5.700383E-1,0E0,8.52856E-3,0E0,1.2025964E-1,8.9011383E-1,1.1647987E-1,0E0,1.5827675E0,0E0,0E0,0E0,0E0,0E0,0E0,0E0,0E0,0E0,0E0,0E0,0E0,0E0,0E0,0E0,0E0,0E0,0E0,0E0,0E0,0E0,0E0,0E0,0E0],"parents":[2147483647,0,0,1,1,2,2,3,3,4,4,5,5,6,6,7,7,8,8,9,9,10,10,11,11,12,12,13,13,14,14,15,15,16,16,18,18,19,19,20,20,21,21,22,22,24,24,26,26,27,27,28,28,30,30],"right_children":[2,4,6,8,10,12,14,16,18,20,22,24,26,28,30,32,34,-1,36,38,40,42,44,-1,46,-1,48,50,52,-1,54,-1,-1,-1,-1,-1,-1,-1,-1,-1,-1,-1,-1,-1,-1,-1,-1,-1,-1,-1,-1,-1,-1,-1,-1],"split_conditions":[6.9574875E-12,2.1281815E2,2.5254545E1,5.7816E-12,5.3759693E1,4.9513878E1,4.232895E0,2.5181558E-12,4.3949647E0,2.7724594E1,2.20914E1,1.160382E-1,3.5717735E1,5.0839493E1,1.744093E2,4.712037E1,8.4616005E-2,3.9455812E-2,3.211492E1,1.0006732E3,4.465599E1,2.7017798E0,-5.2387312E-2,1.0774969E-2,2.8919232E0,-1.0522745E-1,8.9107096E-1,3.7219387E1,7.474705E-2,2.150364E-2,4.367618E-2,-5.9766393E-2,-1.7686553E-2,-2.9907478E-2,-8.392935E-2,2.073126E-4,-2.696445E-2,-1.8197704E-2,-3.4185186E-2,-6.0363818E-2,-2.9213172E-3,-4.8041802E-2,-1.9794047E-2,-8.8844195E-2,-4.0176827E-2,-3.418281E-3,-1.7769102E-2,-4.964729E-2,-5.611068E-3,-3.5375018E-2,-1.7983612E-1,-1.05357625E-1,-3.8030695E-2,-1.1057588E-1,-1.2046065E-2],"split_indices":[14,7,10,14,12,12,0,14,0,10,10,6,5,12,8,5,13,0,5,7,5,0,16,0,0,0,1,12,3,0,3,0,0,0,0,0,0,0,0,0,0,0,0,0,0,0,0,0,0,0,0,0,0,0,0],"split_type":[0,0,0,0,0,0,0,0,0,0,0,0,0,0,0,0,0,0,0,0,0,0,0,0,0,0,0,0,0,0,0,0,0,0,0,0,0,0,0,0,0,0,0,0,0,0,0,0,0,0,0,0,0,0,0],"sum_hessian":[3.54E2,2.7E2,8.4E1,1.37E2,1.33E2,2.3E1,6.1E1,1.3E2,7E0,1.03E2,3E1,1.1E1,1.2E1,2.9E1,3.2E1,6.7E1,6.3E1,2E0,5E0,1E2,3E0,1.5E1,1.5E1,1E0,1E1,6E0,6E0,2.3E1,6E0,1E0,3.1E1,3.9E1,2.8E1,1.2E1,5.1E1,1E0,4E0,9.1E1,9E0,2E0,1E0,2E0,1.3E1,5E0,1E1,1E0,9E0,5E0,1E0,1E0,2.2E1,4E0,2E0,2.9E1,2E0],"tree_param":{"num_deleted":"0","num_feature":"17","num_nodes":"55","size_leaf_vector":"0"}},{"base_weights":[8.750485E-1,9.922243E-1,7.037248E-1,7.876846E-1,1.0633345E0,6.289344E-1,8.739454E-1,5.161787E-1,9.09854E-1,3.3938444E-1,1.0758003E0,5.6630945E-1,6.915034E-1,6.065395E-1,1.0894717E0,5.37315E-1,5.7294488E-2,1.1177552E0,5.872845E-1,1.082548E0,4.5310915E-2,5.793446E-1,8.46249E-1,6.2158793E-1,1.2260789E0,1.931622E-1,5.6644106E-1,4.1114652E-1,1.1678587E0,4.4068703E-1,1.092932E0,5.701701E-1,1.1200763E0,1.274479E0,2.500378E-1],"categories":[],"categories_nodes":[],"categories_segments":[],"categories_sizes":[],"default_left":[1,1,1,1,1,1,1,1,1,0,1,0,1,0,1,1,0,1,0,1,0,0,1,0,1,0,0,0,0,0,0,0,0,0,0],"id":34,"left_children":[1,3,5,7,9,11,13,15,17,-1,19,-1,21,-1,23,25,-1,27,-1,29,-1,-1,31,-1,33,-1,-1,-1,-1,-1,-1,-1,-1,-1,-1],"loss_changes":[6.348053E0,2.1586761E0,1.3090591E0,1.4210243E0,9.885559E-1,1.9824982E-2,1.7597771E0,1.6319704E-1,1.8919373E0,0E0,9.731293E-1,0E0,3.4282303E-1,0E0,6.4404297E-1,8.1038E-2,0E0,2.987194E-1,0E0,4.9145508E-1,0E0,0E0,7.2212887E-1,0E0,4.3718147E-1,0E0,0E0,0E0,0E0,0E0,0E0,0E0,0E0,0E0,0E0],"parents":[2147483647,0,0,1,1,2,2,3,3,4,4,5,5,6,6,7,7,8,8,10,10,12,12,14,14,15,15,17,17,19,19,22,22,24,24],"right_children":[2,4,6,8,10,12,14,16,18,-1,20,-1,22,-1,24,26,-1,28,-1,30,-1,-1,32,-1,34,-1,-1,-1,-1,-1,-1,-1,-1,-1,-1],"split_conditions":[2.0310594E2,2.4499805E1,1.7268863E-1,2.7448754E-4,-3.8312502E-2,3.3302444E1,4.8294292E1,2.4363786E-4,2.769997E-1,3.3938445E-2,7.136226E1,5.6630947E-2,2.2619711E-4,6.065395E-2,1.4226728E1,3.753037E1,5.729449E-3,-7.8411465E0,5.8728453E-2,2.6228223E-5,4.5310915E-3,5.793446E-2,5.900625E-2,6.2158793E-2,3.579693E-3,1.931622E-2,5.664411E-2,4.1114654E-2,1.1678588E-1,4.4068705E-2,1.092932E-1,5.701701E-2,1.1200763E-1,1.274479E-1,2.500378E-2],"split_indices":[7,10,3,11,15,5,12,11,2,0,5,0,11,0,5,5,0,4,0,11,0,0,15,0,11,0,0,0,0,0,0,0,0,0,0],"split_type":[0,0,0,0,0,0,0,0,0,0,0,0,0,0,0,0,0,0,0,0,0,0,0,0,0,0,0,0,0,0,0,0,0,0,0],"sum_hessian":[3.5E2,2.05E2,1.45E2,5.6E1,1.49E2,1.04E2,4.1E1,1.9E1,3.7E1,3E0,1.46E2,5.7E1,4.7E1,2E1,2.1E1,1.8E1,1E0,2.1E1,1.6E1,1.45E2,1E0,3E1,1.7E1,6E0,1.5E1,2E0,1.6E1,2E0,1.9E1,3E0,1.42E2,1E1,7E0,1.4E1,1E0],"tree_param":{"num_deleted":"0","num_feature":"17","num_nodes":"35","size_leaf_vector":"0"}},{"base_weights":[1.4671888E0,1.2255092E0,1.5754932E0,1.6337674E0,1.2937912E0,4.5101023E-1,1.6373544E0,1.3078684E0,3.1607997E-1,1.3211899E0,3.4754062E-1],"categories":[],"categories_nodes":[],"categories_segments":[],"categories_sizes":[],"default_left":[1,0,1,1,1,0,0,1,0,0,0],"id":35,"left_children":[1,-1,3,5,7,-1,-1,9,-1,-1,-1],"loss_changes":[7.7539062E0,0E0,2.0230713E0,1.3128662E-1,2.4725342E-1,0E0,0E0,1.421051E-1,0E0,0E0,0E0],"parents":[2147483647,0,0,2,2,3,3,4,4,7,7],"right_children":[2,-1,4,6,8,-1,-1,10,-1,-1,-1],"split_conditions":[1.0357837E2,1.2255092E-1,1.355799E-1,2.559241E0,5.771154E1,4.5101024E-2,1.6373543E-1,5.483385E0,3.1607997E-2,1.3211899E-1,3.4754064E-2],"split_indices":[7,0,13,0,12,0,0,6,0,0,0],"split_type":[0,0,0,0,0,0,0,0,0,0,0],"sum_hessian":[3.69E2,1.18E2,2.51E2,2.04E2,4.7E1,1E0,2.03E2,4.6E1,1E0,4.5E1,1E0],"tree_param":{"num_deleted":"0","num_feature":"17","num_nodes":"11","size_leaf_vector":"0"}},{"base_weights":[1.9296816E-1,4.7489434E-1,-1.10118285E-1,2.7849305E-1,9.1976833E-1,-1.453893E-1,7.269238E-1,2.1212539E-1,9.590862E-1,9.9319696E-1,-2.6474583E-1,-1.62289E-1,3.2386735E-1,-7.779006E-3,3.400128E-1,-3.43135E-2,1.0618575E0,-4.8534924E-1,1.0317047E0,-2.998646E-1,-7.969478E-2,9.490109E-2,-1.8600191E-1,5.208068E-1,-4.667436E-2,1.994673E-1,-3.8292676E-1,9.034436E-2,5.08188E-1,1.121468E0,2.6268166E-1,3.4278142E-1,1.0991359E0,8.8601285E-1,-1.1078527E-1,-2.0747678E-1,4.801045E-2,-1.4403392E-1,7.402238E-2],"categories":[],"categories_nodes":[],"categories_segments":[],"categories_sizes":[],"default_left":[1,1,1,1,1,1,0,1,1,1,1,1,1,1,1,0,1,0,1,0,0,1,1,0,1,0,0,0,0,0,0,0,0,0,0,0,0,0,0],"id":36,"left_children":[1,3,5,7,9,11,-1,13,15,17,19,21,23,25,27,-1,29,-1,31,-1,-1,33,35,-1,37,-1,-1,-1,-1,-1,-1,-1,-1,-1,-1,-1,-1,-1,-1],"loss_changes":[2.9873648E1,1.5558514E1,5.09513E0,5.533064E0,5.046692E0,1.3451977E0,0E0,3.2930365E0,1.1594582E0,3.46138E0,2.0974278E-3,9.812503E-1,4.6215397E-1,3.497293E0,3.061202E0,0E0,1.818037E-1,0E0,1.9924355E0,0E0,0E0,2.3762498E0,7.386422E-1,0E0,4.591468E-2,0E0,0E0,0E0,0E0,0E0,0E0,0E0,0E0,0E0,0E0,0E0,0E0,0E0,0E0],"parents":[2147483647,0,0,1,1,2,2,3,3,4,4,5,5,7,7,8,8,9,9,10,10,11,11,12,12,13,13,14,14,16,16,18,18,21,21,22,22,24,24],"right_children":[2,4,6,8,10,12,-1,14,16,18,20,22,24,26,28,-1,30,-1,32,-1,-1,34,36,-1,38,-1,-1,-1,-1,-1,-1,-1,-1,-1,-1,-1,-1,-1,-1],"split_conditions":[1.8669058E2,2.7561596E1,1.8107536E-1,1.930387E-1,2.8777199E1,5.2310383E-1,7.269239E-2,5.5153124E-2,4.3584366E1,6.697813E-2,5.5482864E1,3.210308E-13,1.1468676E-1,1.1687918E-1,1.05749995E-1,-3.43135E-3,3.692557E3,-4.8534926E-2,3.4811016E1,-2.998646E-2,-7.969478E-3,1.07117474E-1,5.098818E-12,5.208068E-2,2.7114549E0,1.994673E-2,-3.8292676E-2,9.034436E-3,5.08188E-2,1.12146795E-1,2.6268167E-2,3.4278143E-2,1.0991359E-1,8.8601284E-2,-1.1078527E-2,-2.0747678E-2,4.801045E-3,-1.4403393E-2,7.4022384E-3],"split_indices":[7,10,13,13,10,3,0,15,12,13,5,14,13,13,13,0,8,0,12,0,0,6,14,0,0,0,0,0,0,0,0,0,0,0,0,0,0,0,0],"split_type":[0,0,0,0,0,0,0,0,0,0,0,0,0,0,0,0,0,0,0,0,0,0,0,0,0,0,0,0,0,0,0,0,0,0,0,0,0,0,0],"sum_hessian":[3.48E2,1.8E2,1.68E2,1.26E2,5.4E1,1.62E2,6E0,1.16E2,1E1,5.1E1,3E0,1.57E2,5E0,4.3E1,7.3E1,1E0,9E0,1E0,5E1,2E0,1E0,1.3E1,1.44E2,3E0,2E0,2.8E1,1.5E1,3E1,4.3E1,8E0,1E0,5E0,4.5E1,2E0,1.1E1,1.32E2,1.2E1,1E0,1E0],"tree_param":{"num_deleted":"0","num_feature":"17","num_nodes":"39","size_leaf_vector":"0"}},{"base_weights":[-5.0334245E-1,-3.6984023E-1,-9.487148E-1,-3.005967E-1,-5.488603E-1,-2.620454E-1,-1.0707523E0,-4.1999137E-1,-2.1053568E-1,-3.7947133E-1,-7.934348E-1,-1.660034E-1,-5.5886495E-1,-1.4266608E0,-7.9103774E-1,-5.917557E-1,-2.7120435E-1,-4.564622E-1,-1.9812045E-1,-1.9755703E-1,-8.07152E-1,-9.7489125E-1,-2.4155337E-1,-1.7315413E-1,-4.3672726E-2,-1.4607153E0,-2.1954104E-1,1.3199799E-1,-8.4048945E-1,-4.7868663E-1,-9.280283E-1,-1.7855279E-1,-5.7504135E-1,-3.247367E-2,-5.543409E-1,-2.0554733E-1,6.1219342E-2,-2.7102E-1,1.3501193E-1,-8.9310855E-1,-3.6898336E-1,-1.14097975E-1,-1.0514383E0,7.985772E-2,-4.1556853E-1,-1.4900728E0,-3.1935197E-1,-9.9868387E-1,-3.8814554E-1],"categories":[],"categories_nodes":[],"categories_segments":[],"categories_sizes":[],"default_left":[1,1,1,1,1,1,1,1,1,1,1,1,0,1,1,1,1,1,1,1,1,1,1,0,0,1,0,0,1,0,0,0,0,0,0,0,0,0,0,0,0,0,0,0,0,0,0,0,0],"id":37,"left_children":[1,3,5,7,9,11,13,15,17,19,21,23,-1,25,27,29,31,33,35,37,39,41,43,-1,-1,45,-1,-1,47,-1,-1,-1,-1,-1,-1,-1,-1,-1,-1,-1,-1,-1,-1,-1,-1,-1,-1,-1,-1],"loss_changes":[2.1470284E1,3.3554688E0,6.758568E0,2.1374073E0,2.930317E0,3.0632645E-1,5.939705E0,2.0884666E0,2.7595377E-1,3.5749993E0,2.868929E0,2.934903E-3,0E0,9.1254807E-1,2.0280647E0,1.0766459E0,1.2767227E0,1.894958E-1,2.360096E-1,8.9169335E-1,1.9774628E-1,1.3955307E0,5.3656E-1,0E0,0E0,4.9586487E-1,0E0,0E0,2.4746952E0,0E0,0E0,0E0,0E0,0E0,0E0,0E0,0E0,0E0,0E0,0E0,0E0,0E0,0E0,0E0,0E0,0E0,0E0,0E0,0E0],"parents":[2147483647,0,0,1,1,2,2,3,3,4,4,5,5,6,6,7,7,8,8,9,9,10,10,11,11,13,13,14,14,15,15,16,16,17,17,18,18,19,19,20,20,21,21,22,22,25,25,28,28],"right_children":[2,4,6,8,10,12,14,16,18,20,22,24,-1,26,28,30,32,34,36,38,40,42,44,-1,-1,46,-1,-1,48,-1,-1,-1,-1,-1,-1,-1,-1,-1,-1,-1,-1,-1,-1,-1,-1,-1,-1,-1,-1],"split_conditions":[8.476934E-12,1.21760935E-1,2.414145E1,1.1282112E-1,3.2134888E1,5.0269676E1,6.315312E-1,-4.670389E-2,2.7753632E0,1.6240665E-1,1.3540764E-1,4.5450087E0,-5.5886496E-2,2.641201E3,2.1917887E1,2.6833115E2,3.7766535E-12,1.3699194E1,2.7929749E1,1.5270033E-1,-3.0878287E-2,2.009776E1,7.169195E1,-1.7315414E-2,-4.367273E-3,2.838806E1,-2.1954104E-2,1.3199799E-2,4.629592E0,-4.7868665E-2,-9.280283E-2,-1.785528E-2,-5.7504136E-2,-3.247367E-3,-5.543409E-2,-2.0554734E-2,6.1219344E-3,-2.7102E-2,1.3501192E-2,-8.9310855E-2,-3.6898337E-2,-1.1409798E-2,-1.0514384E-1,7.985773E-3,-4.1556854E-2,-1.4900729E-1,-3.1935196E-2,-9.986839E-2,-3.8814556E-2],"split_indices":[14,13,10,6,5,12,1,16,0,13,13,0,0,9,5,9,14,5,10,13,16,10,9,0,0,10,0,0,0,0,0,0,0,0,0,0,0,0,0,0,0,0,0,0,0,0,0,0,0],"split_type":[0,0,0,0,0,0,0,0,0,0,0,0,0,0,0,0,0,0,0,0,0,0,0,0,0,0,0,0,0,0,0,0,0,0,0,0,0,0,0,0,0,0,0,0,0,0,0,0,0],"sum_hessian":[3.66E2,2.83E2,8.3E1,2.06E2,7.7E1,1.3E1,7E1,8.7E1,1.19E2,4.7E1,3E1,1.1E1,2E0,2.9E1,4.1E1,3.9E1,4.8E1,4E0,1.15E2,3.4E1,1.3E1,2.2E1,8E0,1E1,1E0,2.8E1,1E0,2E0,3.9E1,3.1E1,8E0,3.8E1,1E1,1E0,3E0,1.12E2,3E0,2.8E1,6E0,1E1,3E0,2E0,2E1,3E0,5E0,2.7E1,1E0,2.8E1,1.1E1],"tree_param":{"num_deleted":"0","num_feature":"17","num_nodes":"49","size_leaf_vector":"0"}},{"base_weights":[7.9041E-1,9.0931404E-1,6.0943687E-1,4.9665365E-1,9.317023E-1,5.8084434E-1,1.0193303E0,3.3854762E-1,9.452447E-1,5.626114E-1,8.364786E-1,1.1073992E0,2.014237E-1,9.589763E-1,4.4141793E-1,5.163991E-1,6.35773E-1,1.028306E0,4.3553153E-1,2.5886172E-1,1.2056785E0,9.68123E-1,2.9619846E-1,7.7839863E-1,5.337594E-1],"categories":[],"categories_nodes":[],"categories_segments":[],"categories_sizes":[],"default_left":[1,1,1,0,1,1,1,0,1,1,1,1,0,1,0,0,1,0,0,0,0,0,0,0,0],"id":38,"left_children":[1,3,5,-1,7,9,11,-1,13,15,17,19,-1,21,-1,-1,23,-1,-1,-1,-1,-1,-1,-1,-1],"loss_changes":[7.041855E0,1.4866486E0,1.0838699E0,0E0,1.2785187E0,1.6328049E-1,3.5320187E-1,0E0,9.188385E-1,1.11213684E-1,9.0528965E-2,2.7165127E-1,0E0,8.5295105E-1,0E0,0E0,2.5380898E-1,0E0,0E0,0E0,0E0,0E0,0E0,0E0,0E0],"parents":[2147483647,0,0,1,1,2,2,4,4,5,5,6,6,8,8,9,9,10,10,11,11,13,13,16,16],"right_children":[2,4,6,-1,8,10,12,-1,14,16,18,20,-1,22,-1,-1,24,-1,-1,-1,-1,-1,-1,-1,-1],"split_conditions":[2.2258076E2,2.14365E1,1.4165223E-1,4.9665365E-2,8.890055E-2,2.7724594E1,3.0776157E1,3.3854764E-2,2.879755E1,1.795933E-12,2.8638111E1,8.1061416E-13,2.014237E-2,1.7144687E-1,4.4141795E-2,5.163991E-2,2.211789E1,1.028306E-1,4.3553155E-2,2.5886172E-2,1.2056785E-1,9.68123E-2,2.9619846E-2,7.783987E-2,5.337594E-2],"split_indices":[7,10,13,0,2,10,5,0,10,14,10,14,0,15,0,0,5,0,0,0,0,0,0,0,0],"split_type":[0,0,0,0,0,0,0,0,0,0,0,0,0,0,0,0,0,0,0,0,0,0,0,0,0],"sum_hessian":[3.52E2,2.1E2,1.42E2,1.2E1,1.98E2,1.35E2,7E0,5E0,1.93E2,1.29E2,6E0,6E0,1E0,1.87E2,6E0,8.4E1,4.5E1,3E0,3E0,1E0,5E0,1.84E2,3E0,1.6E1,2.9E1],"tree_param":{"num_deleted":"0","num_feature":"17","num_nodes":"25","size_leaf_vector":"0"}},{"base_weights":[1.307738E0,1.1502936E0,1.4684314E0,1.3971987E0,1.0798388E0,7.7258164E-1,1.483987E0,1.4613496E0,6.6870266E-1,1.6142832E0,1.0431579E0,1.5094237E0,9.698392E-1,5.851776E-1,1.4967183E0],"categories":[],"categories_nodes":[],"categories_segments":[],"categories_sizes":[],"default_left":[1,1,1,1,1,0,1,1,0,0,0,0,0,0,0],"id":39,"left_children":[1,3,5,7,9,-1,11,13,-1,-1,-1,-1,-1,-1,-1],"loss_changes":[7.6466675E0,1.8138123E0,7.9104614E-1,8.454056E-1,1.315445E0,0E0,8.1173706E-1,2.0877075E-1,0E0,0E0,0E0,0E0,0E0,0E0,0E0],"parents":[2147483647,0,0,1,1,2,2,3,3,4,4,6,6,7,7],"right_children":[2,4,6,8,10,-1,12,14,-1,-1,-1,-1,-1,-1,-1],"split_conditions":[1.7049765E2,1.2300352E-12,2.7717795E0,4.3189073E-1,3.2780354E1,7.725816E-2,1.7669827E-1,1.00513605E-13,6.6870265E-2,1.6142832E-1,1.04315795E-1,1.5094237E-1,9.6983925E-2,5.851776E-2,1.4967184E-1],"split_indices":[7,14,0,2,12,0,13,14,0,0,0,0,0,0,0],"split_type":[0,0,0,0,0,0,0,0,0,0,0,0,0,0,0],"sum_hessian":[3.68E2,1.9E2,1.78E2,3.8E1,1.52E2,5E0,1.73E2,3.4E1,4E0,7E0,1.45E2,1.63E2,1E1,2E0,3.2E1],"tree_param":{"num_deleted":"0","num_feature":"17","num_nodes":"15","size_leaf_vector":"0"}},{"base_weights":[1.629678E-1,-9.308612E-2,4.4286352E-1,-1.6827105E-1,6.134132E-2,5.7627416E-1,3.8440008E-2,-1.9854343E-1,3.0384464E-2,-2.283712E-1,2.2319604E-1,-3.8917723E-1,6.0342735E-1,9.269626E-1,-7.9482436E-2,-2.0537867E-1,2.595778E-1,2.9326984E-1,-1.03590265E-1,2.3070833E-1,-2.6121825E-1,3.481564E-1,-1.2653542E-1,2.7447514E-2,6.439618E-1,1.0608968E0,1.9561297E-1,-2.6570308E-1,2.990729E-1,-2.1226181E-1,-2.526334E-2,-1.64764E-1,4.1782942E-1,2.685678E-1,-2.0487866E-1,-2.008191E-1,-3.5332808E-1,4.6106872E-1,-7.2577946E-2,-2.3455839E-1,2.3971196E-1,4.77635E-1,-4.2822948E-1,2.583386E-1,7.191586E-1,-3.5154167E-1,7.9015836E-2,-2.0989326E-1,6.4341336E-1],"categories":[],"categories_nodes":[],"categories_segments":[],"categories_sizes":[],"default_left":[1,1,1,1,1,1,1,1,1,1,1,0,1,1,1,1,0,1,1,0,1,1,1,1,1,0,0,1,1,0,0,0,0,0,0,0,0,0,0,0,0,0,0,0,0,0,0,0,0],"id":40,"left_children":[1,3,5,7,9,11,13,15,17,19,21,-1,23,25,27,29,-1,31,33,-1,35,37,39,41,43,-1,-1,45,47,-1,-1,-1,-1,-1,-1,-1,-1,-1,-1,-1,-1,-1,-1,-1,-1,-1,-1,-1,-1],"loss_changes":[2.4766823E1,2.1118433E0,8.880325E0,7.397132E-1,2.8644521E0,3.4855042E0,4.4743004E0,3.8523626E-1,6.291199E-1,3.9201212E-1,1.7484541E0,0E0,2.807312E0,2.8223848E-1,2.7582676E0,1.24812126E-1,0E0,4.1115814E-1,5.073674E-1,0E0,4.587543E-2,1.4111407E0,4.9142087E-1,2.0507982E0,3.09095E0,0E0,0E0,7.971221E-1,2.4133978E0,0E0,0E0,0E0,0E0,0E0,0E0,0E0,0E0,0E0,0E0,0E0,0E0,0E0,0E0,0E0,0E0,0E0,0E0,0E0,0E0],"parents":[2147483647,0,0,1,1,2,2,3,3,4,4,5,5,6,6,7,7,8,8,9,9,10,10,12,12,13,13,14,14,15,15,17,17,18,18,20,20,21,21,22,22,23,23,24,24,27,27,28,28],"right_children":[2,4,6,8,10,12,14,16,18,20,22,-1,24,26,28,30,-1,32,34,-1,36,38,40,42,44,-1,-1,46,48,-1,-1,-1,-1,-1,-1,-1,-1,-1,-1,-1,-1,-1,-1,-1,-1,-1,-1,-1,-1],"split_conditions":[2.4828846E1,2.8530154E-12,1.7049765E2,5.5681664E1,2.0852596E1,-3.8312502E-2,8.555248E-2,1.910978E-1,5.6767212E1,2.9482942E0,1.0536146E-1,-3.8917724E-2,2.2272926E2,4.4995735E1,1.9069082E-1,2.45483E1,2.5957782E-2,1.802095E1,-6.1805665E-2,2.3070833E-2,-3.8196873E-2,-3.613137E-2,4.777257E0,4.161371E0,1.8779202E1,1.06089674E-1,1.9561296E-2,4.7068577E0,2.0475746E-12,-2.122618E-2,-2.526334E-3,-1.64764E-2,4.178294E-2,2.685678E-2,-2.0487865E-2,-2.0081911E-2,-3.533281E-2,4.610687E-2,-7.2577945E-3,-2.345584E-2,2.3971196E-2,4.77635E-2,-4.282295E-2,2.583386E-2,7.191586E-2,-3.5154168E-2,7.901584E-3,-2.0989327E-2,6.434134E-2],"split_indices":[10,14,7,12,10,15,6,13,12,0,15,0,8,5,6,10,0,5,16,0,16,16,0,0,9,0,0,0,14,0,0,0,0,0,0,0,0,0,0,0,0,0,0,0,0,0,0,0,0],"split_type":[0,0,0,0,0,0,0,0,0,0,0,0,0,0,0,0,0,0,0,0,0,0,0,0,0,0,0,0,0,0,0,0,0,0,0,0,0,0,0,0,0,0,0,0,0,0,0,0,0],"sum_hessian":[3.44E2,1.8E2,1.64E2,1.21E2,5.9E1,1.23E2,4.1E1,1.05E2,1.6E1,2.1E1,3.8E1,3E0,1.2E2,4E0,3.7E1,1.04E2,1E0,5E0,1.1E1,1E0,2E1,2.8E1,1E1,8E0,1.12E2,3E0,1E0,2.5E1,1.2E1,1E2,4E0,1E0,4E0,2E0,9E0,1.4E1,6E0,2.2E1,6E0,8E0,2E0,4E0,4E0,1.9E1,9.3E1,2E1,5E0,5E0,7E0],"tree_param":{"num_deleted":"0","num_feature":"17","num_nodes":"49","size_leaf_vector":"0"}},{"base_weights":[-4.4219863E-1,-6.3432014E-1,-2.3745333E-1,-2.821701E-1,-7.052167E-1,-1.96685E-1,-6.2265164E-1,-1.2705724E-1,-5.301034E-1,-1.7690887E-1,-7.5830054E-1,-1.562879E-1,-4.508621E-1,-6.934994E-1,-8.447841E-2,-1.899897E-1,2.594906E-2,-9.7440743E-1,-3.4380183E-1,-1.060518E-1,-3.452528E-1,-8.390008E-1,-4.4519278E-1,-2.6408793E-2,-1.6854502E-1,-7.341608E-1,-2.567727E-1,-7.491723E-1,-2.3964126E-1,-1.1047328E-1,-3.269279E-1,6.4555034E-2,-4.7043916E-2,-3.8654885E-1,2.0460624E-2,-1.22641206E-1,3.82158E-2,-5.5620027E-1,-9.687483E-1,2.8635558E-1,-5.076732E-1,-1.495958E-1,1.4224201E-1,-5.0993574E-1,-1.6167949E-1,-9.040099E-1,-1.4974232E-1,-5.215083E-1,-1.6919109E-1],"categories":[],"categories_nodes":[],"categories_segments":[],"categories_sizes":[],"default_left":[1,1,1,1,1,1,1,1,1,1,1,1,1,1,0,1,1,0,1,1,0,1,1,1,1,1,1,0,0,0,0,0,0,0,0,0,0,0,0,0,0,0,0,0,0,0,0,0,0],"id":41,"left_children":[1,3,5,7,9,11,13,15,17,19,21,23,25,27,-1,29,31,-1,33,35,-1,37,39,41,43,45,47,-1,-1,-1,-1,-1,-1,-1,-1,-1,-1,-1,-1,-1,-1,-1,-1,-1,-1,-1,-1,-1,-1],"loss_changes":[1.3695641E1,4.319893E0,2.5786028E0,1.163291E0,4.0725403E0,1.5416145E0,5.514679E-1,2.0714039E-1,6.582918E-1,1.4231071E-1,3.0629196E0,2.1364546E-1,9.6617794E-1,1.7421341E-1,0E0,1.2721574E-1,2.2762677E-2,0E0,1.6362035E-1,3.3406585E-2,0E0,3.3872986E0,1.5165987E0,2.9136142E-1,2.1053267E-1,6.587353E-1,2.3636907E-1,0E0,0E0,0E0,0E0,0E0,0E0,0E0,0E0,0E0,0E0,0E0,0E0,0E0,0E0,0E0,0E0,0E0,0E0,0E0,0E0,0E0,0E0],"parents":[2147483647,0,0,1,1,2,2,3,3,4,4,5,5,6,6,7,7,8,8,9,9,10,10,11,11,12,12,13,13,15,15,16,16,18,18,19,19,21,21,22,22,23,23,24,24,25,25,26,26],"right_children":[2,4,6,8,10,12,14,16,18,20,22,24,26,28,-1,30,32,-1,34,36,-1,38,40,42,44,46,48,-1,-1,-1,-1,-1,-1,-1,-1,-1,-1,-1,-1,-1,-1,-1,-1,-1,-1,-1,-1,-1,-1],"split_conditions":[1.8009067E2,3.186504E-3,1.493361E-1,3.793124E-12,8.0403075E-2,5.5149807E1,2.1453433E3,9.74493E-2,5.1261833E1,4.7538195E0,5.1946087E1,2.080188E2,5.666837E1,-2.1925583E0,-8.447841E-3,5.1599393E0,5.312413E0,-9.744074E-2,7.622636E1,4.685764E0,-3.4525283E-2,3.9560043E1,5.2286224E1,-5.0532236E0,2.1327759E2,-1.56757E0,2.8105903E0,-7.491723E-2,-2.3964128E-2,-1.1047329E-2,-3.269279E-2,6.4555034E-3,-4.7043916E-3,-3.8654886E-2,2.0460624E-3,-1.226412E-2,3.8215802E-3,-5.5620026E-2,-9.6874826E-2,2.863556E-2,-5.076732E-2,-1.495958E-2,1.4224201E-2,-5.0993573E-2,-1.616795E-2,-9.040099E-2,-1.4974232E-2,-5.2150827E-2,-1.691911E-2],"split_indices":[7,3,13,14,13,12,9,13,5,0,12,7,12,4,0,0,0,0,5,0,0,12,12,4,7,4,0,0,0,0,0,0,0,0,0,0,0,0,0,0,0,0,0,0,0,0,0,0,0],"split_type":[0,0,0,0,0,0,0,0,0,0,0,0,0,0,0,0,0,0,0,0,0,0,0,0,0,0,0,0,0,0,0,0,0,0,0,0,0,0,0,0,0,0,0,0,0,0,0,0,0],"sum_hessian":[3.51E2,1.8E2,1.71E2,3.1E1,1.49E2,1.56E2,1.5E1,2E1,1.1E1,1.4E1,1.35E2,1.36E2,2E1,1.3E1,2E0,1.4E1,6E0,2E0,9E0,1.1E1,3E0,1.06E2,2.9E1,1.2E1,1.24E2,7E0,1.3E1,1.1E1,2E0,1E1,4E0,4E0,2E0,8E0,1E0,1E1,1E0,3.5E1,7.1E1,2E0,2.7E1,7E0,5E0,1E0,1.23E2,5E0,2E0,2E0,1.1E1],"tree_param":{"num_deleted":"0","num_feature":"17","num_nodes":"49","size_leaf_vector":"0"}},{"base_weights":[7.2545516E-1,8.164943E-1,5.264276E-1,5.411623E-1,8.5017514E-1,4.8072672E-1,6.501054E-1,3.8897794E-1,6.873032E-1,5.070631E-1,8.709312E-1,4.384815E-1,7.73694E-1,4.108917E-1,1.4974983E-1,4.0002224E-1,8.527611E-1,7.7655506E-1,2.9466158E-1,8.827377E-1,4.074967E-1,2.7798682E-1,9.0483564E-1,3.264129E-1,1.1177087E-1,8.984982E-1,4.9186337E-1,2.9122296E-1,9.8992676E-1],"categories":[],"categories_nodes":[],"categories_segments":[],"categories_sizes":[],"default_left":[1,1,1,1,1,0,1,1,1,1,1,0,1,0,0,0,0,0,1,1,0,0,1,0,0,0,0,0,0],"id":42,"left_children":[1,3,5,7,9,-1,11,13,15,17,19,-1,21,-1,-1,-1,-1,-1,23,25,-1,-1,27,-1,-1,-1,-1,-1,-1],"loss_changes":[6.2199554E0,1.8582611E0,3.5443878E-1,3.998642E-1,1.1322784E0,0E0,4.1922283E-1,2.758956E-2,3.2433748E-1,6.2978673E-1,7.728882E-1,0E0,8.5360146E-1,0E0,0E0,0E0,0E0,0E0,2.1586835E-2,7.962799E-1,0E0,0E0,3.9048004E-1,0E0,0E0,0E0,0E0,0E0,0E0],"parents":[2147483647,0,0,1,1,2,2,3,3,4,4,6,6,7,7,8,8,9,9,10,10,12,12,18,18,19,19,22,22],"right_children":[2,4,6,8,10,-1,12,14,16,18,20,-1,22,-1,-1,-1,-1,-1,24,26,-1,-1,28,-1,-1,-1,-1,-1,-1],"split_conditions":[2.8910727E2,6.8316E-5,8.6439466E-1,7.83522E-2,-7.9202786E-2,4.8072673E-2,5.287732E1,1.3479922E0,3.753125E-2,9.848976E1,9.0148175E-1,4.3848153E-2,1.1751023E-12,4.1089173E-2,1.4974983E-2,4.0002223E-2,8.527611E-2,7.765551E-2,7.505336E-1,2.0064283E-3,4.074967E-2,2.7798682E-2,1.3738054E1,3.2641288E-2,1.1177087E-2,8.984982E-2,4.9186338E-2,2.9122297E-2,9.8992676E-2],"split_indices":[7,11,6,6,16,0,12,4,15,7,1,0,14,0,0,0,0,0,1,11,0,0,5,0,0,0,0,0,0],"split_type":[0,0,0,0,0,0,0,0,0,0,0,0,0,0,0,0,0,0,0,0,0,0,0,0,0,0,0,0,0],"sum_hessian":[3.66E2,2.49E2,1.17E2,2.9E1,2.2E2,8.9E1,2.8E1,1.6E1,1.3E1,1.4E1,2.06E2,1.2E1,1.6E1,1.4E1,2E0,6E0,7E0,5E0,9E0,2E2,6E0,4E0,1.2E1,7E0,2E0,1.91E2,9E0,2E0,1E1],"tree_param":{"num_deleted":"0","num_feature":"17","num_nodes":"29","size_leaf_vector":"0"}},{"base_weights":[1.1982543E0,1.0828944E0,1.3779473E0,1.3189733E0,1.0165918E0,1.4211543E0,1.0818938E0,1.3528476E0,4.0507492E-1,9.907747E-1,1.3067371E0,1.1525813E0,2.7357468E-1,1.1959962E0,1.8555725E-1,1.9020176E-1,1.2439722E0],"categories":[],"categories_nodes":[],"categories_segments":[],"categories_sizes":[],"default_left":[1,1,1,1,1,0,1,0,0,0,0,1,0,1,0,0,0],"id":43,"left_children":[1,3,5,7,9,-1,11,-1,-1,-1,-1,13,-1,15,-1,-1,-1],"loss_changes":[5.7009277E0,2.0401154E0,1.5093994E-1,8.141327E-1,1.2207031E-3,0E0,8.845844E-1,0E0,0E0,0E0,0E0,5.7575417E-1,0E0,6.3196564E-1,0E0,0E0,0E0],"parents":[2147483647,0,0,1,1,2,2,3,3,4,4,6,6,11,11,13,13],"right_children":[2,4,6,8,10,-1,12,-1,-1,-1,-1,14,-1,16,-1,-1,-1],"split_conditions":[2.2774585E2,8.673452E-2,5.5450867E1,5.477472E1,6.958414E1,1.4211543E-1,1.22570306E-1,1.3528477E-1,4.050749E-2,9.907747E-2,1.306737E-1,2.6499686E0,2.7357468E-2,5.5616047E1,1.8555725E-2,1.9020176E-2,1.2439722E-1],"split_indices":[7,13,12,12,5,0,13,0,0,0,0,4,0,12,0,0,0],"split_type":[0,0,0,0,0,0,0,0,0,0,0,0,0,0,0,0,0],"sum_hessian":[3.46E2,2.15E2,1.31E2,4.3E1,1.72E2,1.11E2,2E1,4.1E1,2E0,1.62E2,1E1,1.8E1,2E0,1.7E1,1E0,1E0,1.6E1],"tree_param":{"num_deleted":"0","num_feature":"17","num_nodes":"17","size_leaf_vector":"0"}},{"base_weights":[1.9799347E-1,-7.4696064E-2,4.936943E-1,-2.0199269E-1,-1.4737672E-2,5.9787333E-1,4.2036805E-2,-3.0073962E-1,-1.6486886E-1,1.9268769E-1,-8.3734974E-2,7.4047476E-2,6.56838E-1,6.229859E-1,-9.964184E-2,6.2196076E-2,-3.290817E-1,-1.708926E-1,-1.7548805E-2,-3.4947276E-1,2.7662483E-1,2.3760247E-1,-1.2518898E-1,-5.67179E-1,3.3505458E-1,2.3166249E-2,7.1425307E-1,1.0889588E-1,9.8132944E-1,2.6292035E-1,-1.8613064E-1,-3.4849578E-1,-1.3526028E-1,5.4703712E-2,-8.102692E-2,-1.4088173E-1,-4.4157284E-1,-1.9611669E-1,3.3641526E-1,-1.7940398E-1,4.685312E-1,4.032346E-1,-1.4159438E-1,5.74003E-1,-5.7312495E-1,5.223268E-1,-4.0799513E-1,7.3485816E-1,-3.4116632E-1,-2.0767894E-1,2.8364715E-1,8.216776E-1,-2.218777E-1,2.7873793E-1,-2.9304126E-1],"categories":[],"categories_nodes":[],"categories_segments":[],"categories_sizes":[],"default_left":[1,1,1,1,1,1,1,1,1,1,1,1,1,1,1,0,1,0,1,1,1,1,1,0,1,1,1,1,0,1,1,0,0,0,0,0,0,0,0,0,0,0,0,0,0,0,0,0,0,0,0,0,0,0,0],"id":44,"left_children":[1,3,5,7,9,11,13,15,17,19,21,23,25,27,29,-1,31,-1,33,35,37,39,41,-1,43,45,47,49,-1,51,53,-1,-1,-1,-1,-1,-1,-1,-1,-1,-1,-1,-1,-1,-1,-1,-1,-1,-1,-1,-1,-1,-1,-1,-1],"loss_changes":[3.0436092E1,1.5006258E0,8.491505E0,1.8136668E-1,1.9482262E0,4.491783E0,2.9428585E0,1.8504941E-1,3.9597034E-2,1.6439246E0,1.3884591E0,2.8678703E0,4.785919E0,1.182683E0,9.5830715E-1,0E0,9.305239E-3,0E0,1.8191835E-2,3.3846736E-2,9.13939E-1,1.2396417E0,8.459754E-1,0E0,2.9330716E0,2.795732E0,2.8820953E0,2.8019494E-1,0E0,1.8076184E0,1.274467E0,0E0,0E0,0E0,0E0,0E0,0E0,0E0,0E0,0E0,0E0,0E0,0E0,0E0,0E0,0E0,0E0,0E0,0E0,0E0,0E0,0E0,0E0,0E0,0E0],"parents":[2147483647,0,0,1,1,2,2,3,3,4,4,5,5,6,6,7,7,8,8,9,9,10,10,11,11,12,12,13,13,14,14,16,16,18,18,19,19,20,20,21,21,22,22,24,24,25,25,26,26,27,27,29,29,30,30],"right_children":[2,4,6,8,10,12,14,16,18,20,22,24,26,28,30,-1,32,-1,34,36,38,40,42,-1,44,46,48,50,-1,52,54,-1,-1,-1,-1,-1,-1,-1,-1,-1,-1,-1,-1,-1,-1,-1,-1,-1,-1,-1,-1,-1,-1,-1,-1],"split_conditions":[2.506885E1,3.6624172E1,1.8669058E2,1.897865E2,1.2441693E2,3.1482666E-3,8.555248E-2,4.845753E2,2.316935E1,2.6940503E-3,3.097495E0,1.4658505E-4,2.0710634E2,4.088757E-4,9.550549E-3,6.219608E-3,-2.8778292E-2,-1.708926E-2,4.601302E0,4.351461E-2,1.98844E1,1.5973911E1,3.830248E1,-5.6717902E-2,2.5675244E3,4.165269E0,1.5650937E-1,4.829644E0,9.8132946E-2,-3.6070537E-2,2.544195E1,-3.484958E-2,-1.3526029E-2,5.4703713E-3,-8.102692E-3,-1.4088173E-2,-4.4157285E-2,-1.961167E-2,3.364153E-2,-1.7940398E-2,4.685312E-2,4.0323462E-2,-1.4159438E-2,5.7400297E-2,-5.7312496E-2,5.2232683E-2,-4.0799513E-2,7.3485814E-2,-3.4116633E-2,-2.0767896E-2,2.8364716E-2,8.216777E-2,-2.218777E-2,2.7873794E-2,-2.9304126E-2],"split_indices":[10,12,7,7,7,3,6,8,10,3,0,11,8,11,3,0,16,0,0,6,10,5,12,0,8,0,15,0,0,16,10,0,0,0,0,0,0,0,0,0,0,0,0,0,0,0,0,0,0,0,0,0,0,0,0],"split_type":[0,0,0,0,0,0,0,0,0,0,0,0,0,0,0,0,0,0,0,0,0,0,0,0,0,0,0,0,0,0,0,0,0,0,0,0,0,0,0,0,0,0,0,0,0,0,0,0,0,0,0,0,0,0,0],"sum_hessian":[3.76E2,1.96E2,1.8E2,6.2E1,1.34E2,1.46E2,3.4E1,1.5E1,4.7E1,3.3E1,1.01E2,1.5E1,1.31E2,6E0,2.8E1,1E0,1.4E1,4.5E1,2E0,4E0,2.9E1,1.1E1,9E1,4E0,1.1E1,1.1E1,1.2E2,3E0,3E0,5E0,2.3E1,1.2E1,2E0,1E0,1E0,2E0,2E0,3E0,2.6E1,4E0,7E0,2E0,8.8E1,9E0,2E0,5E0,6E0,1.18E2,2E0,1E0,2E0,2E0,3E0,4E0,1.9E1],"tree_param":{"num_deleted":"0","num_feature":"17","num_nodes":"55","size_leaf_vector":"0"}},{"base_weights":[-4.3040606E-1,-2.3049805E-1,-6.226673E-1,-1.7120008E-1,-3.7945554E-1,-4.490224E-1,-8.7599003E-1,-3.1746107E-1,-1.4379814E-1,-2.6821205E-1,-7.595944E-1,1.6722862E-1,-4.8514143E-1,-1.1084238E0,-5.786822E-1,-4.5075423E-1,-6.1177075E-2,5.8707455E-3,-1.4934444E-1,-1.3702746E-1,-5.402229E-1,-8.185804E-2,-9.0110713E-1,-1.0708094E-2,2.4054493E-1,-2.8669962E-1,-6.191849E-1,-1.187217E0,-4.5092744E-1,-1.0053163E0,-3.1238106E-1,-7.6199785E-2,-4.756171E-1,-1.06451556E-1,4.976425E-2,-2.4021758E-2,3.380633E-2,-1.5238054E-1,8.9277245E-2,-3.8526067E-1,-1.0437089E-1,-2.6037934E-1,-8.2331043E-1,-1.0007678E0,-5.191106E-2,-5.9131995E-2,4.3069854E-2,6.8305045E-2,2.6652864E-1,-5.3239435E-1,-6.884807E-2,-8.09224E-1,-2.5349844E-1,-1.2284241E0,-5.504543E-1,-1.1666465E0,-3.5066175E-1,-1.7154369E-1,-7.8508687E-1],"categories":[],"categories_nodes":[],"categories_segments":[],"categories_sizes":[],"default_left":[1,1,1,1,1,1,1,1,1,1,1,1,1,1,1,1,1,1,1,1,1,0,1,1,1,1,1,1,0,1,1,0,0,0,0,0,0,0,0,0,0,0,0,0,0,0,0,0,0,0,0,0,0,0,0,0,0,0,0],"id":45,"left_children":[1,3,5,7,9,11,13,15,17,19,21,23,25,27,29,31,33,35,37,39,41,-1,43,45,47,49,51,53,-1,55,57,-1,-1,-1,-1,-1,-1,-1,-1,-1,-1,-1,-1,-1,-1,-1,-1,-1,-1,-1,-1,-1,-1,-1,-1,-1,-1,-1,-1],"loss_changes":[1.4000397E1,1.5426197E0,7.832451E0,4.833839E-1,1.9529543E0,2.5963287E0,4.5414085E0,6.5564203E-1,9.4679356E-2,1.389004E0,9.812288E-1,9.3895406E-2,2.668661E0,1.588707E0,3.6624174E0,8.482075E-2,4.5479972E-2,4.9874107E-3,9.257245E-2,1.9487679E-1,8.1549025E-1,0E0,7.097311E-1,1.0359221E-2,4.171908E-3,2.3719697E0,4.1730328E0,2.6841354E-1,0E0,9.639034E-1,1.3965402E0,0E0,0E0,0E0,0E0,0E0,0E0,0E0,0E0,0E0,0E0,0E0,0E0,0E0,0E0,0E0,0E0,0E0,0E0,0E0,0E0,0E0,0E0,0E0,0E0,0E0,0E0,0E0,0E0],"parents":[2147483647,0,0,1,1,2,2,3,3,4,4,5,5,6,6,7,7,8,8,9,9,10,10,11,11,12,12,13,13,14,14,15,15,16,16,17,17,18,18,19,19,20,20,22,22,23,23,24,24,25,25,26,26,27,27,29,29,30,30],"right_children":[2,4,6,8,10,12,14,16,18,20,22,24,26,28,30,32,34,36,38,40,42,-1,44,46,48,50,52,54,-1,56,58,-1,-1,-1,-1,-1,-1,-1,-1,-1,-1,-1,-1,-1,-1,-1,-1,-1,-1,-1,-1,-1,-1,-1,-1,-1,-1,-1,-1],"split_conditions":[2.451295E1,5.2725395E1,6.483458E-12,1.0106298E2,4.5807856E-1,1.9597929E1,8.2590625E-2,-4.4720516E-2,4.5868332E2,4.4865743E-12,8.686541E-13,3.9423594E0,5.252184E-13,4.904607E0,3.712413E1,4.278776E0,6.076156E1,4.302778E0,5.256156E1,3.4842502E2,-6.2487316E0,-8.185804E-3,3.6458092E0,3.6621091E0,4.195309E0,3.621296E1,5.1386406E1,5.8295273E1,-4.5092743E-2,2.7829392E-11,3.6243045E-1,-7.6199784E-3,-4.7561713E-2,-1.0645156E-2,4.976425E-3,-2.402176E-3,3.3806332E-3,-1.5238054E-2,8.927724E-3,-3.852607E-2,-1.0437089E-2,-2.6037935E-2,-8.233105E-2,-1.0007679E-1,-5.191106E-3,-5.9131994E-3,4.3069855E-3,6.8305046E-3,2.6652863E-2,-5.3239435E-2,-6.8848073E-3,-8.09224E-2,-2.5349844E-2,-1.2284241E-1,-5.5045433E-2,-1.1666465E-1,-3.5066176E-2,-1.715437E-2,-7.850869E-2],"split_indices":[10,12,14,7,2,5,15,16,8,14,14,0,14,0,7,0,5,0,12,8,4,0,0,0,0,5,12,5,0,14,2,0,0,0,0,0,0,0,0,0,0,0,0,0,0,0,0,0,0,0,0,0,0,0,0,0,0,0,0],"split_type":[0,0,0,0,0,0,0,0,0,0,0,0,0,0,0,0,0,0,0,0,0,0,0,0,0,0,0,0,0,0,0,0,0,0,0,0,0,0,0,0,0,0,0,0,0,0,0,0,0,0,0,0,0,0,0,0,0,0,0],"sum_hessian":[3.67E2,1.81E2,1.86E2,1.31E2,5E1,1.12E2,7.4E1,1.9E1,1.12E2,4E1,1E1,6E0,1.06E2,4E1,3.4E1,1.2E1,7E0,4E0,1.08E2,2.8E1,1.2E1,2E0,8E0,2E0,4E0,4.4E1,6.2E1,3.5E1,5E0,1.2E1,2.2E1,1E0,1.1E1,5E0,2E0,2E0,2E0,1.07E2,1E0,2E0,2.6E1,7E0,5E0,7E0,