{"learner":{"attributes":{"best_iteration":"39","best_ntree_limit":"40","scikit_learn":"{\"n_estimators\": 40, \"objective\": \"reg:squarederror\", \"max_depth\": 6, \"max_leaves\": null, \"max_bin\": null, \"grow_policy\": null, \"learning_rate\": null, \"verbosity\": null, \"booster\": null, \"tree_method\": null, \"gamma\": null, \"min_child_weight\": null, \"max_delta_step\": null, \"subsample\": 0.7, \"sampling_method\": null, \"colsample_bytree\": 0.8, \"colsample_bylevel\": null, \"colsample_bynode\": null, \"reg_alpha\": null, \"reg_lambda\": null, \"scale_pos_weight\": null, \"base_score\": null, \"missing\": NaN, \"num_parallel_tree\": null, \"random_state\": null, \"n_jobs\": null, \"monotone_constraints\": null, \"interaction_constraints\": null, \"importance_type\": null, \"gpu_id\": null, \"validate_parameters\": null, \"predictor\": null, \"enable_categorical\": false, \"feature_types\": null, \"max_cat_to_onehot\": null, \"max_cat_threshold\": null, \"eval_metric\": null, \"early_stopping_rounds\": null, \"callbacks\": null, \"kwargs\": {\"eta\": 0.1}, \"evals_result_\": {\"validation_0\": {\"error\": [-1.539032755792141, -1.539032755792141, -1.539032755792141, -1.539032755792141, -1.539032755792141, -1.539032755792141, -1.539032755792141, -1.539032755792141, -1.539032755792141, -1.539032755792141, -1.539032755792141, -1.539032755792141, -1.539032755792141, -1.539032755792141, -1.539032755792141, -1.539032755792141, -1.539032755792141, -1.539032755792141, -1.539032755792141, -1.539032755792141, -1.539032755792141, -1.539032755792141, -1.539032755792141, -1.539032755792141, -1.539032755792141, -1.539032755792141, -1.539032755792141, -1.539032755792141, -1.539032755792141, -1.539032755792141, -1.539032755792141, -1.539032755792141, -1.539032755792141, -1.539032755792141, -1.539032755792141, -1.539032755792141, -1.539032755792141, -1.539032755792141, -1.539032755792141, -1.539032755792141], \"logloss\": [-1.1947959465906024, -24.27131681367755, -41.367256943695246, -54.049291758053, -55.63757841922343, -56.65950894057751, -57.3539136223495, -57.51056888177991, -57.639036130905154, -58.05248178392649, -58.143067958950994, -58.223457565158604, -58.30223319530487, -58.61246903762221, -58.6665836930275, -58.71658754646778, -58.76261930093169, -58.80279431194067, -58.83837454468012, -58.86820980682969, -58.894659601897004, -58.918673971295355, -58.93923264816404, -58.95795427337289, -58.97622141093016, -58.99153991416097, -59.00438248515129, -59.016314673423764, -59.027487783133985, -59.03692654892802, -59.04588976725936, -59.054902479052544, -59.06211032047868, -59.069870725274086, -59.07490631341934, -59.08119867518544, -59.086903616786, -59.09157727025449, -59.09677460677922, -59.100956089794636]}}, \"_estimator_type\": \"regressor\"}"},"feature_names":["PSD_slope","Picophytoplankton","Nanophytoplankton","Microphytoplankton","AOU","MLD","CHL","Phosphates","Silicates","Nitrates","Temperature","Iron","PAR","Aerosol_thickness","DUWT001","SLA","FSLE"],"feature_types":["float","float","float","float","float","float","float","float","float","float","float","float","float","float","float","float","float"],"gradient_booster":{"model":{"gbtree_model_param":{"num_parallel_tree":"1","num_trees":"160","size_leaf_vector":"0"},"tree_info":[0,1,2,3,0,1,2,3,0,1,2,3,0,1,2,3,0,1,2,3,0,1,2,3,0,1,2,3,0,1,2,3,0,1,2,3,0,1,2,3,0,1,2,3,0,1,2,3,0,1,2,3,0,1,2,3,0,1,2,3,0,1,2,3,0,1,2,3,0,1,2,3,0,1,2,3,0,1,2,3,0,1,2,3,0,1,2,3,0,1,2,3,0,1,2,3,0,1,2,3,0,1,2,3,0,1,2,3,0,1,2,3,0,1,2,3,0,1,2,3,0,1,2,3,0,1,2,3,0,1,2,3,0,1,2,3,0,1,2,3,0,1,2,3,0,1,2,3,0,1,2,3,0,1,2,3,0,1,2,3],"trees":[{"base_weights":[1.4753566E0,1.5671252E0,9.565108E-1,1.9061204E0,1.4161394E0,1.1955837E0,1.7548204E-4,2.109273E0,1.2654517E0,1.4410956E0,3.7009883E-1,1.2600483E0,4.9622083E-1,6.486911E-1,-3.241262E-1,2.03067E-1,1.4563156E0],"categories":[],"categories_nodes":[],"categories_segments":[],"categories_sizes":[],"default_left":[1,1,1,1,1,1,1,0,0,1,0,0,0,0,0,0,0],"id":0,"left_children":[1,3,5,7,9,11,13,-1,-1,15,-1,-1,-1,-1,-1,-1,-1],"loss_changes":[4.024246E0,2.2654572E0,4.572466E0,8.449631E-1,1.3201141E0,9.6084595E-2,1.2618314E0,0E0,0E0,1.004425E0,0E0,0E0,0E0,0E0,0E0,0E0,0E0],"parents":[2147483647,0,0,1,1,2,2,3,3,4,4,5,5,6,6,9,9],"right_children":[2,4,6,8,10,12,14,-1,-1,16,-1,-1,-1,-1,-1,-1,-1],"split_conditions":[1.1739375E-1,2.3791506E1,1.7328756E-1,2.241581E1,1.6244974E2,4.3141064E3,-5.2004585E0,2.109273E-1,1.2654518E-1,3.108242E0,3.7009884E-2,1.2600483E-1,4.9622085E-2,6.486911E-2,-3.2412622E-2,2.03067E-2,1.4563157E-1],"split_indices":[15,5,6,10,5,8,4,0,0,0,0,0,0,0,0,0,0],"split_type":[0,0,0,0,0,0,0,0,0,0,0,0,0,0,0,0,0],"sum_hessian":[1.15E2,9.6E1,1.9E1,2.6E1,7E1,1.5E1,4E0,1.8E1,8E0,6.8E1,2E0,1.3E1,2E0,1E0,3E0,1E0,6.7E1],"tree_param":{"num_deleted":"0","num_feature":"17","num_nodes":"17","size_leaf_vector":"0"}},{"base_weights":[-1.5862406E0,-4.5337492E-1,-1.5929023E0],"categories":[],"categories_nodes":[],"categories_segments":[],"categories_sizes":[],"default_left":[1,0,0],"id":1,"left_children":[1,-1,-1],"loss_changes":[5.5145264E-2,0E0,0E0],"parents":[2147483647,0,0],"right_children":[2,-1,-1],"split_conditions":[3.1065059E0,-4.5337494E-2,-1.5929024E-1],"split_indices":[0,0,0],"split_type":[0,0,0],"sum_hessian":[1.02E2,1E0,1.01E2],"tree_param":{"num_deleted":"0","num_feature":"17","num_nodes":"3","size_leaf_vector":"0"}},{"base_weights":[2.1813333E0],"categories":[],"categories_nodes":[],"categories_segments":[],"categories_sizes":[],"default_left":[0],"id":2,"left_children":[-1],"loss_changes":[0E0],"parents":[2147483647],"right_children":[-1],"split_conditions":[2.1813333E-1],"split_indices":[0],"split_type":[0],"sum_hessian":[1.14E2],"tree_param":{"num_deleted":"0","num_feature":"17","num_nodes":"1","size_leaf_vector":"0"}},{"base_weights":[2.9648068E0],"categories":[],"categories_nodes":[],"categories_segments":[],"categories_sizes":[],"default_left":[0],"id":3,"left_children":[-1],"loss_changes":[0E0],"parents":[2147483647],"right_children":[-1],"split_conditions":[2.964807E-1],"split_indices":[0],"split_type":[0],"sum_hessian":[1.17E2],"tree_param":{"num_deleted":"0","num_feature":"17","num_nodes":"1","size_leaf_vector":"0"}},{"base_weights":[1.3020055E0,1.3901731E0,8.701151E-1,1.2788469E0,1.8126405E0,1.070621E0,-2.9981673E-1,1.9291365E-1,1.2905972E0,1.8646866E0,4.8995143E-1,3.049069E-1,1.0962214E0,1.3021085E0,2.1362266E-1,8.0181503E-1,1.3498776E0,3.6846042E-1,9.5708233E-1,1.3595402E0,3.5607523E-1],"categories":[],"categories_nodes":[],"categories_segments":[],"categories_sizes":[],"default_left":[1,1,1,1,1,1,0,0,1,0,0,0,0,1,0,1,1,0,0,0,0],"id":4,"left_children":[1,3,5,7,9,11,-1,-1,13,-1,-1,-1,-1,15,-1,17,19,-1,-1,-1,-1],"loss_changes":[3.1313477E0,2.0558777E0,5.4817104E0,7.33551E-1,2.5669098E-1,3.8202286E-2,0E0,0E0,6.640396E-1,0E0,0E0,0E0,0E0,7.1004486E-1,0E0,2.5292492E-1,1.5927887E-1,0E0,0E0,0E0,0E0],"parents":[2147483647,0,0,1,1,2,2,3,3,4,4,5,5,8,8,13,13,15,15,16,16],"right_children":[2,4,6,8,10,12,-1,-1,14,-1,-1,-1,-1,16,-1,18,20,-1,-1,-1,-1],"split_conditions":[1.1838125E-1,1.6424579E-3,1.4416665E-3,3.1065059E0,2.3974445E1,2.0899204E1,-2.9981673E-2,1.9291366E-2,1.6244974E2,1.8646866E-1,4.8995145E-2,3.049069E-2,1.0962214E-1,6.6840876E-5,2.1362266E-2,1.0336146E-1,1.5434745E-3,3.684604E-2,9.5708236E-2,1.3595402E-1,3.5607524E-2],"split_indices":[15,11,11,0,10,5,0,0,5,0,0,0,0,11,0,13,11,0,0,0,0],"split_type":[0,0,0,0,0,0,0,0,0,0,0,0,0,0,0,0,0,0,0,0,0],"sum_hessian":[1.13E2,9.2E1,2.1E1,7.6E1,1.6E1,1.8E1,3E0,1E0,7.5E1,1.5E1,1E0,1E0,1.7E1,7.4E1,1E0,8E0,6.6E1,3E0,5E0,6.5E1,1E0],"tree_param":{"num_deleted":"0","num_feature":"17","num_nodes":"21","size_leaf_vector":"0"}},{"base_weights":[-1.4125502E0],"categories":[],"categories_nodes":[],"categories_segments":[],"categories_sizes":[],"default_left":[0],"id":5,"left_children":[-1],"loss_changes":[0E0],"parents":[2147483647],"right_children":[-1],"split_conditions":[-1.4125502E-1],"split_indices":[0],"split_type":[0],"sum_hessian":[1.11E2],"tree_param":{"num_deleted":"0","num_feature":"17","num_nodes":"1","size_leaf_vector":"0"}},{"base_weights":[1.9699858E0],"categories":[],"categories_nodes":[],"categories_segments":[],"categories_sizes":[],"default_left":[0],"id":6,"left_children":[-1],"loss_changes":[0E0],"parents":[2147483647],"right_children":[-1],"split_conditions":[1.9699858E-1],"split_indices":[0],"split_type":[0],"sum_hessian":[1.05E2],"tree_param":{"num_deleted":"0","num_feature":"17","num_nodes":"1","size_leaf_vector":"0"}},{"base_weights":[2.6484194E0],"categories":[],"categories_nodes":[],"categories_segments":[],"categories_sizes":[],"default_left":[0],"id":7,"left_children":[-1],"loss_changes":[0E0],"parents":[2147483647],"right_children":[-1],"split_conditions":[2.6484194E-1],"split_indices":[0],"split_type":[0],"sum_hessian":[1.03E2],"tree_param":{"num_deleted":"0","num_feature":"17","num_nodes":"1","size_leaf_vector":"0"}},{"base_weights":[1.1830479E0,1.1977491E0,-1.5088786E-1,8.44824E-1,1.2641085E0,8.9424384E-1,-2.2366196E-2,1.2962788E0,7.296479E-1,9.236556E-1,1.9712126E-1,1.1809549E0,1.6086766E0,-2.3195681E-1,9.285748E-1,4.556371E-1,1.1981101E0],"categories":[],"categories_nodes":[],"categories_segments":[],"categories_sizes":[],"default_left":[1,1,0,1,1,1,0,1,1,0,0,1,0,0,0,0,0],"id":8,"left_children":[1,3,-1,5,7,9,-1,11,13,-1,-1,15,-1,-1,-1,-1,-1],"loss_changes":[2.1809845E0,1.2974701E0,0E0,8.3427143E-1,4.8124695E-1,1.8699455E-1,0E0,8.7431335E-1,1.5544126E0,0E0,0E0,2.0067596E-1,0E0,0E0,0E0,0E0,0E0],"parents":[2147483647,0,0,1,1,3,3,4,4,5,5,7,7,8,8,11,11],"right_children":[2,4,-1,6,8,10,-1,12,14,-1,-1,16,-1,-1,-1,-1,-1],"split_conditions":[2.5877187E-1,1.09548494E-1,-1.5088786E-2,6.0514256E1,1.4716563E-1,3.793064E2,-2.2366196E-3,1.266372E-3,4.1501317E0,9.236556E-2,1.9712126E-2,2.7398205E1,1.6086766E-1,-2.3195682E-2,9.285748E-2,4.556371E-2,1.1981101E-1],"split_indices":[15,6,0,12,15,9,0,11,0,0,0,12,0,0,0,0,0],"split_type":[0,0,0,0,0,0,0,0,0,0,0,0,0,0,0,0,0],"sum_hessian":[1.01E2,1E2,1E0,1.8E1,8.2E1,1.7E1,1E0,7.6E1,6E0,1.6E1,1E0,5.9E1,1.7E1,1E0,5E0,2E0,5.7E1],"tree_param":{"num_deleted":"0","num_feature":"17","num_nodes":"17","size_leaf_vector":"0"}},{"base_weights":[-1.2703903E0,-1.1892256E0,-1.6492285E0],"categories":[],"categories_nodes":[],"categories_segments":[],"categories_sizes":[],"default_left":[1,0,0],"id":9,"left_children":[1,-1,-1],"loss_changes":[1.451767E0,0E0,0E0],"parents":[2147483647,0,0],"right_children":[2,-1,-1],"split_conditions":[5.584216E1,-1.18922554E-1,-1.6492285E-1],"split_indices":[12,0,0],"split_type":[0,0,0],"sum_hessian":[1.1E2,9.4E1,1.6E1],"tree_param":{"num_deleted":"0","num_feature":"17","num_nodes":"3","size_leaf_vector":"0"}},{"base_weights":[1.7648262E0],"categories":[],"categories_nodes":[],"categories_segments":[],"categories_sizes":[],"default_left":[0],"id":10,"left_children":[-1],"loss_changes":[0E0],"parents":[2147483647],"right_children":[-1],"split_conditions":[1.7648262E-1],"split_indices":[0],"split_type":[0],"sum_hessian":[1.03E2],"tree_param":{"num_deleted":"0","num_feature":"17","num_nodes":"1","size_leaf_vector":"0"}},{"base_weights":[2.4076319E0],"categories":[],"categories_nodes":[],"categories_segments":[],"categories_sizes":[],"default_left":[0],"id":11,"left_children":[-1],"loss_changes":[0E0],"parents":[2147483647],"right_children":[-1],"split_conditions":[2.4076319E-1],"split_indices":[0],"split_type":[0],"sum_hessian":[1.13E2],"tree_param":{"num_deleted":"0","num_feature":"17","num_nodes":"1","size_leaf_vector":"0"}},{"base_weights":[1.0836564E0,2.619395E-1,1.1285446E0,-2.522501E-1,3.8967946E-1,1.1488963E0,3.325272E-1,1.065092E0,1.5275385E0,-1.4334346E-1,5.389319E-1,1.0815673E0,4.569562E-1,6.011597E-1,1.6169385E0,7.389408E-1,1.1132524E0,-2.1247894E-2,6.234402E-1,8.4270406E-1,2.1592505E-1],"categories":[],"categories_nodes":[],"categories_segments":[],"categories_sizes":[],"default_left":[1,1,1,0,0,1,1,1,1,0,0,1,1,0,0,1,0,0,0,0,0],"id":12,"left_children":[1,3,5,-1,-1,7,9,11,13,-1,-1,15,17,-1,-1,19,-1,-1,-1,-1,-1],"loss_changes":[3.7617798E0,5.580746E-1,1.3027954E0,0E0,0E0,1.5779419E0,4.7014022E-1,3.67424E-1,3.5305405E-1,0E0,0E0,7.8430176E-2,3.317001E-1,0E0,0E0,3.607378E-1,0E0,0E0,0E0,0E0,0E0],"parents":[2147483647,0,0,1,1,2,2,5,5,6,6,7,7,8,8,11,11,12,12,15,15],"right_children":[2,4,6,-1,-1,8,10,12,14,-1,-1,16,18,-1,-1,20,-1,-1,-1,-1,-1],"split_conditions":[2.9105598E1,5.728331E1,1.8415312E-1,-2.5225012E-2,3.896795E-2,1.6556224E-3,5.7670987E-1,1.4959077E-3,3.972792E1,-1.4334346E-2,5.389319E-2,3.43829E-5,-7.992979E0,6.011597E-2,1.6169386E-1,3.029343E-5,1.1132524E-1,-2.1247894E-3,6.2344022E-2,8.427041E-2,2.1592505E-2],"split_indices":[12,7,15,0,0,11,1,11,12,0,0,11,4,0,0,11,0,0,0,0,0],"split_type":[0,0,0,0,0,0,0,0,0,0,0,0,0,0,0,0,0,0,0,0,0],"sum_hessian":[1.09E2,6E0,1.03E2,1E0,5E0,1E2,3E0,8.5E1,1.5E1,1E0,2E0,8.2E1,3E0,2E0,1.3E1,9E0,7.3E1,1E0,2E0,7E0,2E0],"tree_param":{"num_deleted":"0","num_feature":"17","num_nodes":"21","size_leaf_vector":"0"}},{"base_weights":[-1.1464399E0,-1.0771643E0,-1.4742811E0,-3.006174E-1,-1.0821218E0,-1.5470359E0,-6.190802E-1],"categories":[],"categories_nodes":[],"categories_segments":[],"categories_sizes":[],"default_left":[1,1,1,0,0,0,0],"id":13,"left_children":[1,3,5,-1,-1,-1,-1],"loss_changes":[9.783478E-1,4.811859E-2,9.9998474E-2,0E0,0E0,0E0,0E0],"parents":[2147483647,0,0,1,1,2,2],"right_children":[2,4,6,-1,-1,-1,-1],"split_conditions":[5.6119205E1,3.1111302E0,2.35966E1,-3.006174E-2,-1.0821219E-1,-1.547036E-1,-6.1908018E-2],"split_indices":[12,0,10,0,0,0,0],"split_type":[0,0,0,0,0,0,0],"sum_hessian":[1.12E2,9.6E1,1.6E1,1E0,9.5E1,1.4E1,2E0],"tree_param":{"num_deleted":"0","num_feature":"17","num_nodes":"7","size_leaf_vector":"0"}},{"base_weights":[1.6202579E0],"categories":[],"categories_nodes":[],"categories_segments":[],"categories_sizes":[],"default_left":[0],"id":14,"left_children":[-1],"loss_changes":[0E0],"parents":[2147483647],"right_children":[-1],"split_conditions":[1.620258E-1],"split_indices":[0],"split_type":[0],"sum_hessian":[1.1E2],"tree_param":{"num_deleted":"0","num_feature":"17","num_nodes":"1","size_leaf_vector":"0"}},{"base_weights":[2.1757014E0],"categories":[],"categories_nodes":[],"categories_segments":[],"categories_sizes":[],"default_left":[0],"id":15,"left_children":[-1],"loss_changes":[0E0],"parents":[2147483647],"right_children":[-1],"split_conditions":[2.1757014E-1],"split_indices":[0],"split_type":[0],"sum_hessian":[1.09E2],"tree_param":{"num_deleted":"0","num_feature":"17","num_nodes":"1","size_leaf_vector":"0"}},{"base_weights":[9.7799313E-1,3.831627E-1,1.0177895E0,-2.3963763E-1,5.0636816E-1,1.2554288E0,9.049705E-1,6.002515E-1,1.8110646E-1,1.3703561E0,6.056359E-1,9.2112577E-1,2.4789831E-1,9.357758E-1,3.0154958E-1,5.8503926E-1,-2.1319179E-1,4.9262542E-1,9.649813E-1,-2.01855E-2,5.992247E-1],"categories":[],"categories_nodes":[],"categories_segments":[],"categories_sizes":[],"default_left":[1,1,1,0,1,1,1,0,0,0,0,1,1,1,0,0,0,1,0,0,0],"id":16,"left_children":[1,3,5,-1,7,9,11,-1,-1,-1,-1,13,15,17,-1,-1,-1,19,-1,-1,-1],"loss_changes":[2.0245743E0,7.3520386E-1,1.4108429E0,0E0,1.05047345E-1,1.2610741E0,4.934883E-1,0E0,0E0,0E0,0E0,3.168831E-1,5.9108263E-1,3.529396E-1,0E0,0E0,0E0,3.400873E-1,0E0,0E0,0E0],"parents":[2147483647,0,0,1,1,2,2,4,4,5,5,6,6,11,11,12,12,13,13,17,17],"right_children":[2,4,6,-1,8,10,12,-1,-1,-1,-1,14,16,18,-1,-1,-1,20,-1,-1,-1],"split_conditions":[2.8830452E1,2.508917E1,2.253E1,-2.3963762E-2,2.0529388E2,6.722612E1,2.9804194E-1,6.002515E-2,1.8110646E-2,1.3703561E-1,6.056359E-2,8.9197826E-1,4.408093E-1,4.7553864E1,3.0154958E-2,5.8503926E-2,-2.1319179E-2,-7.961627E0,9.649813E-2,-2.0185502E-3,5.9922468E-2],"split_indices":[12,7,10,0,7,5,6,0,0,0,0,1,1,7,0,0,0,4,0,0,0],"split_type":[0,0,0,0,0,0,0,0,0,0,0,0,0,0,0,0,0,0,0,0,0],"sum_hessian":[1.01E2,7E0,9.4E1,1E0,6E0,2.7E1,6.7E1,4E0,2E0,2.2E1,5E0,6.5E1,2E0,6.3E1,2E0,1E0,1E0,5E0,5.8E1,1E0,4E0],"tree_param":{"num_deleted":"0","num_feature":"17","num_nodes":"21","size_leaf_vector":"0"}},{"base_weights":[-1.0571426E0,-9.8068213E-1,-1.3199265E0,-1.3625836E0,-9.350072E-1,-3.258511E-1,-1.4810638E0,-9.510136E-1,-5.047088E-1],"categories":[],"categories_nodes":[],"categories_segments":[],"categories_sizes":[],"default_left":[1,1,0,1,1,0,0,0,0],"id":17,"left_children":[1,3,-1,5,7,-1,-1,-1,-1],"loss_changes":[8.353882E-1,2.260971E-1,0E0,3.772192E-1,7.102203E-2,0E0,0E0,0E0,0E0],"parents":[2147483647,0,0,1,1,3,3,4,4],"right_children":[2,4,-1,6,8,-1,-1,-1,-1],"split_conditions":[5.584216E1,6.32621E0,-1.3199265E-1,2.7931099E1,9.622242E2,-3.258511E-2,-1.4810638E-1,-9.5101364E-2,-5.0470885E-2],"split_indices":[12,10,0,5,7,0,0,0,0],"split_type":[0,0,0,0,0,0,0,0,0],"sum_hessian":[1.05E2,8.5E1,2E1,6E0,7.9E1,1E0,5E0,7.5E1,4E0],"tree_param":{"num_deleted":"0","num_feature":"17","num_nodes":"9","size_leaf_vector":"0"}},{"base_weights":[1.4485902E0],"categories":[],"categories_nodes":[],"categories_segments":[],"categories_sizes":[],"default_left":[0],"id":18,"left_children":[-1],"loss_changes":[0E0],"parents":[2147483647],"right_children":[-1],"split_conditions":[1.4485902E-1],"split_indices":[0],"split_type":[0],"sum_hessian":[1.06E2],"tree_param":{"num_deleted":"0","num_feature":"17","num_nodes":"1","size_leaf_vector":"0"}},{"base_weights":[1.9152336E0,1.9752765E0,1.3912677E0],"categories":[],"categories_nodes":[],"categories_segments":[],"categories_sizes":[],"default_left":[1,0,0],"id":19,"left_children":[1,-1,-1],"loss_changes":[8.069153E-1,0E0,0E0],"parents":[2147483647,0,0],"right_children":[2,-1,-1],"split_conditions":[5.742713E1,1.9752765E-1,1.3912676E-1],"split_indices":[12,0,0],"split_type":[0,0,0],"sum_hessian":[1.12E2,9.8E1,1.4E1],"tree_param":{"num_deleted":"0","num_feature":"17","num_nodes":"3","size_leaf_vector":"0"}},{"base_weights":[9.349277E-1,8.664648E-1,1.2829934E0,5.249391E-1,8.961019E-1,1.3379194E0,2.2955298E-1,5.754688E-1,3.5086215E-2,9.9127287E-1,7.3638463E-1,4.832378E-1,1.4322367E0,1.5872589E-1,6.077209E-1,1.0126964E0,3.1093034E-1,-1.9176215E-2,7.5852E-1,1.0249331E0,2.1266761E-1,2.0871055E-1,7.855172E-1,8.240991E-1,4.0463868E-1],"categories":[],"categories_nodes":[],"categories_segments":[],"categories_sizes":[],"default_left":[1,1,1,1,1,1,0,1,0,1,1,0,0,0,0,1,0,0,1,0,0,0,1,0,0],"id":20,"left_children":[1,3,5,7,9,11,-1,13,-1,15,17,-1,-1,-1,-1,19,-1,-1,21,-1,-1,-1,23,-1,-1],"loss_changes":[1.5095901E0,4.9116516E-1,6.1865425E-1,2.2732997E-1,5.7728577E-1,5.170574E-1,0E0,2.4506569E-2,0E0,4.2846298E-1,6.1663055E-1,0E0,0E0,0E0,0E0,2.6172638E-1,0E0,0E0,3.5557175E-1,0E0,0E0,0E0,1.51474E-1,0E0,0E0],"parents":[2147483647,0,0,1,1,2,2,3,3,4,4,5,5,7,7,9,9,10,10,15,15,18,18,22,22],"right_children":[2,4,6,8,10,12,-1,14,-1,16,18,-1,-1,-1,-1,20,-1,-1,22,-1,-1,-1,24,-1,-1],"split_conditions":[1.6424579E-3,3.3551092E-5,4.637413E0,3.029343E-5,-3.9608166E-2,3.972792E1,2.2955298E-2,-5.6057587E-2,3.5086216E-3,1.1203888E2,3.557456E-13,4.832378E-2,1.4322367E-1,1.5872588E-2,6.077209E-2,1.5589261E-3,3.1093035E-2,-1.9176215E-3,3.297058E1,1.0249331E-1,2.1266762E-2,2.0871056E-2,4.324411E1,8.240991E-2,4.046387E-2],"split_indices":[11,11,0,11,16,12,0,16,0,5,14,0,0,0,0,11,0,0,12,0,0,0,5,0,0],"split_type":[0,0,0,0,0,0,0,0,0,0,0,0,0,0,0,0,0,0,0,0,0,0,0,0,0],"sum_hessian":[1.09E2,9.4E1,1.5E1,9E0,8.5E1,1.4E1,1E0,8E0,1E0,5E1,3.5E1,2E0,1.2E1,1E0,7E0,4.8E1,2E0,1E0,3.4E1,4.7E1,1E0,2E0,3.2E1,2.8E1,4E0],"tree_param":{"num_deleted":"0","num_feature":"17","num_nodes":"25","size_leaf_vector":"0"}},{"base_weights":[-9.361481E-1,-8.7197226E-1,-1.2014537E0,-8.823081E-1,-4.3175873E-1,-4.9980554E-1,-1.2579218E0],"categories":[],"categories_nodes":[],"categories_segments":[],"categories_sizes":[],"default_left":[1,1,1,0,0,0,0],"id":21,"left_children":[1,3,5,-1,-1,-1,-1],"loss_changes":[7.5714874E-1,2.3994446E-2,8.44574E-2,0E0,0E0,0E0,0E0],"parents":[2147483647,0,0,1,1,2,2],"right_children":[2,4,6,-1,-1,-1,-1],"split_conditions":[5.5717724E1,1.2339478E0,3.8428147E-13,-8.823081E-2,-4.3175872E-2,-4.9980555E-2,-1.2579219E-1],"split_indices":[12,6,14,0,0,0,0],"split_type":[0,0,0,0,0,0,0],"sum_hessian":[1.05E2,8.8E1,1.7E1,8.5E1,3E0,2E0,1.5E1],"tree_param":{"num_deleted":"0","num_feature":"17","num_nodes":"7","size_leaf_vector":"0"}},{"base_weights":[1.3002453E0],"categories":[],"categories_nodes":[],"categories_segments":[],"categories_sizes":[],"default_left":[0],"id":22,"left_children":[-1],"loss_changes":[0E0],"parents":[2147483647],"right_children":[-1],"split_conditions":[1.3002454E-1],"split_indices":[0],"split_type":[0],"sum_hessian":[1.14E2],"tree_param":{"num_deleted":"0","num_feature":"17","num_nodes":"1","size_leaf_vector":"0"}},{"base_weights":[1.7549528E0,1.8125672E0,1.3067832E0],"categories":[],"categories_nodes":[],"categories_segments":[],"categories_sizes":[],"default_left":[1,0,0],"id":23,"left_children":[1,-1,-1],"loss_changes":[4.4586182E-1,0E0,0E0],"parents":[2147483647,0,0],"right_children":[2,-1,-1],"split_conditions":[5.5751266E1,1.8125673E-1,1.3067833E-1],"split_indices":[12,0,0],"split_type":[0,0,0],"sum_hessian":[1.08E2,9.3E1,1.5E1],"tree_param":{"num_deleted":"0","num_feature":"17","num_nodes":"3","size_leaf_vector":"0"}},{"base_weights":[7.9146725E-1,2.0459351E-1,8.2005906E-1,-2.5181764E-1,3.2263163E-1,8.490992E-1,4.6566695E-1,9.4703436E-1,7.4829465E-1,-2.2669409E-1,5.575724E-1,5.1630604E-1,9.834196E-1,8.5661866E-2,7.708329E-1,9.953477E-1,2.2929287E-1,7.794397E-1,1.5303421E-1,4.0554157E-1,8.012407E-1],"categories":[],"categories_nodes":[],"categories_segments":[],"categories_sizes":[],"default_left":[1,1,1,0,0,1,1,1,1,0,0,0,1,0,1,0,0,1,0,0,0],"id":24,"left_children":[1,3,5,-1,-1,7,9,11,13,-1,-1,-1,15,-1,17,-1,-1,19,-1,-1,-1],"loss_changes":[1.8793488E0,4.583618E-1,7.984314E-1,0E0,0E0,3.3779907E-1,8.2634807E-1,2.7586365E-1,7.852402E-1,0E0,0E0,0E0,1.7656326E-1,0E0,1.7316818E-1,0E0,0E0,1.1523819E-1,0E0,0E0,0E0],"parents":[2147483647,0,0,1,1,2,2,5,5,6,6,7,7,8,8,12,12,14,14,17,17],"right_children":[2,4,6,-1,-1,8,10,12,14,-1,-1,-1,16,-1,18,-1,-1,20,-1,-1,-1],"split_conditions":[2.7398205E1,5.425543E1,1.4420626E-1,-2.5181765E-2,3.2263163E-2,1.02204025E-1,4.1501317E0,9.350005E-2,1.0397464E-1,-2.266941E-2,5.5757243E-2,5.1630605E-2,1.1602891E2,8.566187E-3,5.160981E0,9.953477E-2,2.2929287E-2,5.055897E1,1.5303421E-2,4.055416E-2,8.012407E-2],"split_indices":[12,5,15,0,0,13,0,6,13,0,0,0,5,0,0,0,0,7,0,0,0],"split_type":[0,0,0,0,0,0,0,0,0,0,0,0,0,0,0,0,0,0,0,0,0],"sum_hessian":[1.21E2,6E0,1.15E2,1E0,5E0,1.05E2,1E1,4.9E1,5.6E1,1E0,9E0,5E0,4.4E1,2E0,5.4E1,4.3E1,1E0,5.3E1,1E0,4E0,4.9E1],"tree_param":{"num_deleted":"0","num_feature":"17","num_nodes":"21","size_leaf_vector":"0"}},{"base_weights":[-8.631142E-1,-7.593436E-1,-1.2045755E0,-7.68857E-1,-3.7686163E-1,-3.664888E-1,-1.2669415E0,-1.2935245E0,-3.676405E-1],"categories":[],"categories_nodes":[],"categories_segments":[],"categories_sizes":[],"default_left":[1,1,1,0,0,0,1,0,0],"id":25,"left_children":[1,3,5,-1,-1,-1,7,-1,-1],"loss_changes":[2.841278E0,1.5899658E-2,7.378464E-1,0E0,0E0,0E0,2.6477814E-2,0E0,0E0],"parents":[2147483647,0,0,1,1,2,2,6,6],"right_children":[2,4,6,-1,-1,-1,8,-1,-1],"split_conditions":[1.5113592E-3,9.622242E2,1.61554E1,-7.68857E-2,-3.7686165E-2,-3.664888E-2,2.950622E3,-1.2935245E-1,-3.676405E-2],"split_indices":[11,7,10,0,0,0,9,0,0],"split_type":[0,0,0,0,0,0,0,0,0],"sum_hessian":[1.05E2,8.3E1,2.2E1,8E1,3E0,2E0,2E1,1.9E1,1E0],"tree_param":{"num_deleted":"0","num_feature":"17","num_nodes":"9","size_leaf_vector":"0"}},{"base_weights":[1.1767817E0],"categories":[],"categories_nodes":[],"categories_segments":[],"categories_sizes":[],"default_left":[0],"id":26,"left_children":[-1],"loss_changes":[0E0],"parents":[2147483647],"right_children":[-1],"split_conditions":[1.17678165E-1],"split_indices":[0],"split_type":[0],"sum_hessian":[1.07E2],"tree_param":{"num_deleted":"0","num_feature":"17","num_nodes":"1","size_leaf_vector":"0"}},{"base_weights":[1.5927577E0,6.408963E-1,1.6039331E0,1.6758344E0,1.2988853E0,4.8067224E-1,1.6840469E0],"categories":[],"categories_nodes":[],"categories_segments":[],"categories_sizes":[],"default_left":[1,0,1,1,0,0,0],"id":27,"left_children":[1,-1,3,5,-1,-1,-1],"loss_changes":[1.953125E-1,0E0,3.017578E-1,5.4275513E-2,0E0,0E0,0E0],"parents":[2147483647,0,0,2,2,3,3],"right_children":[2,-1,4,6,-1,-1,-1],"split_conditions":[1.4170051E0,6.408963E-2,1.1974587E-3,8.381045E-6,1.2988853E-1,4.8067223E-2,1.6840468E-1],"split_indices":[10,0,11,11,0,0,0],"split_type":[0,0,0,0,0,0,0],"sum_hessian":[1.14E2,2E0,1.12E2,8.7E1,2.5E1,1E0,8.6E1],"tree_param":{"num_deleted":"0","num_feature":"17","num_nodes":"7","size_leaf_vector":"0"}},{"base_weights":[7.0445305E-1,7.544088E-1,5.2229035E-1,6.5310574E-1,9.379871E-1,5.936305E-1,7.539966E-2,7.6530933E-1,5.06774E-1,3.9220503E-1,6.883388E-1,2.828308E-1,-1.571647E-1,2.1635737E-1,7.946942E-1,1.16050564E-1,5.314183E-1,1.3289624E-1,4.404202E-1,1.9306612E-1,7.09925E-1,-1.9725254E-1,-3.8494498E-2,8.103886E-1,1.6977793E-1,3.4620285E-2,1.3945556E-1,5.49623E-1,2.90488E-2,1.8990403E-1,8.257665E-1,5.599773E-1,1.4538252E-1],"categories":[],"categories_nodes":[],"categories_segments":[],"categories_sizes":[],"default_left":[1,1,1,1,0,1,1,1,1,1,1,0,1,0,1,1,1,0,0,0,0,0,0,1,0,0,0,1,0,0,0,0,0],"id":28,"left_children":[1,3,5,7,-1,9,11,13,15,17,19,-1,21,-1,23,25,27,-1,-1,-1,-1,-1,-1,29,-1,-1,-1,31,-1,-1,-1,-1,-1],"loss_changes":[6.524887E-1,1.0239334E0,8.479147E-1,5.9729767E-1,0E0,1.8787003E-1,2.8565648E-1,3.4425163E-1,2.1757317E-1,6.6496015E-2,2.3303509E-2,0E0,6.678559E-3,0E0,1.5664673E-1,8.8963285E-4,2.3096085E-1,0E0,0E0,0E0,0E0,0E0,0E0,1.1989212E-1,0E0,0E0,0E0,2.7415752E-2,0E0,0E0,0E0,0E0,0E0],"parents":[2147483647,0,0,1,1,2,2,3,3,5,5,6,6,7,7,8,8,9,9,10,10,12,12,14,14,15,15,16,16,23,23,27,27],"right_children":[2,4,6,8,-1,10,12,14,16,18,20,-1,22,-1,24,26,28,-1,-1,-1,-1,-1,-1,30,-1,-1,-1,32,-1,-1,-1,-1,-1],"split_conditions":[1.2549897E-1,9.132388E-4,1.4348017E-3,-5.350876E-2,9.379871E-2,4.6313385E1,9.997062E2,2.6378838E1,1.927005E1,4.205859E0,-1.040625E-2,2.828308E-2,4.112717E0,2.1635737E-2,5.1990886E0,3.7868876E0,5.5152397E1,1.3289625E-2,4.404202E-2,1.9306613E-2,7.09925E-2,-1.9725254E-2,-3.8494498E-3,6.1142705E-2,1.6977793E-2,3.4620285E-3,1.3945556E-2,5.0222225E0,2.90488E-3,1.8990403E-2,8.2576655E-2,5.599773E-2,1.4538253E-2],"split_indices":[13,11,11,16,0,12,8,12,10,0,15,0,0,0,0,0,12,0,0,0,0,0,0,6,0,0,0,0,0,0,0,0,0],"split_type":[0,0,0,0,0,0,0,0,0,0,0,0,0,0,0,0,0,0,0,0,0,0,0,0,0,0,0,0,0,0,0,0,0],"sum_hessian":[1.14E2,8.7E1,2.7E1,5.9E1,2.8E1,2.3E1,4E0,3.1E1,2.8E1,9E0,1.4E1,2E0,2E0,2E0,2.9E1,2E0,2.6E1,2E0,7E0,1E0,1.3E1,1E0,1E0,2.8E1,1E0,1E0,1E0,2.5E1,1E0,1E0,2.7E1,2.4E1,1E0],"tree_param":{"num_deleted":"0","num_feature":"17","num_nodes":"33","size_leaf_vector":"0"}},{"base_weights":[-8.08626E-1,-9.502153E-1,-6.8659705E-1,-9.8372155E-1,-3.5246933E-1,-5.214349E-1,-7.348052E-1,-6.8673104E-1,-1.0529087E0,-7.622845E-1,-4.3372238E-1],"categories":[],"categories_nodes":[],"categories_segments":[],"categories_sizes":[],"default_left":[1,1,1,1,0,0,1,0,0,0,0],"id":29,"left_children":[1,3,5,7,-1,-1,9,-1,-1,-1,-1],"loss_changes":[1.1617737E0,5.745659E-1,9.457588E-2,1.6049576E-1,0E0,0E0,3.341484E-2,0E0,0E0,0E0,0E0],"parents":[2147483647,0,0,1,1,2,2,3,3,6,6],"right_children":[2,4,6,8,-1,-1,10,-1,-1,-1,-1],"split_conditions":[2.3523342E1,1.5762429E1,1.0164969E2,3.419487E1,-3.5246935E-2,-5.214349E-2,5.4774597E1,-6.8673104E-2,-1.0529087E-1,-7.6228455E-2,-4.337224E-2],"split_indices":[10,4,7,12,0,0,12,0,0,0,0],"split_type":[0,0,0,0,0,0,0,0,0,0,0],"sum_hessian":[1.04E2,4.5E1,5.9E1,4.2E1,3E0,1.6E1,4.3E1,1E1,3.2E1,3.8E1,5E0],"tree_param":{"num_deleted":"0","num_feature":"17","num_nodes":"11","size_leaf_vector":"0"}},{"base_weights":[1.0498307E0],"categories":[],"categories_nodes":[],"categories_segments":[],"categories_sizes":[],"default_left":[0],"id":30,"left_children":[-1],"loss_changes":[0E0],"parents":[2147483647],"right_children":[-1],"split_conditions":[1.0498307E-1],"split_indices":[0],"split_type":[0],"sum_hessian":[1.21E2],"tree_param":{"num_deleted":"0","num_feature":"17","num_nodes":"1","size_leaf_vector":"0"}},{"base_weights":[1.4075605E0,1.4743986E0,1.1096467E0],"categories":[],"categories_nodes":[],"categories_segments":[],"categories_sizes":[],"default_left":[1,0,0],"id":31,"left_children":[1,-1,-1],"loss_changes":[3.1532288E-1,0E0,0E0],"parents":[2147483647,0,0],"right_children":[2,-1,-1],"split_conditions":[1.205263E-3,1.4743987E-1,1.1096467E-1],"split_indices":[11,0,0],"split_type":[0,0,0],"sum_hessian":[9.7E1,7.6E1,2.1E1],"tree_param":{"num_deleted":"0","num_feature":"17","num_nodes":"3","size_leaf_vector":"0"}},{"base_weights":[6.552824E-1,1.6347015E-1,6.8564546E-1,-2.861261E-1,2.6857334E-1,6.0769844E-1,8.517791E-1,3.2889277E-2,3.0237246E-1,4.8626825E-1,6.671633E-1,4.4140238E-1,9.490285E-1,5.199594E-1,2.7045894E-1,1.3107988E-1,6.0137993E-1,5.3701586E-1,2.2155897E-1,-3.6569774E-2,1.9915302E-1],"categories":[],"categories_nodes":[],"categories_segments":[],"categories_sizes":[],"default_left":[1,1,1,0,1,1,1,0,0,1,0,1,0,1,0,1,0,0,0,0,0],"id":32,"left_children":[1,3,5,-1,7,9,11,-1,-1,13,-1,15,-1,17,-1,19,-1,-1,-1,-1,-1],"loss_changes":[1.6052055E0,4.5487788E-1,8.8093567E-1,0E0,4.581654E-2,2.3158455E-1,8.58181E-1,0E0,0E0,7.022667E-2,0E0,3.1832814E-1,0E0,3.171444E-3,0E0,5.293274E-2,0E0,0E0,0E0,0E0,0E0],"parents":[2147483647,0,0,1,1,2,2,4,4,5,5,6,6,9,9,11,11,13,13,15,15],"right_children":[2,4,6,-1,8,10,12,-1,-1,14,-1,16,-1,18,-1,20,-1,-1,-1,-1,-1],"split_conditions":[2.8830452E1,2.681146E2,8.937079E-4,-2.8612612E-2,3.1065059E0,1.2740022E-1,1.1208075E-2,3.2889277E-3,3.0237246E-2,2.777735E1,6.6716336E-2,-7.852484E0,9.490285E-2,-6.0313654E-1,2.7045894E-2,-7.992979E0,6.0137995E-2,5.3701587E-2,2.2155898E-2,-3.6569776E-3,1.9915303E-2],"split_indices":[12,9,11,0,0,6,3,0,0,10,0,4,0,4,0,4,0,0,0,0,0],"split_type":[0,0,0,0,0,0,0,0,0,0,0,0,0,0,0,0,0,0,0,0,0],"sum_hessian":[1.14E2,7E0,1.07E2,1E0,6E0,7.6E1,3.1E1,1E0,5E0,2.8E1,4.8E1,7E0,2.4E1,2.3E1,5E0,3E0,4E0,2.1E1,2E0,1E0,2E0],"tree_param":{"num_deleted":"0","num_feature":"17","num_nodes":"21","size_leaf_vector":"0"}},{"base_weights":[-7.0364016E-1,-6.214607E-1,-9.854327E-1,-7.5381786E-1,-5.591978E-1,-1.0662671E0,-3.5511115E-1,-6.224667E-1,-1.044127E0,-5.7935387E-1,-3.7836796E-1,-8.156505E-2,-4.0527272E-1],"categories":[],"categories_nodes":[],"categories_segments":[],"categories_sizes":[],"default_left":[1,1,1,1,1,0,0,0,0,0,1,0,0],"id":33,"left_children":[1,3,5,7,9,-1,-1,-1,-1,-1,11,-1,-1],"loss_changes":[1.8191338E0,2.7070236E-1,7.422943E-1,2.6524448E-1,3.1261444E-3,0E0,0E0,0E0,0E0,0E0,3.88124E-2,0E0,0E0],"parents":[2147483647,0,0,1,1,2,2,3,3,4,4,10,10],"right_children":[2,4,6,8,10,-1,-1,-1,-1,-1,12,-1,-1],"split_conditions":[1.5113592E-3,-7.598279E0,-1.6717661E-2,3.7956846E3,1.4011562E-1,-1.0662671E-1,-3.5511117E-2,-6.224667E-2,-1.044127E-1,-5.7935387E-2,1.3064427E-4,-8.156505E-3,-4.0527273E-2],"split_indices":[11,4,16,9,13,0,0,0,0,0,11,0,0],"split_type":[0,0,0,0,0,0,0,0,0,0,0,0,0],"sum_hessian":[1.04E2,8.3E1,2.1E1,2.3E1,6E1,1.8E1,3E0,1.8E1,5E0,5.2E1,8E0,1E0,7E0],"tree_param":{"num_deleted":"0","num_feature":"17","num_nodes":"13","size_leaf_vector":"0"}},{"base_weights":[9.44603E-1],"categories":[],"categories_nodes":[],"categories_segments":[],"categories_sizes":[],"default_left":[0],"id":34,"left_children":[-1],"loss_changes":[0E0],"parents":[2147483647],"right_children":[-1],"split_conditions":[9.44603E-2],"split_indices":[0],"split_type":[0],"sum_hessian":[1.11E2],"tree_param":{"num_deleted":"0","num_feature":"17","num_nodes":"1","size_leaf_vector":"0"}},{"base_weights":[1.2676929E0,1.3140497E0,9.504313E-1,1.325388E0,5.472231E-1,3.749075E-1,1.3320807E0,3.8291872E-1,1.3387424E0],"categories":[],"categories_nodes":[],"categories_segments":[],"categories_sizes":[],"default_left":[1,1,0,1,0,0,1,0,0],"id":35,"left_children":[1,3,-1,5,-1,-1,7,-1,-1],"loss_changes":[2.9533386E-1,4.852295E-2,0E0,5.4031372E-2,0E0,0E0,3.1158447E-2,0E0,0E0],"parents":[2147483647,0,0,1,1,3,3,6,6],"right_children":[2,4,-1,6,-1,-1,8,-1,-1],"split_conditions":[5.5751266E1,6.010733E-11,9.504313E-2,1.4170051E0,5.472231E-2,3.749075E-2,5.924423E-6,3.829187E-2,1.3387424E-1],"split_indices":[12,14,0,10,0,0,11,0,0],"split_type":[0,0,0,0,0,0,0,0,0],"sum_hessian":[1.04E2,8.8E1,1.6E1,8.6E1,2E0,1E0,8.5E1,1E0,8.4E1],"tree_param":{"num_deleted":"0","num_feature":"17","num_nodes":"9","size_leaf_vector":"0"}},{"base_weights":[6.3427055E-1,5.394735E-1,8.16779E-1,5.0017196E-1,8.1101465E-1,6.405671E-1,1.0479287E0,1.7215148E-1,5.177094E-1,2.2911847E-1,8.614115E-1,-3.097102E-1,6.9783926E-1,3.4395027E-1,-5.7031155E-2,2.0820749E-1,5.345914E-1,2.958808E-1,7.457337E-1,-1.0177809E-1,1.6231358E-2,6.3139224E-1,4.3914968E-1,7.1432835E-1,4.8074841E-1,4.5280644E-1,-5.761832E-3],"categories":[],"categories_nodes":[],"categories_segments":[],"categories_sizes":[],"default_left":[1,1,1,1,1,1,0,1,1,0,0,0,1,0,1,0,1,0,0,0,0,1,1,0,0,0,0],"id":36,"left_children":[1,3,5,7,9,11,-1,13,15,-1,-1,-1,17,-1,19,-1,21,-1,-1,-1,-1,23,25,-1,-1,-1,-1],"loss_changes":[1.479805E0,4.054222E-1,7.950592E-1,3.0780602E-1,3.7240982E-2,1.4678898E0,0E0,2.164824E-1,2.2831917E-1,0E0,0E0,0E0,2.0288658E-1,0E0,1.1486816E-2,0E0,2.8629303E-1,0E0,0E0,0E0,0E0,6.41346E-3,2.0919466E-1,0E0,0E0,0E0,0E0],"parents":[2147483647,0,0,1,1,2,2,3,3,4,4,5,5,7,7,8,8,12,12,14,14,16,16,21,21,22,22],"right_children":[2,4,6,8,10,12,-1,14,16,-1,-1,-1,18,-1,20,-1,22,-1,-1,-1,-1,24,26,-1,-1,-1,-1],"split_conditions":[8.937079E-4,4.895864E-1,3.5430677E-12,3.6680555E0,3.044809E2,1.4236973E1,1.0479287E-1,3.623698E0,2.7731617E1,2.2911847E-2,8.6141154E-2,-3.097102E-2,9.1046405E2,3.4395028E-2,3.642665E0,2.082075E-2,-4.837081E-2,2.958808E-2,7.457337E-2,-1.0177809E-2,1.6231359E-3,4.674045E0,5.5319675E1,7.143284E-2,4.807484E-2,4.5280647E-2,-5.761832E-4],"split_indices":[11,2,14,0,7,5,0,0,12,0,0,0,8,0,0,0,16,0,0,0,0,0,12,0,0,0,0],"split_type":[0,0,0,0,0,0,0,0,0,0,0,0,0,0,0,0,0,0,0,0,0,0,0,0,0,0,0],"sum_hessian":[1.1E2,7.5E1,3.5E1,6.8E1,7E0,2.2E1,1.3E1,4E0,6.4E1,1E0,6E0,1E0,2.1E1,2E0,2E0,4E0,6E1,3E0,1.8E1,1E0,1E0,2.7E1,3.3E1,1.5E1,1.2E1,3.2E1,1E0],"tree_param":{"num_deleted":"0","num_feature":"17","num_nodes":"27","size_leaf_vector":"0"}},{"base_weights":[-6.349455E-1,-6.004733E-1,-9.821715E-1,-7.418559E-1,-5.552896E-1,-2.6302725E-1,-1.0473311E0,-5.620486E-1,-1.0976994E0,-1.1277631E-1,-5.59517E-1,-3.777482E-1,-5.777514E-1,-4.0250093E-1,-7.74868E-2],"categories":[],"categories_nodes":[],"categories_segments":[],"categories_sizes":[],"default_left":[1,1,1,1,1,0,0,0,0,0,1,1,0,0,0],"id":37,"left_children":[1,3,5,7,9,-1,-1,-1,-1,-1,11,13,-1,-1,-1],"loss_changes":[6.790161E-1,2.2048569E-1,9.9396706E-2,7.266884E-1,8.4682465E-2,0E0,0E0,0E0,0E0,0E0,4.0281296E-2,4.313445E-2,0E0,0E0,0E0],"parents":[2147483647,0,0,1,1,2,2,3,3,4,4,10,10,11,11],"right_children":[2,4,6,8,10,-1,-1,-1,-1,-1,12,14,-1,-1,-1],"split_conditions":[5.7770626E1,7.888819E-2,7.062198E2,2.8221023E-1,1.5034166E1,-2.6302725E-2,-1.0473311E-1,-5.6204863E-2,-1.0976994E-1,-1.1277631E-2,3.7365017E0,3.6718316E0,-5.777514E-2,-4.0250093E-2,-7.7486797E-3],"split_indices":[12,13,8,6,5,0,0,0,0,0,0,0,0,0,0],"split_type":[0,0,0,0,0,0,0,0,0,0,0,0,0,0,0],"sum_hessian":[1.05E2,9.8E1,7E0,2E1,7.8E1,1E0,6E0,1.5E1,5E0,1E0,7.7E1,9E0,6.8E1,8E0,1E0],"tree_param":{"num_deleted":"0","num_feature":"17","num_nodes":"15","size_leaf_vector":"0"}},{"base_weights":[8.572105E-1],"categories":[],"categories_nodes":[],"categories_segments":[],"categories_sizes":[],"default_left":[0],"id":38,"left_children":[-1],"loss_changes":[0E0],"parents":[2147483647],"right_children":[-1],"split_conditions":[8.572105E-2],"split_indices":[0],"split_type":[0],"sum_hessian":[1.18E2],"tree_param":{"num_deleted":"0","num_feature":"17","num_nodes":"1","size_leaf_vector":"0"}},{"base_weights":[1.1571398E0,4.7488275E-1,1.1650126E0],"categories":[],"categories_nodes":[],"categories_segments":[],"categories_sizes":[],"default_left":[1,0,0],"id":39,"left_children":[1,-1,-1],"loss_changes":[6.4468384E-2,0E0,0E0],"parents":[2147483647,0,0],"right_children":[2,-1,-1],"split_conditions":[1.4170051E0,4.7488276E-2,1.16501264E-1],"split_indices":[10,0,0],"split_type":[0,0,0],"sum_hessian":[1.14E2,2E0,1.12E2],"tree_param":{"num_deleted":"0","num_feature":"17","num_nodes":"3","size_leaf_vector":"0"}},{"base_weights":[5.256462E-1,1.6970806E-1,5.4977053E-1,-2.100989E-1,3.0823845E-1,6.440744E-1,4.4204164E-1,-6.0418844E-3,-3.0910647E-1,1.2405308E-1,3.5710198E-1,6.842213E-1,3.5393247E-1,4.6086603E-1,-2.872378E-1,4.5332852E-1,7.468534E-1,4.8934075E-1,1.997728E-1,5.351133E-1,1.355345E-1,2.0375411E-1,7.720661E-1,6.439376E-1,4.3171164E-1,-5.166781E-2,3.106826E-1,1.5858853E-1,5.593284E-1,1.2849963E-1,6.8263143E-1,4.8946103E-1,3.315823E-1,-5.4737628E-3,-7.202795E-2],"categories":[],"categories_nodes":[],"categories_segments":[],"categories_sizes":[],"default_left":[1,1,1,1,1,1,1,0,0,0,0,1,0,1,0,1,1,1,1,1,0,0,0,1,1,1,0,0,0,0,0,0,0,0,0],"id":40,"left_children":[1,3,5,7,9,11,13,-1,-1,-1,-1,15,-1,17,-1,19,21,23,25,27,-1,-1,-1,29,31,33,-1,-1,-1,-1,-1,-1,-1,-1,-1],"loss_changes":[9.28524E-1,5.3829384E-1,8.429718E-1,5.8742E-2,1.8700004E-2,4.2178726E-1,8.874321E-1,0E0,0E0,0E0,0E0,3.7003136E-1,0E0,3.0370903E-1,0E0,2.6535296E-1,3.49329E-1,1.4965057E-1,2.1126291E-1,2.4728775E-3,0E0,0E0,0E0,1.3166904E-1,5.7435513E-2,2.4272883E-3,0E0,0E0,0E0,0E0,0E0,0E0,0E0,0E0,0E0],"parents":[2147483647,0,0,1,1,2,2,3,3,4,4,5,5,6,6,11,11,13,13,15,15,16,16,17,17,18,18,19,19,23,23,24,24,25,25],"right_children":[2,4,6,8,10,12,14,-1,-1,-1,-1,16,-1,18,-1,20,22,24,26,28,-1,-1,-1,30,32,34,-1,-1,-1,-1,-1,-1,-1,-1,-1],"split_conditions":[2.8830452E1,4.2979256E1,1.0264811E-1,3.657117E0,-2.2478995E0,4.777833E0,4.9137238E-1,-6.041885E-4,-3.0910647E-2,1.2405309E-2,3.5710197E-2,3.8328732E-4,3.539325E-2,5.557174E1,-2.872378E-2,3.162433E2,3.291152E1,2.4393246E1,3.8428147E-13,3.8847222E0,1.355345E-2,2.0375412E-2,7.720661E-2,6.946613E2,1.756251E3,4.5427084E0,3.106826E-2,1.5858853E-2,5.593284E-2,1.2849963E-2,6.826314E-2,4.8946105E-2,3.315823E-2,-5.473763E-4,-7.2027952E-3],"split_indices":[12,5,13,0,4,0,2,0,0,0,0,11,0,12,0,9,7,5,14,0,0,0,0,8,8,0,0,0,0,0,0,0,0,0,0],"split_type":[0,0,0,0,0,0,0,0,0,0,0,0,0,0,0,0,0,0,0,0,0,0,0,0,0,0,0,0,0,0,0,0,0,0,0],"sum_hessian":[1.18E2,8E0,1.1E2,2E0,6E0,5.6E1,5.4E1,1E0,1E0,2E0,4E0,4.8E1,8E0,5.3E1,1E0,1.2E1,3.6E1,4.7E1,6E0,9E0,3E0,2E0,3.4E1,1E1,3.7E1,2E0,4E0,1E0,8E0,1E0,9E0,2.1E1,1.6E1,1E0,1E0],"tree_param":{"num_deleted":"0","num_feature":"17","num_nodes":"35","size_leaf_vector":"0"}},{"base_weights":[-5.773144E-1,-5.2414155E-1,-7.834001E-1,-8.6554956E-1,-4.8913717E-1,-3.4080997E-1,-8.586396E-1,-9.439423E-1,-1.5840021E-1,-3.6031336E-1,-5.152507E-1,-4.2020226E-1,-9.475428E-1,-5.3022146E-1,-3.465515E-1,-2.5498292E-1,-9.787983E-1,-2.1967821E-1,-5.36397E-1,-4.1193625E-1,-1.0389472E0,-5.1076686E-1,-1.071375E-1],"categories":[],"categories_nodes":[],"categories_segments":[],"categories_sizes":[],"default_left":[1,1,1,1,1,0,1,0,0,0,1,0,1,1,0,0,1,0,0,1,0,0,0],"id":41,"left_children":[1,3,5,7,9,-1,11,-1,-1,-1,13,-1,15,17,-1,-1,19,-1,-1,21,-1,-1,-1],"loss_changes":[9.262848E-1,7.717037E-1,4.7327328E-1,2.9396248E-1,1.272049E-1,0E0,3.4243107E-1,0E0,0E0,0E0,5.666733E-3,0E0,7.5118065E-2,1.0656357E-2,0E0,0E0,4.936695E-2,0E0,0E0,3.5648108E-2,0E0,0E0,0E0],"parents":[2147483647,0,0,1,1,2,2,3,3,4,4,6,6,10,10,12,12,13,13,16,16,19,19],"right_children":[2,4,6,8,10,-1,12,-1,-1,-1,14,-1,16,18,-1,-1,20,-1,-1,22,-1,-1,-1],"split_conditions":[1.5113592E-3,6.32621E0,1.784026E1,4.325729E1,5.016883E-1,-3.4080997E-2,1.0557499E-12,-9.439423E-2,-1.5840022E-2,-3.6031336E-2,1.5396004E-11,-4.2020228E-2,5.722045E2,4.7553864E1,-3.465515E-2,-2.5498291E-2,1.5766628E1,-2.196782E-2,-5.36397E-2,7.2948164E-1,-1.03894725E-1,-5.1076688E-2,-1.07137505E-2],"split_indices":[11,10,10,12,1,0,14,0,0,0,14,0,8,7,0,0,5,0,0,1,0,0,0],"split_type":[0,0,0,0,0,0,0,0,0,0,0,0,0,0,0,0,0,0,0,0,0,0,0],"sum_hessian":[1.21E2,9.9E1,2.2E1,7E0,9.2E1,4E0,1.8E1,6E0,1E0,1.8E1,7.4E1,4E0,1.4E1,6.6E1,8E0,1E0,1.3E1,2E0,6.4E1,2E0,1.1E1,1E0,1E0],"tree_param":{"num_deleted":"0","num_feature":"17","num_nodes":"23","size_leaf_vector":"0"}},{"base_weights":[7.6875794E-1],"categories":[],"categories_nodes":[],"categories_segments":[],"categories_sizes":[],"default_left":[0],"id":42,"left_children":[-1],"loss_changes":[0E0],"parents":[2147483647],"right_children":[-1],"split_conditions":[7.68758E-2],"split_indices":[0],"split_type":[0],"sum_hessian":[1.06E2],"tree_param":{"num_deleted":"0","num_feature":"17","num_nodes":"1","size_leaf_vector":"0"}},{"base_weights":[1.0484571E0,6.460984E-1,1.0727285E0,1.1243033E0,8.606541E-1],"categories":[],"categories_nodes":[],"categories_segments":[],"categories_sizes":[],"default_left":[1,0,1,0,0],"id":43,"left_children":[1,-1,3,-1,-1],"loss_changes":[4.2021942E-1,0E0,1.9174957E-1,0E0,0E0],"parents":[2147483647,0,0,2,2],"right_children":[2,-1,4,-1,-1],"split_conditions":[1.6794106E1,6.460984E-2,1.1962298E-3,1.12430334E-1,8.606541E-2],"split_indices":[10,0,11,0,0],"split_type":[0,0,0,0,0],"sum_hessian":[1.13E2,8E0,1.05E2,8.1E1,2.4E1],"tree_param":{"num_deleted":"0","num_feature":"17","num_nodes":"5","size_leaf_vector":"0"}},{"base_weights":[4.7412157E-1,5.024412E-1,1.844543E-1,1.6162331E-1,5.212741E-1,-4.038026E-1,3.4248593E-1,-2.9365113E-1,2.8644425E-1,6.179324E-1,4.238991E-1,1.9714956E-1,5.112031E-1,4.314425E-1,1.711561E-1,6.4469165E-1,1.6240749E-1,-1.13268256E-1,4.364075E-1,8.624176E-2,2.2426434E-1,6.6373324E-1,1.5686496E-1,-6.842655E-2,2.6216102E-1,4.4564578E-1,-1.7372787E-2,7.5364083E-1,5.43656E-1,1.7380519E-1,4.531943E-1],"categories":[],"categories_nodes":[],"categories_segments":[],"categories_sizes":[],"default_left":[1,1,1,1,1,0,1,0,1,1,1,1,0,0,0,1,1,0,1,0,0,1,0,0,0,1,0,0,0,0,0],"id":44,"left_children":[1,3,5,7,9,-1,11,-1,13,15,17,19,-1,-1,-1,21,23,-1,25,-1,-1,27,-1,-1,-1,29,-1,-1,-1,-1,-1],"loss_changes":[8.671074E-1,5.961189E-1,1.2538551E0,4.8190916E-1,6.792679E-1,0E0,1.4442384E-1,0E0,2.6455462E-2,4.8039436E-1,4.0554333E-1,1.7096996E-3,0E0,0E0,0E0,3.1389046E-1,1.1004482E-1,0E0,2.2573471E-1,0E0,0E0,5.450058E-2,0E0,0E0,0E0,2.5883675E-2,0E0,0E0,0E0,0E0,0E0],"parents":[2147483647,0,0,1,1,2,2,3,3,4,4,6,6,8,8,9,9,10,10,11,11,15,15,16,16,18,18,21,21,25,25],"right_children":[2,4,6,8,10,-1,12,-1,14,16,18,20,-1,-1,-1,22,24,-1,26,-1,-1,28,-1,-1,-1,30,-1,-1,-1,-1,-1],"split_conditions":[1.4716563E-1,2.5871977E1,4.1501317E0,4.2979256E1,2.433039E1,-4.038026E-2,2.0929062E-1,-2.9365113E-2,5.8176735E1,4.6644535E0,3.6845486E0,1.0606237E-1,5.112031E-2,4.3144252E-2,1.711561E-2,1.0834477E2,4.813889E0,-1.1326826E-2,4.189093E0,8.6241765E-3,2.2426434E-2,2.4032866E1,1.5686495E-2,-6.842655E-3,2.6216103E-2,2.4458744E1,-1.7372788E-3,7.536408E-2,5.43656E-2,1.7380519E-2,4.531943E-2],"split_indices":[15,12,0,5,10,0,15,0,5,0,0,13,0,0,0,5,0,0,4,0,0,5,0,0,0,10,0,0,0,0,0],"split_type":[0,0,0,0,0,0,0,0,0,0,0,0,0,0,0,0,0,0,0,0,0,0,0,0,0,0,0,0,0,0,0],"sum_hessian":[1.16E2,1.05E2,1.1E1,6E0,9.9E1,2E0,9E0,1E0,5E0,4.7E1,5.2E1,6E0,3E0,1E0,4E0,4.4E1,3E0,1E0,5.1E1,2E0,4E0,4.2E1,2E0,1E0,2E0,5E1,1E0,2.1E1,2.1E1,2E0,4.8E1],"tree_param":{"num_deleted":"0","num_feature":"17","num_nodes":"31","size_leaf_vector":"0"}},{"base_weights":[-4.9950126E-1,-4.5378736E-1,-6.6380805E-1,-5.329998E-1,-3.884315E-1,-1.823486E-1,-7.028366E-1,-1.3518819E-1,-5.400978E-1,-3.9314848E-1,-7.157385E-2,-3.391829E-1,-7.470588E-1,-3.8215035E-1,-7.9795706E-1],"categories":[],"categories_nodes":[],"categories_segments":[],"categories_sizes":[],"default_left":[1,1,1,1,1,0,1,0,0,0,0,0,1,0,0],"id":45,"left_children":[1,3,5,7,9,-1,11,-1,-1,-1,-1,-1,13,-1,-1],"loss_changes":[5.3250504E-1,2.5889778E-1,2.8523254E-1,3.4282684E-2,5.107546E-2,0E0,6.824303E-2,0E0,0E0,0E0,0E0,0E0,1.0803223E-2,0E0,0E0],"parents":[2147483647,0,0,1,1,2,2,3,3,4,4,6,6,12,12],"right_children":[2,4,6,8,10,-1,12,-1,-1,-1,-1,-1,14,-1,-1],"split_conditions":[1.5113592E-3,1.0010068E-1,1.62809E1,3.285282E0,5.160981E0,-1.823486E-2,4.019271E0,-1.351882E-2,-5.4009777E-2,-3.9314847E-2,-7.1573853E-3,-3.391829E-2,1.0557499E-12,-3.8215037E-2,-7.979571E-2],"split_indices":[11,13,10,0,0,0,0,0,0,0,0,0,14,0,0],"split_type":[0,0,0,0,0,0,0,0,0,0,0,0,0,0,0],"sum_hessian":[1.1E2,8.9E1,2.1E1,3.7E1,5.2E1,2E0,1.9E1,1E0,3.6E1,5.1E1,1E0,3E0,1.6E1,3E0,1.3E1],"tree_param":{"num_deleted":"0","num_feature":"17","num_nodes":"15","size_leaf_vector":"0"}},{"base_weights":[6.918751E-1],"categories":[],"categories_nodes":[],"categories_segments":[],"categories_sizes":[],"default_left":[0],"id":46,"left_children":[-1],"loss_changes":[0E0],"parents":[2147483647],"right_children":[-1],"split_conditions":[6.9187514E-2],"split_indices":[0],"split_type":[0],"sum_hessian":[1.03E2],"tree_param":{"num_deleted":"0","num_feature":"17","num_nodes":"1","size_leaf_vector":"0"}},{"base_weights":[9.501723E-1,9.9683654E-1,7.3947966E-1,4.0015078E-1,1.00606E0,2.1575868E-1,7.528693E-1],"categories":[],"categories_nodes":[],"categories_segments":[],"categories_sizes":[],"default_left":[1,1,1,0,0,0,0],"id":47,"left_children":[1,3,5,-1,-1,-1,-1],"loss_changes":[3.54187E-1,8.174133E-2,5.8603287E-3,0E0,0E0,0E0,0E0],"parents":[2147483647,0,0,1,1,2,2],"right_children":[2,4,6,-1,-1,-1,-1],"split_conditions":[1.1974587E-3,1.86746E0,1.06018715E-1,4.001508E-2,1.00606E-1,2.1575868E-2,7.528693E-2],"split_indices":[11,10,6,0,0,0,0],"split_type":[0,0,0,0,0,0,0],"sum_hessian":[1.1E2,8.7E1,2.3E1,2E0,8.5E1,1E0,2.2E1],"tree_param":{"num_deleted":"0","num_feature":"17","num_nodes":"7","size_leaf_vector":"0"}},{"base_weights":[4.315724E-1,4.8528588E-1,2.435087E-1,5.9331965E-1,3.9492813E-1,3.4139132E-1,-2.7502972E-1,7.364938E-1,4.4920808E-1,4.1599753E-1,2.0005383E-1,-1.6504169E-2,3.576696E-1,1.5671796E-1,-4.221461E-1,1.0070574E-1,4.79023E-1,5.101024E-1,3.5888594E-1,2.4268271E-1,-2.7859777E-2,3.6589164E-1,8.839208E-2,1.695984E-1,-1.8539786E-2,5.178827E-1,1.9411358E-1,1.1959416E-1,5.294534E-1,1.861628E-1,3.9158502E-1,2.6929232E-1,5.481732E-2,4.1550317E-1,2.480635E-1,2.3132962E-1,5.627634E-1,2.3885834E-1,-6.500521E-2,4.17513E-1,1.4460286E-1,4.5848048E-1,1.9343984E-1],"categories":[],"categories_nodes":[],"categories_segments":[],"categories_sizes":[],"default_left":[1,1,1,1,1,1,1,0,1,1,1,0,1,0,0,1,1,1,1,1,0,1,0,0,0,1,0,0,0,1,1,0,0,1,0,0,0,0,0,0,0,0,0],"id":48,"left_children":[1,3,5,7,9,11,13,-1,15,17,19,-1,21,-1,-1,23,25,27,29,31,-1,33,-1,-1,-1,35,-1,-1,-1,37,39,-1,-1,41,-1,-1,-1,-1,-1,-1,-1,-1,-1],"loss_changes":[1.0637093E0,6.442337E-1,1.5150584E0,4.738493E-1,1.3028431E-1,1.4572453E-1,3.8374367E-1,0E0,1.8035221E-1,6.415701E-2,7.477102E-2,0E0,1.8580675E-2,0E0,0E0,2.7789744E-2,1.20901585E-1,5.0031424E-2,1.0783386E-1,1.5232295E-2,0E0,2.5532722E-2,0E0,0E0,0E0,8.844805E-2,0E0,0E0,0E0,1.08175054E-1,1.061244E-1,0E0,0E0,4.4923306E-2,0E0,0E0,0E0,0E0,0E0,0E0,0E0,0E0,0E0],"parents":[2147483647,0,0,1,1,2,2,3,3,4,4,5,5,6,6,8,8,9,9,10,10,12,12,15,15,16,16,17,17,18,18,19,19,21,21,25,25,29,29,30,30,33,33],"right_children":[2,4,6,8,10,12,14,-1,16,18,20,-1,22,-1,-1,24,26,28,30,32,-1,34,-1,-1,-1,36,-1,-1,-1,38,40,-1,-1,42,-1,-1,-1,-1,-1,-1,-1,-1,-1],"split_conditions":[1.1758854E-1,2.3034904E1,1.7938662E-1,2.4041615E1,5.0231453E1,4.1250525E0,-5.2004585E0,7.3649384E-2,2.9812529E1,5.0771877E-2,1.7726115E3,-1.6504169E-3,5.098481E0,1.5671795E-2,-4.2214613E-2,3.4226732E0,1.1182057E2,-1.03662506E-1,5.8478992E1,5.010373E0,-2.7859777E-3,-3.2039486E-2,8.839208E-3,1.695984E-2,-1.8539786E-3,1.8898752E2,1.9411359E-2,1.1959416E-2,5.2945342E-2,4.6135416E0,1.5278737E-11,2.6929233E-2,5.481732E-3,5.9365574E1,2.480635E-2,2.3132963E-2,5.627634E-2,2.3885835E-2,-6.500521E-3,4.1751303E-2,1.4460287E-2,4.584805E-2,1.9343985E-2],"split_indices":[15,10,6,5,5,0,4,0,5,15,8,0,0,0,0,0,5,15,9,0,0,16,0,0,0,9,0,0,0,0,14,0,0,5,0,0,0,0,0,0,0,0,0],"split_type":[0,0,0,0,0,0,0,0,0,0,0,0,0,0,0,0,0,0,0,0,0,0,0,0,0,0,0,0,0,0,0,0,0,0,0,0,0,0,0,0,0,0,0],"sum_hessian":[1.16E2,8.9E1,2.7E1,3.8E1,5.1E1,2.3E1,4E0,1.7E1,2.1E1,4.5E1,6E0,1E0,2.2E1,1E0,3E0,2E0,1.9E1,1.4E1,3.1E1,5E0,1E0,2.1E1,1E0,1E0,1E0,1.6E1,3E0,1E0,1.3E1,6E0,2.5E1,4E0,1E0,1.3E1,8E0,3E0,1.3E1,5E0,1E0,2.2E1,3E0,1E1,3E0],"tree_param":{"num_deleted":"0","num_feature":"17","num_nodes":"43","size_leaf_vector":"0"}},{"base_weights":[-4.5114473E-1,-4.5393372E-1,-6.799516E-2,-4.600977E-1,-2.287719E-1,-4.388345E-1,-6.096397E-1,-4.6174076E-1,-2.911494E-1,-4.698726E-1,-1.8163583E-1,-4.2164278E-1,-5.2724797E-1],"categories":[],"categories_nodes":[],"categories_segments":[],"categories_sizes":[],"default_left":[1,1,0,1,0,1,0,1,0,1,0,0,0],"id":49,"left_children":[1,3,-1,5,-1,7,-1,9,-1,11,-1,-1,-1],"loss_changes":[9.0955734E-2,5.15728E-2,0E0,7.9063416E-2,0E0,2.0047188E-1,0E0,1.0598564E-1,0E0,1.832962E-3,0E0,0E0,0E0],"parents":[2147483647,0,0,1,1,3,3,5,5,7,7,9,9],"right_children":[2,4,-1,6,-1,8,-1,10,-1,12,-1,-1,-1],"split_conditions":[8.9197826E-1,1.7657103E1,-6.7995163E-3,3.797582E3,-2.287719E-2,1.2919062E-1,-6.096397E-2,4.6459842E-1,-2.9114941E-2,8.7323505E-4,-1.8163582E-2,-4.2164277E-2,-5.2724797E-2],"split_indices":[1,4,0,9,0,13,0,2,0,11,0,0,0],"split_type":[0,0,0,0,0,0,0,0,0,0,0,0,0],"sum_hessian":[1.13E2,1.12E2,1E0,1.08E2,4E0,9.8E1,1E1,8.3E1,1.5E1,8E1,3E0,4.8E1,3.2E1],"tree_param":{"num_deleted":"0","num_feature":"17","num_nodes":"13","size_leaf_vector":"0"}},{"base_weights":[6.277614E-1,2.5398812E-1,6.3201624E-1,6.51811E-1,4.880329E-1],"categories":[],"categories_nodes":[],"categories_segments":[],"categories_sizes":[],"default_left":[1,0,1,0,0],"id":50,"left_children":[1,-1,3,-1,-1],"loss_changes":[2.7137756E-2,0E0,1.2508392E-2,0E0,0E0],"parents":[2147483647,0,0,2,2],"right_children":[2,-1,4,-1,-1],"split_conditions":[1.86746E0,2.5398811E-2,5.742713E1,6.51811E-2,4.8803292E-2],"split_indices":[10,0,12,0,0],"split_type":[0,0,0,0,0],"sum_hessian":[1.17E2,2E0,1.15E2,9.8E1,1.7E1],"tree_param":{"num_deleted":"0","num_feature":"17","num_nodes":"5","size_leaf_vector":"0"}},{"base_weights":[8.3715594E-1,1.9900393E-1,8.415039E-1,8.4820676E-1,3.3980957E-1,6.63223E-1,8.838501E-1,8.964328E-1,4.206699E-1],"categories":[],"categories_nodes":[],"categories_segments":[],"categories_sizes":[],"default_left":[1,0,1,1,0,0,1,0,0],"id":51,"left_children":[1,-1,3,5,-1,-1,7,-1,-1],"loss_changes":[1.1556244E-1,0E0,5.140686E-2,6.656647E-2,0E0,0E0,8.9141846E-2,0E0,0E0],"parents":[2147483647,0,0,2,2,3,3,6,6],"right_children":[2,-1,4,6,-1,-1,8,-1,-1],"split_conditions":[5.924423E-6,1.9900395E-2,4.7757874E-11,1.9538513E1,3.398096E-2,6.6322304E-2,4.991848E-1,8.9643285E-2,4.206699E-2],"split_indices":[11,0,14,5,0,0,2,0,0],"split_type":[0,0,0,0,0,0,0,0,0],"sum_hessian":[1.01E2,1E0,1E2,9.8E1,2E0,1.9E1,7.9E1,7.6E1,3E0],"tree_param":{"num_deleted":"0","num_feature":"17","num_nodes":"9","size_leaf_vector":"0"}},{"base_weights":[4.0901655E-1,5.061883E-1,3.2671025E-1,3.03583E-1,5.691689E-1,-2.9153055E-1,3.411511E-1,-4.140249E-2,3.3330515E-1,5.945217E-1,8.366394E-2,4.810641E-1,2.9879773E-1,4.1162968E-1,1.2565997E-1,6.486428E-1,3.3078274E-1,5.709215E-1,2.2310802E-1,-1.3670832E-2,3.1861183E-1,2.1102497E-1,4.7676122E-1,1.4378887E-1,6.6201556E-1,1.6321361E-2,3.7337416E-1,-1.3407755E-1,7.1157254E-2,3.26058E-1,-1.5678942E-2,6.847914E-1,2.5154486E-1,1.08095944E-1,3.995712E-1,1.0685805E-1,3.3342558E-1],"categories":[],"categories_nodes":[],"categories_segments":[],"categories_sizes":[],"default_left":[1,1,1,1,1,0,1,0,1,1,0,1,1,1,0,1,1,0,0,1,1,0,0,0,1,0,1,0,0,1,0,0,0,0,0,0,0],"id":52,"left_children":[1,3,5,7,9,-1,11,-1,13,15,-1,17,19,21,-1,23,25,-1,-1,27,29,-1,-1,-1,31,-1,33,-1,-1,35,-1,-1,-1,-1,-1,-1,-1],"loss_changes":[7.3838043E-1,4.6522045E-1,6.708412E-1,1.5735161E-1,4.0568924E-1,0E0,2.2958374E-1,0E0,1.5970278E-1,2.850237E-1,0E0,1.7395306E-1,3.2011127E-1,1.6982794E-2,0E0,9.384632E-2,1.0105288E-1,0E0,0E0,5.0396077E-2,1.2459326E-1,0E0,0E0,0E0,8.016205E-2,0E0,5.4545403E-3,0E0,0E0,4.027462E-2,0E0,0E0,0E0,0E0,0E0,0E0,0E0],"parents":[2147483647,0,0,1,1,2,2,3,3,4,4,6,6,8,8,9,9,11,11,12,12,13,13,15,15,16,16,19,19,20,20,24,24,26,26,29,29],"right_children":[2,4,6,8,10,-1,12,-1,14,16,-1,18,20,22,-1,24,26,-1,-1,28,30,-1,-1,-1,32,-1,34,-1,-1,36,-1,-1,-1,-1,-1,-1,-1],"split_conditions":[2.433039E1,3.483994E1,1.4503204E1,1.351799E-1,1.0756898E2,-2.9153055E-2,-7.6777205E-2,-4.140249E-3,6.722612E1,7.8662354E-1,8.366394E-3,7.98954E-1,-7.059449E-2,4.987387E-1,1.2565997E-2,5.7376137E1,7.882864E-1,5.709215E-2,2.2310803E-2,5.446381E-1,3.7238429E0,2.1102497E-2,4.7676124E-2,1.4378888E-2,7.8177414E1,1.6321362E-3,9.828785E-2,-1.3407755E-2,7.1157254E-3,2.4411255E1,-1.5678942E-3,6.847914E-2,2.5154486E-2,1.0809595E-2,3.995712E-2,1.0685805E-2,3.334256E-2],"split_indices":[10,12,5,1,5,0,16,0,5,1,0,1,16,1,0,7,1,0,0,1,4,0,0,0,5,0,13,0,0,10,0,0,0,0,0,0,0],"split_type":[0,0,0,0,0,0,0,0,0,0,0,0,0,0,0,0,0,0,0,0,0,0,0,0,0,0,0,0,0,0,0,0,0,0,0,0,0],"sum_hessian":[1.12E2,4.9E1,6.3E1,1.3E1,3.6E1,1E0,6.2E1,1E0,1.2E1,3.4E1,2E0,1.2E1,5E1,8E0,4E0,2.7E1,7E0,8E0,4E0,3E0,4.7E1,3E0,5E0,1E0,2.6E1,1E0,6E0,1E0,2E0,4.6E1,1E0,2.4E1,2E0,1E0,5E0,2E0,4.4E1],"tree_param":{"num_deleted":"0","num_feature":"17","num_nodes":"37","size_leaf_vector":"0"}},{"base_weights":[-4.2815176E-1,-3.8931212E-1,-5.951164E-1,-4.7306952E-1,-3.1954208E-1,-6.100465E-1,-1.5572181E-1,-4.9517286E-1,-2.1047014E-1,-3.26605E-1,-8.58956E-2,-2.4744956E-1,-6.3814914E-1,-7.859249E-1,-4.4779626E-1,-1.2876135E-1,-3.3571813E-1,1.1490583E-2,-1.4033398E-1,-8.0385846E-1,-4.7468418E-1,-1.7016561E-1,-4.5946583E-1,-3.5219792E-1,-2.0311454E-1,-5.671513E-1,-3.0310303E-1,-4.7188005E-1,-1.7803042E-1,-1.176304E-1,-3.6056706E-1,-2.13819E-2,-2.2602178E-1,-3.495155E-1,-3.5520375E-2],"categories":[],"categories_nodes":[],"categories_segments":[],"categories_sizes":[],"default_left":[1,1,1,1,1,1,0,1,0,1,1,0,1,0,1,0,1,0,0,0,1,0,1,1,1,0,1,0,0,0,0,0,0,0,0],"id":53,"left_children":[1,3,5,7,9,11,-1,13,-1,15,17,-1,19,-1,21,-1,23,-1,-1,-1,25,-1,27,29,31,-1,33,-1,-1,-1,-1,-1,-1,-1,-1],"loss_changes":[5.205574E-1,4.1567802E-1,3.6206722E-2,1.395626E-1,6.435871E-2,3.5699368E-2,0E0,1.7150974E-1,0E0,5.4133415E-2,1.7517159E-2,0E0,7.891083E-2,0E0,3.520918E-2,0E0,3.99127E-2,0E0,0E0,0E0,2.616644E-3,0E0,3.128624E-2,4.396391E-2,2.8471172E-2,0E0,6.2100112E-2,0E0,0E0,0E0,0E0,0E0,0E0,0E0,0E0],"parents":[2147483647,0,0,1,1,2,2,3,3,4,4,5,5,7,7,9,9,10,10,12,12,14,14,16,16,20,20,22,22,23,23,24,24,26,26],"right_children":[2,4,6,8,10,12,-1,14,-1,16,18,-1,20,-1,22,-1,24,-1,-1,-1,26,-1,28,30,32,-1,34,-1,-1,-1,-1,-1,-1,-1,-1],"split_conditions":[1.1978971E-3,1.0010068E-1,4.8389425E0,1.26241255E1,5.557174E1,6.7833344E2,-1.5572182E-2,3.4811633E0,-2.1047015E-2,1.8266834E1,4.7812934E0,-2.4744956E-2,-6.944085E0,-7.8592494E-2,3.9405382E0,-1.2876135E-2,4.6474415E-1,1.1490583E-3,-1.4033399E-2,-8.038585E-2,1.419252E3,-1.7016562E-2,-3.2993015E-2,3.929811E0,2.7644821E1,-5.671513E-2,4.4792595E0,-4.7188006E-2,-1.7803041E-2,-1.176304E-2,-3.605671E-2,-2.13819E-3,-2.2602178E-2,-3.495155E-2,-3.5520375E-3],"split_indices":[11,13,0,4,12,8,0,0,0,5,0,0,4,0,0,0,2,0,0,0,8,0,16,9,5,0,0,0,0,0,0,0,0,0,0],"split_type":[0,0,0,0,0,0,0,0,0,0,0,0,0,0,0,0,0,0,0,0,0,0,0,0,0,0,0,0,0,0,0,0,0,0,0],"sum_hessian":[1.15E2,9.6E1,1.9E1,4.1E1,5.5E1,1.8E1,1E0,3.7E1,4E0,5.3E1,2E0,2E0,1.6E1,3E0,3.4E1,3E0,5E1,1E0,1E0,6E0,1E1,2E0,3.2E1,4.3E1,7E0,5E0,5E0,3E1,2E0,2E0,4.1E1,1E0,6E0,4E0,1E0],"tree_param":{"num_deleted":"0","num_feature":"17","num_nodes":"35","size_leaf_vector":"0"}},{"base_weights":[5.589129E-1,5.7695603E-1,4.3363664E-1,5.8358854E-1,2.818278E-1],"categories":[],"categories_nodes":[],"categories_segments":[],"categories_sizes":[],"default_left":[1,1,0,0,0],"id":54,"left_children":[1,3,-1,-1,-1],"loss_changes":[7.095337E-4,1.9527435E-2,0E0,0E0,0E0],"parents":[2147483647,0,0,1,1],"right_children":[2,4,-1,-1,-1],"split_conditions":[5.6174297E1,4.991848E-1,4.3363664E-2,5.8358856E-2,2.818278E-2],"split_indices":[12,2,0,0,0],"split_type":[0,0,0,0,0],"sum_hessian":[1.1E2,9.3E1,1.7E1,9E1,3E0],"tree_param":{"num_deleted":"0","num_feature":"17","num_nodes":"5","size_leaf_vector":"0"}},{"base_weights":[7.610283E-1,7.878942E-1,5.33798E-1,7.9689884E-1,3.5680014E-1,8.063331E-1,3.5945785E-1,1.8905377E-1,8.106154E-1,3.1124082E-1,8.1763077E-1],"categories":[],"categories_nodes":[],"categories_segments":[],"categories_sizes":[],"default_left":[1,1,0,1,0,1,0,0,1,0,0],"id":55,"left_children":[1,3,-1,5,-1,7,-1,-1,9,-1,-1],"loss_changes":[3.2419586E-1,1.3102722E-1,0E0,1.3935852E-1,0E0,1.13723755E-1,0E0,0E0,9.584808E-2,0E0,0E0],"parents":[2147483647,0,0,1,1,3,3,5,5,8,8],"right_children":[2,4,-1,6,-1,8,-1,-1,10,-1,-1],"split_conditions":[5.758236E1,5.876489E-11,5.33798E-2,4.9732113E-1,3.5680015E-2,5.924423E-6,3.5945784E-2,1.8905377E-2,1.5300398E1,3.1124083E-2,8.176308E-2],"split_indices":[12,14,0,2,0,11,0,0,5,0,0],"split_type":[0,0,0,0,0,0,0,0,0,0,0],"sum_hessian":[1.21E2,1.06E2,1.5E1,1.03E2,3E0,1E2,3E0,1E0,9.9E1,2E0,9.7E1],"tree_param":{"num_deleted":"0","num_feature":"17","num_nodes":"11","size_leaf_vector":"0"}},{"base_weights":[3.778968E-1,4.732858E-1,3.1700465E-1,-3.933236E-2,4.8674798E-1,3.4099895E-1,1.6861668E-1,2.9831952E-1,5.544315E-1,3.6923257E-1,2.0834923E-1,3.8111E-2,2.563906E-1,3.380068E-1,1.6721852E-1,6.64498E-1,4.234714E-1,3.839616E-1,1.0754073E-1,-1.6014397E-2,2.5059846E-1,-5.5066127E-2,9.84661E-2,-1.4895022E-2,4.536888E-1,4.0896314E-1,1.8624376E-1,-4.3138117E-2,1.911652E-2,1.08068705E-1,3.1660566E-1,-8.6569786E-4,-8.1733495E-2,1.9371092E-2,1.1837407E-1,2.2676069E-1,4.915241E-1,9.530798E-2,4.229632E-1,2.1814087E-1,7.100066E-2],"categories":[],"categories_nodes":[],"categories_segments":[],"categories_sizes":[],"default_left":[1,1,1,0,1,1,1,1,1,1,1,1,0,0,0,0,1,1,0,1,1,1,1,0,1,1,1,0,0,0,0,0,0,0,0,0,0,0,0,0,0],"id":56,"left_children":[1,3,5,-1,7,9,11,13,15,17,19,21,-1,-1,-1,-1,23,25,-1,27,29,31,33,-1,35,37,39,-1,-1,-1,-1,-1,-1,-1,-1,-1,-1,-1,-1,-1,-1],"loss_changes":[5.0632095E-1,3.089857E-1,1.988554E-1,0E0,3.574953E-1,1.5152693E-1,1.2768859E-1,1.111865E-2,1.3661957E-1,1.4757729E-1,1.2724268E-1,3.9164435E-2,0E0,0E0,0E0,0E0,2.186985E-1,1.5122223E-1,0E0,3.6832942E-3,6.92727E-2,4.2653913E-3,4.005447E-3,0E0,1.733017E-2,1.353364E-1,1.0243297E-2,0E0,0E0,0E0,0E0,0E0,0E0,0E0,0E0,0E0,0E0,0E0,0E0,0E0,0E0],"parents":[2147483647,0,0,1,1,2,2,4,4,5,5,6,6,7,7,8,8,9,9,10,10,11,11,16,16,17,17,19,19,20,20,21,21,22,22,24,24,25,25,26,26],"right_children":[2,4,6,-1,8,10,12,14,16,18,20,22,-1,-1,-1,-1,24,26,-1,28,30,32,34,-1,36,38,40,-1,-1,-1,-1,-1,-1,-1,-1,-1,-1,-1,-1,-1,-1],"split_conditions":[4.1839447E0,3.1111302E0,1.2843853E-1,-3.933236E-3,1.527437E3,6.3360947E1,1.5417581E2,1.0825173E3,2.794128E3,8.8813686E-1,6.8690384E1,-7.896543E0,2.563906E-2,3.380068E-2,1.6721852E-2,6.64498E-2,2.0388195E1,1.6526166E-11,1.0754073E-2,4.4648004E0,4.2300835E1,4.481163E0,4.4860516E0,-1.4895023E-3,6.2031247E-2,3.620822E1,-6.122241E0,-4.3138117E-3,1.9116522E-3,1.0806871E-2,3.1660568E-2,-8.656979E-5,-8.173349E-3,1.9371093E-3,1.1837407E-2,2.267607E-2,4.915241E-2,9.5307985E-3,4.229632E-2,2.1814087E-2,7.1000657E-3],"split_indices":[0,0,13,0,8,5,9,8,8,1,5,4,0,0,0,0,5,14,0,0,12,0,0,0,13,12,4,0,0,0,0,0,0,0,0,0,0,0,0,0,0],"split_type":[0,0,0,0,0,0,0,0,0,0,0,0,0,0,0,0,0,0,0,0,0,0,0,0,0,0,0,0,0,0,0,0,0,0,0,0,0,0,0,0,0],"sum_hessian":[1.12E2,4.1E1,7.1E1,1E0,4E1,6E1,1.1E1,1.2E1,2.8E1,4.8E1,1.2E1,5E0,6E0,8E0,4E0,1.3E1,1.5E1,4.5E1,3E0,2E0,1E1,2E0,3E0,1E0,1.4E1,3.9E1,6E0,1E0,1E0,4E0,6E0,1E0,1E0,1E0,2E0,3E0,1.1E1,2E0,3.7E1,4E0,2E0],"tree_param":{"num_deleted":"0","num_feature":"17","num_nodes":"41","size_leaf_vector":"0"}},{"base_weights":[-4.0222526E-1,-5.556403E-1,-3.5228643E-1,-6.578552E-1,-2.781154E-1,-2.6829398E-1,-4.074453E-1,-7.1451753E-1,-1.17483936E-1,-8.240213E-2,-3.2226172E-1,-3.2620028E-1,-1.7416814E-1,-9.410581E-2,-4.1166133E-1,-8.441856E-1,-3.360951E-1,-3.4448457E-1,-9.446235E-2,-2.703406E-1,-4.3941262E-1,-2.2365074E-1,-7.152863E-2,-5.8145016E-1,-3.8539872E-1,-1.7435983E-1,-8.89228E-1,-8.2521975E-2,-2.886603E-1,-6.831577E-2,-2.5057897E-1,-9.638138E-2,-6.264498E-3,-3.9728695E-1,-2.0370238E-1,-9.6471447E-1,-3.6635908E-1,-2.0312801E-2,1.0916054E-2],"categories":[],"categories_nodes":[],"categories_segments":[],"categories_sizes":[],"default_left":[1,1,1,1,1,1,1,1,0,0,1,1,1,0,1,1,0,0,0,1,0,1,1,0,1,0,1,0,0,0,0,0,1,0,0,0,0,0,0],"id":57,"left_children":[1,3,5,7,9,11,13,15,-1,-1,17,19,21,-1,23,25,-1,-1,-1,27,-1,29,31,-1,33,-1,35,-1,-1,-1,-1,-1,37,-1,-1,-1,-1,-1,-1],"loss_changes":[7.00634E-1,5.8295536E-1,3.1228065E-1,4.9781036E-1,5.120516E-2,1.5575504E-1,3.127575E-2,5.504513E-1,0E0,0E0,2.8956532E-3,2.666092E-2,7.0343316E-2,0E0,7.782936E-3,2.0700073E-1,0E0,0E0,0E0,3.8113236E-2,0E0,2.8893411E-2,1.07501745E-2,0E0,2.2754192E-2,0E0,8.0732346E-2,0E0,0E0,0E0,0E0,0E0,9.458084E-4,0E0,0E0,0E0,0E0,0E0,0E0],"parents":[2147483647,0,0,1,1,2,2,3,3,4,4,5,5,6,6,7,7,10,10,11,11,12,12,14,14,15,15,19,19,21,21,22,22,24,24,26,26,32,32],"right_children":[2,4,6,8,10,12,14,16,-1,-1,18,20,22,-1,24,26,-1,-1,-1,28,-1,30,32,-1,34,-1,36,-1,-1,-1,-1,-1,38,-1,-1,-1,-1,-1,-1],"split_conditions":[2.0481945E1,-2.5580864E0,6.384063E-2,-1.8726561E-2,2.0774766E3,-4.837081E-2,2.4562195E1,8.1111725E1,-1.1748394E-2,-8.240214E-3,4.9734488E-1,-1.4593632E0,-4.963718E0,-9.410582E-3,1.8068203E1,3.1877604E0,-3.360951E-2,-3.4448456E-2,-9.446235E-3,1.4428883E2,-4.3941263E-2,2.401845E1,1.2368793E2,-5.8145016E-2,5.7021667E1,-1.7435983E-2,4.4332023E0,-8.252198E-3,-2.8866028E-2,-6.8315766E-3,-2.5057897E-2,-9.638138E-3,4.05829E0,-3.9728697E-2,-2.0370238E-2,-9.647145E-2,-3.663591E-2,-2.0312802E-3,1.0916054E-3],"split_indices":[10,4,15,16,8,16,7,5,0,0,2,4,4,0,5,0,0,0,0,7,0,10,7,0,12,0,0,0,0,0,0,0,0,0,0,0,0,0,0],"split_type":[0,0,0,0,0,0,0,0,0,0,0,0,0,0,0,0,0,0,0,0,0,0,0,0,0,0,0,0,0,0,0,0,0,0,0,0,0,0,0],"sum_hessian":[1.16E2,2.6E1,9E1,1.8E1,8E0,3.8E1,5.2E1,1.6E1,2E0,2E0,6E0,2.2E1,1.6E1,1E0,5.1E1,1.1E1,5E0,5E0,1E0,1.7E1,5E0,1E1,6E0,4E0,4.7E1,1E0,1E1,2E0,1.5E1,2E0,8E0,4E0,2E0,4.3E1,4E0,8E0,2E0,1E0,1E0],"tree_param":{"num_deleted":"0","num_feature":"17","num_nodes":"39","size_leaf_vector":"0"}},{"base_weights":[5.060669E-1],"categories":[],"categories_nodes":[],"categories_segments":[],"categories_sizes":[],"default_left":[0],"id":58,"left_children":[-1],"loss_changes":[0E0],"parents":[2147483647],"right_children":[-1],"split_conditions":[5.0606694E-2],"split_indices":[0],"split_type":[0],"sum_hessian":[1.06E2],"tree_param":{"num_deleted":"0","num_feature":"17","num_nodes":"1","size_leaf_vector":"0"}},{"base_weights":[6.985237E-1,7.309462E-1,5.3837764E-1,5.122011E-1,7.616719E-1,3.7663227E-1,6.103161E-1],"categories":[],"categories_nodes":[],"categories_segments":[],"categories_sizes":[],"default_left":[1,1,1,0,0,0,0],"id":59,"left_children":[1,3,5,-1,-1,-1,-1],"loss_changes":[2.2955322E-1,2.6181793E-1,4.93927E-2,0E0,0E0,0E0,0E0],"parents":[2147483647,0,0,1,1,2,2],"right_children":[2,4,6,-1,-1,-1,-1],"split_conditions":[1.1974587E-3,7.606181E-2,2.488727E-1,5.1220108E-2,7.616719E-2,3.766323E-2,6.103161E-2],"split_indices":[11,13,2,0,0,0,0],"split_type":[0,0,0,0,0,0,0],"sum_hessian":[1.19E2,9.6E1,2.3E1,1.4E1,8.2E1,9E0,1.4E1],"tree_param":{"num_deleted":"0","num_feature":"17","num_nodes":"7","size_leaf_vector":"0"}},{"base_weights":[3.2127798E-1,2.963622E-1,4.939739E-1,3.136234E-1,-3.8355267E-1,9.932359E-2,5.566991E-1,2.9031143E-1,5.4833615E-1,5.8927876E-1,1.1545128E-1,3.4033546E-1,2.3304623E-1,3.7796816E-1,1.5953436E-1,1.2821259E-1,2.615173E-1,3.9385185E-1,1.405229E-1,1.5398587E-1,-7.764682E-2,5.4461956E-3,2.764201E-1],"categories":[],"categories_nodes":[],"categories_segments":[],"categories_sizes":[],"default_left":[1,1,1,1,0,0,1,1,0,0,0,1,1,1,0,1,1,0,0,0,0,0,0],"id":60,"left_children":[1,3,5,7,-1,-1,9,11,-1,-1,-1,13,15,17,-1,19,21,-1,-1,-1,-1,-1,-1],"loss_changes":[3.4843254E-1,1.329114E0,2.665155E-1,3.9344501E-1,0E0,0E0,9.009981E-2,1.8996191E-1,0E0,0E0,0E0,2.6629448E-1,1.0675216E-1,9.174347E-2,0E0,7.56246E-2,1.358769E-1,0E0,0E0,0E0,0E0,0E0,0E0],"parents":[2147483647,0,0,1,1,2,2,3,3,6,6,7,7,11,11,12,12,13,13,15,15,16,16],"right_children":[2,4,6,8,-1,-1,10,12,-1,-1,-1,14,16,18,-1,20,22,-1,-1,-1,-1,-1,-1],"split_conditions":[2.437123E-3,1.8296355E-3,4.3799072E1,4.895864E-1,-3.835527E-2,9.93236E-3,2.4291214E1,-4.837081E-2,5.4833617E-2,5.8927875E-2,1.1545128E-2,6.5691444E1,1.1334808E-1,4.7660333E-1,1.5953436E-2,6.0514256E1,3.7620625E-1,3.9385185E-2,1.405229E-2,1.5398587E-2,-7.764682E-3,5.446196E-4,2.764201E-2],"split_indices":[11,11,12,2,0,0,5,16,0,0,0,5,6,2,0,12,1,0,0,0,0,0,0],"split_type":[0,0,0,0,0,0,0,0,0,0,0,0,0,0,0,0,0,0,0,0,0,0,0],"sum_hessian":[1.14E2,1.02E2,1.2E1,1E2,2E0,2E0,1E1,9.3E1,7E0,9E0,1E0,4.7E1,4.6E1,3.8E1,9E0,1.1E1,3.5E1,3.5E1,3E0,1E1,1E0,2E0,3.3E1],"tree_param":{"num_deleted":"0","num_feature":"17","num_nodes":"23","size_leaf_vector":"0"}},{"base_weights":[-3.594655E-1,-3.2867607E-1,-5.4897463E-1,-7.6021135E-1,-3.1276155E-1,-5.948606E-1,-1.6714402E-1,-3.3496663E-1,-2.1679004E-1,-2.5972968E-1,-6.694269E-1,-2.9819214E-1,-4.0541378E-1,-2.2013187E-2,-2.3516706E-1,-1.9122514E-1,-3.2246724E-1,-4.250163E-1,-1.1998991E-1,1.03702545E-2,-4.3390036E-2,-2.4314974E-1,-4.1747987E-2,-2.1526898E-1,-3.9322685E-2,-3.2836336E-1,-3.1518877E-2,-8.4772564E-2,-2.5679573E-1],"categories":[],"categories_nodes":[],"categories_segments":[],"categories_sizes":[],"default_left":[1,1,1,0,1,1,0,1,1,0,0,1,1,1,1,1,1,0,0,0,0,1,0,0,0,0,0,0,0],"id":61,"left_children":[1,3,5,-1,7,9,-1,11,13,-1,-1,15,17,19,21,23,25,-1,-1,-1,-1,27,-1,-1,-1,-1,-1,-1,-1],"loss_changes":[5.080824E-1,4.764738E-1,1.6338205E-1,0E0,1.4474964E-1,1.5099335E-1,0E0,8.8952065E-2,7.357049E-2,0E0,0E0,8.6343765E-2,8.8878155E-2,2.5267336E-3,2.0729184E-2,3.9015114E-2,6.684685E-2,0E0,0E0,0E0,0E0,1.9293785E-2,0E0,0E0,0E0,0E0,0E0,0E0,0E0],"parents":[2147483647,0,0,1,1,2,2,4,4,5,5,7,7,8,8,11,11,12,12,13,13,14,14,15,15,16,16,21,21],"right_children":[2,4,6,-1,8,10,-1,12,14,-1,-1,16,18,20,22,24,26,-1,-1,-1,-1,28,-1,-1,-1,-1,-1,-1,-1],"split_conditions":[5.7770626E1,1.4170051E0,-3.1080097E-2,-7.6021135E-2,2.6960094E1,-4.5803785E-2,-1.6714402E-2,3.6367853E-12,2.7104795E1,-2.5972968E-2,-6.694269E-2,1.5438516E2,8.165144E-1,4.586458E0,5.026227E0,2.0169368E-1,1.2844133E2,-4.2501632E-2,-1.19989915E-2,1.0370255E-3,-4.3390035E-3,1.638824E1,-4.1747987E-3,-2.15269E-2,-3.932269E-3,-3.2836337E-2,-3.1518878E-3,-8.477257E-3,-2.5679573E-2],"split_indices":[12,10,16,0,10,16,0,14,10,0,0,7,6,0,0,6,5,0,0,0,0,5,0,0,0,0,0,0,0],"split_type":[0,0,0,0,0,0,0,0,0,0,0,0,0,0,0,0,0,0,0,0,0,0,0,0,0,0,0,0,0],"sum_hessian":[1.17E2,1.03E2,1.4E1,2E0,1.01E2,1.2E1,2E0,8E1,2.1E1,3E0,9E0,5.6E1,2.4E1,2E0,1.9E1,1.2E1,4.4E1,2.2E1,2E0,1E0,1E0,1.8E1,1E0,1E1,2E0,4.3E1,1E0,2E0,1.6E1],"tree_param":{"num_deleted":"0","num_feature":"17","num_nodes":"29","size_leaf_vector":"0"}},{"base_weights":[4.54134E-1],"categories":[],"categories_nodes":[],"categories_segments":[],"categories_sizes":[],"default_left":[0],"id":62,"left_children":[-1],"loss_changes":[0E0],"parents":[2147483647],"right_children":[-1],"split_conditions":[4.54134E-2],"split_indices":[0],"split_type":[0],"sum_hessian":[1.02E2],"tree_param":{"num_deleted":"0","num_feature":"17","num_nodes":"1","size_leaf_vector":"0"}},{"base_weights":[6.2885827E-1,6.6893095E-1,4.7175556E-1,4.493978E-1,6.943379E-1,5.488999E-1,3.1672606E-1,7.005112E-1,2.9003954E-1,3.3111987E-1,6.071907E-1,7.040592E-1,2.0301557E-1],"categories":[],"categories_nodes":[],"categories_segments":[],"categories_sizes":[],"default_left":[1,1,1,0,1,1,0,1,0,0,0,0,0],"id":63,"left_children":[1,3,5,-1,7,9,-1,11,-1,-1,-1,-1,-1],"loss_changes":[4.7766113E-1,2.34581E-1,1.7297888E-1,0E0,1.146698E-2,2.7449608E-2,0E0,5.332947E-3,0E0,0E0,0E0,0E0,0E0],"parents":[2147483647,0,0,1,1,2,2,4,4,5,5,7,7],"right_children":[2,4,6,-1,8,10,-1,12,-1,-1,-1,-1,-1],"split_conditions":[1.1974587E-3,7.606181E-2,1.0733229E-1,4.4939782E-2,5.9864334E1,4.2728126E-2,3.1672608E-2,4.9839962E-1,2.9003954E-2,3.3111986E-2,6.0719073E-2,7.040592E-2,2.0301556E-2],"split_indices":[11,13,13,0,12,15,0,2,0,0,0,0,0],"split_type":[0,0,0,0,0,0,0,0,0,0,0,0,0],"sum_hessian":[1.25E2,9.7E1,2.8E1,1.2E1,8.5E1,1.7E1,1.1E1,8.3E1,2E0,5E0,1.2E1,8.2E1,1E0],"tree_param":{"num_deleted":"0","num_feature":"17","num_nodes":"13","size_leaf_vector":"0"}},{"base_weights":[2.8992316E-1,5.209316E-1,2.604806E-1,5.569038E-1,6.261885E-2,-8.361541E-2,2.7152917E-1,2.2275014E-1,6.0641015E-1,8.280005E-2,-2.914309E-1,2.9868513E-1,9.5922604E-2,6.466065E-1,1.4241958E-1,3.4274933E-1,2.1619377E-1,1.7682172E-1,-2.8661448E-1,2.0849894E-1,3.7933874E-1,2.5219867E-1,9.2158645E-2,-2.746767E-1,2.3733632E-1,2.1843533E-1,3.9662898E-2,3.9856595E-1,9.703866E-2,2.608462E-1,2.2328794E-2,1.2136453E-1,-6.7079463E-3,-3.763804E-2,2.6575562E-1],"categories":[],"categories_nodes":[],"categories_segments":[],"categories_sizes":[],"default_left":[1,1,1,1,0,1,1,0,1,0,0,1,1,0,0,1,1,1,0,1,1,1,1,0,1,0,0,0,0,0,0,0,0,0,0],"id":64,"left_children":[1,3,5,7,-1,9,11,-1,13,-1,-1,15,17,-1,-1,19,21,23,-1,25,27,29,31,-1,33,-1,-1,-1,-1,-1,-1,-1,-1,-1,-1],"loss_changes":[6.464777E-1,1.629653E-1,4.18087E-1,4.6891928E-2,0E0,1.6246533E-1,4.5299482E-1,0E0,7.576728E-2,0E0,0E0,2.4213696E-1,5.148834E-1,0E0,0E0,1.9107676E-1,1.2413144E-1,4.2037997E-1,0E0,1.48229E-2,1.8929291E-1,4.3870926E-2,2.6801474E-2,0E0,1.0377747E-1,0E0,0E0,0E0,0E0,0E0,0E0,0E0,0E0,0E0,0E0],"parents":[2147483647,0,0,1,1,2,2,3,3,5,5,6,6,8,8,11,11,12,12,15,15,16,16,17,17,19,19,20,20,21,21,22,22,24,24],"right_children":[2,4,6,8,-1,10,12,-1,14,-1,-1,16,18,-1,-1,20,22,24,-1,26,28,30,32,-1,34,-1,-1,-1,-1,-1,-1,-1,-1,-1,-1],"split_conditions":[1.7221859E1,1.1602891E2,2.4417727E1,3.432204E-1,6.261885E-3,-1.4092431E0,2.4802236E-1,2.2275014E-2,5.0170946E-1,8.280005E-3,-2.914309E-2,-3.6193907E-2,2.581295E1,6.466065E-2,1.4241958E-2,1.10367134E-1,2.556374E3,1.6221563E1,-2.8661449E-2,-1.8828466E0,7.119043E1,8.688619E-1,3.915413E3,-2.7467672E-2,1.351799E-1,2.1843534E-2,3.96629E-3,3.9856594E-2,9.703866E-3,2.608462E-2,2.2328794E-3,1.2136453E-2,-6.7079463E-4,-3.763804E-3,2.6575563E-2],"split_indices":[10,5,12,2,0,4,6,0,2,0,0,16,10,0,0,6,8,5,0,4,5,1,8,0,1,0,0,0,0,0,0,0,0,0,0],"split_type":[0,0,0,0,0,0,0,0,0,0,0,0,0,0,0,0,0,0,0,0,0,0,0,0,0,0,0,0,0,0,0,0,0,0,0],"sum_hessian":[1.14E2,1.1E1,1.03E2,1E1,1E0,3E0,1E2,2E0,8E0,2E0,1E0,8.6E1,1.4E1,7E0,1E0,5.4E1,3.2E1,1.2E1,2E0,1.3E1,4.1E1,2.4E1,8E0,1E0,1.1E1,1.2E1,1E0,3.8E1,3E0,2.3E1,1E0,6E0,2E0,1E0,1E1],"tree_param":{"num_deleted":"0","num_feature":"17","num_nodes":"35","size_leaf_vector":"0"}},{"base_weights":[-3.300367E-1,-2.8780258E-1,-5.104999E-1,-3.4834135E-1,-2.3586504E-1,-5.6993544E-1,-2.3009333E-1,-2.1598344E-1,-3.865343E-1,-2.0116739E-1,-3.437504E-1,-5.977678E-1,-9.01413E-2,-1.0047483E-1,-2.3473884E-1,-9.608595E-2,-3.5890824E-1,-2.3213063E-1,-6.393631E-1,-1.1140013E-1,9.851754E-3,-2.529056E-1,-9.332389E-2,-1.19073935E-1,-1.7331034E-2,-1.9514585E-1,-3.584718E-1,-1.1043744E-1,-1.243484E-2],"categories":[],"categories_nodes":[],"categories_segments":[],"categories_sizes":[],"default_left":[1,1,1,1,1,1,0,0,0,1,1,1,0,1,1,0,0,0,0,1,0,1,1,0,0,0,0,0,0],"id":65,"left_children":[1,3,5,7,9,11,-1,-1,-1,13,15,17,-1,19,21,-1,-1,-1,-1,23,-1,25,27,-1,-1,-1,-1,-1,-1],"loss_changes":[6.686001E-1,1.9767523E-1,1.8551779E-1,1.13665104E-1,1.2176037E-1,1.4642334E-1,0E0,0E0,0E0,1.1501086E-1,6.8086386E-3,6.4507484E-2,0E0,1.5561707E-2,5.346942E-2,0E0,0E0,0E0,0E0,5.876854E-3,0E0,8.858025E-2,5.548224E-3,0E0,0E0,0E0,0E0,0E0,0E0],"parents":[2147483647,0,0,1,1,2,2,3,3,4,4,5,5,9,9,10,10,11,11,13,13,14,14,19,19,21,21,22,22],"right_children":[2,4,6,8,10,12,-1,-1,-1,14,16,18,-1,20,22,-1,-1,-1,-1,24,-1,26,28,-1,-1,-1,-1,-1,-1],"split_conditions":[1.314399E-3,1.0010068E-1,1.9055883E3,3.483994E1,2.447087E3,1.1617763E-2,-2.3009334E-2,-2.1598345E-2,-3.865343E-2,1.9559756E-4,3.4166903E0,6.7833344E2,-9.01413E-3,1.7961956E3,4.688151E0,-9.608596E-3,-3.5890825E-2,-2.3213064E-2,-6.3936315E-2,1.4919062E-1,9.851754E-4,5.6736683E-4,8.274006E-3,-1.1907394E-2,-1.7331034E-3,-1.9514585E-2,-3.5847183E-2,-1.1043744E-2,-1.2434841E-3],"split_indices":[11,13,8,12,9,11,0,0,0,11,0,8,0,9,0,0,0,0,0,13,0,11,3,0,0,0,0,0,0],"split_type":[0,0,0,0,0,0,0,0,0,0,0,0,0,0,0,0,0,0,0,0,0,0,0,0,0,0,0,0,0],"sum_hessian":[1.06E2,8.8E1,1.8E1,3.8E1,5E1,1.4E1,4E0,1E1,2.8E1,4E1,1E1,1.3E1,1E0,1.1E1,2.9E1,1E0,9E0,2E0,1.1E1,1E1,1E0,2.5E1,4E0,9E0,1E0,1.8E1,7E0,3E0,1E0],"tree_param":{"num_deleted":"0","num_feature":"17","num_nodes":"29","size_leaf_vector":"0"}},{"base_weights":[4.025331E-1,1.6364193E-1,4.077504E-1,4.245574E-1,3.0199638E-1,1.9627178E-1,4.302386E-1],"categories":[],"categories_nodes":[],"categories_segments":[],"categories_sizes":[],"default_left":[1,0,1,1,0,0,0],"id":66,"left_children":[1,-1,3,5,-1,-1,-1],"loss_changes":[6.912804E-2,0E0,6.01902E-2,3.0984879E-2,0E0,0E0,0E0],"parents":[2147483647,0,0,2,2,3,3],"right_children":[2,-1,4,6,-1,-1,-1],"split_conditions":[3.2837238E0,1.6364193E-2,5.6174297E1,7.778755E0,3.0199638E-2,1.9627178E-2,4.3023862E-2],"split_indices":[0,0,12,10,0,0,0],"split_type":[0,0,0,0,0,0,0],"sum_hessian":[1.08E2,3E0,1.05E2,8.8E1,1.7E1,3E0,8.5E1],"tree_param":{"num_deleted":"0","num_feature":"17","num_nodes":"7","size_leaf_vector":"0"}},{"base_weights":[5.788549E-1,5.9206855E-1,3.3637238E-1,3.4385327E-1,6.0658574E-1,5.7047397E-1,7.773495E-1],"categories":[],"categories_nodes":[],"categories_segments":[],"categories_sizes":[],"default_left":[1,1,0,0,1,0,0],"id":67,"left_children":[1,3,-1,-1,5,-1,-1],"loss_changes":[1.5329361E-1,1.6257095E-1,0E0,0E0,1.4853668E-1,0E0,0E0],"parents":[2147483647,0,0,1,1,4,4],"right_children":[2,4,-1,-1,6,-1,-1],"split_conditions":[5.9531845E1,1.6668606E1,3.3637237E-2,3.4385327E-2,4.266748E3,5.7047397E-2,7.773495E-2],"split_indices":[12,10,0,0,8,0,0],"split_type":[0,0,0,0,0,0,0],"sum_hessian":[1.09E2,1.02E2,7E0,7E0,9.5E1,8.2E1,1.3E1],"tree_param":{"num_deleted":"0","num_feature":"17","num_nodes":"7","size_leaf_vector":"0"}},{"base_weights":[2.5126782E-1,3.239858E-1,1.7406294E-1,3.979889E-1,2.0050356E-1,2.1753885E-1,-4.7680177E-2,2.604366E-1,4.524514E-1,-1.5329397E-1,2.2355317E-1,4.166479E-2,2.3293027E-1,-3.9288425E-1,1.5639076E-1,3.1195417E-1,1.2592117E-1,4.738954E-1,1.5152633E-1,2.4131575E-1,-7.4730486E-2,-4.7899544E-2,7.603076E-2,1.765918E-1,2.6297498E-1,4.422605E-2,2.2945777E-1,3.41968E-1,5.0928652E-2,2.5702477E-1,6.1386783E-2,1.8930578E-1,4.9919922E-2,2.1558686E-1,3.6080176E-1,9.106747E-2,-4.814911E-2,6.4234376E-2,2.6416677E-1,3.767973E-2,1.9690222E-1,4.9169064E-3,6.996298E-2,4.9109697E-2,2.2176409E-1,8.528644E-2,3.9250657E-1],"categories":[],"categories_nodes":[],"categories_segments":[],"categories_sizes":[],"default_left":[1,1,1,1,1,1,1,1,1,0,1,1,1,0,1,1,0,0,0,1,0,0,0,1,1,1,0,0,0,1,0,1,1,1,1,0,0,0,0,0,0,0,0,0,0,0,0],"id":68,"left_children":[1,3,5,7,9,11,13,15,17,-1,19,21,23,-1,25,27,-1,-1,-1,29,-1,-1,-1,31,33,35,-1,-1,-1,37,-1,39,41,43,45,-1,-1,-1,-1,-1,-1,-1,-1,-1,-1,-1,-1],"loss_changes":[5.667801E-1,4.3193388E-1,5.502393E-1,1.368742E-1,2.2183198E-1,1.17522E-1,7.6590466E-1,4.3877244E-2,7.6611996E-2,0E0,1.3459587E-1,1.9031666E-2,2.6345491E-2,0E0,4.7220767E-2,4.5259118E-2,0E0,0E0,0E0,4.3578744E-2,0E0,0E0,0E0,1.9538939E-2,4.2747498E-2,2.1692751E-2,0E0,0E0,0E0,9.192705E-3,0E0,1.1009812E-2,2.3619914E-3,9.676635E-3,2.7670562E-2,0E0,0E0,0E0,0E0,0E0,0E0,0E0,0E0,0E0,0E0,0E0,0E0],"parents":[2147483647,0,0,1,1,2,2,3,3,4,4,5,5,6,6,7,7,8,8,10,10,11,11,12,12,14,14,15,15,19,19,23,23,24,24,25,25,29,29,31,31,32,32,33,33,34,34],"right_children":[2,4,6,8,10,12,14,16,18,-1,20,22,24,-1,26,28,-1,-1,-1,30,-1,-1,-1,32,34,36,-1,-1,-1,38,-1,40,42,44,46,-1,-1,-1,-1,-1,-1,-1,-1,-1,-1,-1,-1],"split_conditions":[7.2440624E-2,2.498906E1,1.6012619E-3,-7.786568E-2,3.6993923E0,7.345483E-5,4.3009586E0,6.578354E1,7.5946903E-1,-1.5329397E-2,5.534309E1,4.259158E0,1.0164063E-1,-3.9288428E-2,-3.1197263E-2,4.8700953E0,1.2592117E-2,4.738954E-2,1.5152633E-2,4.9865017E0,-7.4730488E-3,-4.7899545E-3,7.6030763E-3,-2.947725E-2,2.9019773E-2,4.5319014E0,2.2945777E-2,3.41968E-2,5.0928653E-3,1.249006E-5,6.138678E-3,6.407639E-2,4.469783E0,6.635973E-2,3.3142428E0,9.106747E-3,-4.814911E-3,6.4234375E-3,2.6416678E-2,3.7679733E-3,1.9690221E-2,4.9169065E-4,6.9962977E-3,4.9109696E-3,2.217641E-2,8.528644E-3,3.9250657E-2],"split_indices":[15,10,11,16,0,11,0,5,6,0,12,0,15,0,16,0,0,0,0,0,0,0,0,16,4,0,0,0,0,11,0,13,0,6,0,0,0,0,0,0,0,0,0,0,0,0,0],"split_type":[0,0,0,0,0,0,0,0,0,0,0,0,0,0,0,0,0,0,0,0,0,0,0,0,0,0,0,0,0,0,0,0,0,0,0,0,0,0,0,0,0,0,0,0,0,0,0],"sum_hessian":[1.1E2,5.5E1,5.5E1,3.3E1,2.2E1,4.6E1,9E0,1.1E1,2.2E1,1E0,2.1E1,4E0,4.2E1,3E0,6E0,7E0,4E0,2E1,2E0,2E1,1E0,1E0,3E0,1.7E1,2.5E1,3E0,3E0,6E0,1E0,1.8E1,2E0,1.5E1,2E0,1.9E1,6E0,2E0,1E0,1E0,1.7E1,1E0,1.4E1,1E0,1E0,1E0,1.8E1,1E0,5E0],"tree_param":{"num_deleted":"0","num_feature":"17","num_nodes":"47","size_leaf_vector":"0"}},{"base_weights":[-2.9424778E-1,-3.959093E-1,-2.689544E-1,-4.851587E-1,-1.7360194E-1,-2.2138165E-1,-3.738824E-1,-5.769096E-1,-2.229754E-1,-2.3127063E-1,-8.8891365E-2,-3.8642794E-1,-1.4889093E-1,-6.0740876E-1,-1.6645825E-1,3.6057234E-3,-2.3545451E-1,-1.1643523E-1,-2.2535762E-2,-2.429768E-1,-1.0862745E-1,-2.4635302E-1,-3.3706903E-2,-1.2765995E-1,-1.6248733E-2],"categories":[],"categories_nodes":[],"categories_segments":[],"categories_sizes":[],"default_left":[1,1,1,1,0,1,1,1,0,1,1,0,0,0,0,0,1,0,0,1,1,0,0,0,0],"id":69,"left_children":[1,3,5,7,-1,9,11,13,-1,15,17,-1,-1,-1,-1,-1,19,-1,-1,21,23,-1,-1,-1,-1],"loss_changes":[1.6608334E-1,2.927506E-1,3.5650015E-1,1.8408561E-1,0E0,6.1984062E-2,1.5852451E-2,1.1557579E-2,0E0,5.7845354E-2,8.34218E-3,0E0,0E0,0E0,0E0,0E0,2.7985811E-2,0E0,0E0,2.9142857E-2,6.71668E-3,0E0,0E0,0E0,0E0],"parents":[2147483647,0,0,1,1,2,2,3,3,5,5,6,6,7,7,9,9,10,10,16,16,19,19,20,20],"right_children":[2,4,6,8,-1,10,12,14,-1,16,18,-1,-1,-1,-1,-1,20,-1,-1,22,24,-1,-1,-1,-1],"split_conditions":[2.0518658E1,-1.7194756E0,1.02743745E-1,7.8177414E1,-1.7360194E-2,1.7484946E-11,2.8343704E1,1.1491823E-11,-2.229754E-2,2.0597198E1,4.45866E0,-3.8642794E-2,-1.4889093E-2,-6.0740877E-2,-1.6645825E-2,3.6057233E-4,9.675312E-2,-1.1643523E-2,-2.2535762E-3,5.160981E0,4.5007806E0,-2.4635302E-2,-3.3706904E-3,-1.2765995E-2,-1.6248733E-3],"split_indices":[10,4,15,5,0,14,10,14,0,10,0,0,0,0,0,0,15,0,0,0,0,0,0,0,0],"split_type":[0,0,0,0,0,0,0,0,0,0,0,0,0,0,0,0,0,0,0,0,0,0,0,0,0],"sum_hessian":[1.05E2,1.8E1,8.7E1,1.2E1,6E0,6.2E1,2.5E1,8E0,4E0,5.7E1,5E0,2.3E1,2E0,7E0,1E0,1E0,5.6E1,3E0,2E0,5.2E1,4E0,5.1E1,1E0,3E0,1E0],"tree_param":{"num_deleted":"0","num_feature":"17","num_nodes":"25","size_leaf_vector":"0"}},{"base_weights":[3.654856E-1,3.3980522E-1,4.5509595E-1,3.866744E-1,3.0053052E-1,5.1237154E-1,2.5916654E-1,1.871379E-1,3.1343713E-1,7.252896E-2,3.1709757E-1],"categories":[],"categories_nodes":[],"categories_segments":[],"categories_sizes":[],"default_left":[1,1,1,0,1,0,0,0,1,0,0],"id":70,"left_children":[1,3,5,-1,7,-1,-1,-1,9,-1,-1],"loss_changes":[1.0309315E-1,5.1301956E-2,1.1409378E-1,0E0,2.0373821E-2,0E0,0E0,0E0,1.8446922E-2,0E0,0E0],"parents":[2147483647,0,0,1,1,2,2,4,4,8,8],"right_children":[2,4,6,-1,8,-1,-1,-1,10,-1,-1],"split_conditions":[1.1758854E-1,3.3859946E-4,2.7424295E1,3.866744E-2,1.7221859E1,5.1237155E-2,2.5916655E-2,1.871379E-2,3.192228E0,7.2528957E-3,3.1709757E-2],"split_indices":[15,11,10,0,10,0,0,0,0,0,0],"split_type":[0,0,0,0,0,0,0,0,0,0,0],"sum_hessian":[1.11E2,9E1,2.1E1,3.7E1,5.3E1,1.5E1,6E0,7E0,4.6E1,1E0,4.5E1],"tree_param":{"num_deleted":"0","num_feature":"17","num_nodes":"11","size_leaf_vector":"0"}},{"base_weights":[5.259452E-1,3.8094905E-1,5.526191E-1,3.986014E-1,1.4805174E-1,3.9893773E-1,5.736575E-1,1.1449361E-1,4.0857872E-1,1.5791321E-1,4.5031595E-1],"categories":[],"categories_nodes":[],"categories_segments":[],"categories_sizes":[],"default_left":[1,1,1,1,0,1,0,0,0,0,0],"id":71,"left_children":[1,3,5,7,-1,9,-1,-1,-1,-1,-1],"loss_changes":[2.0718384E-1,2.3210287E-2,5.8900833E-2,4.2436123E-3,0E0,1.02256775E-1,0E0,0E0,0E0,0E0,0E0],"parents":[2147483647,0,0,1,1,2,2,3,3,5,5],"right_children":[2,4,6,8,-1,10,-1,-1,-1,-1,-1],"split_conditions":[7.72132E-2,4.7506075E0,7.820418E1,-7.946318E0,1.4805174E-2,1.9923605E1,5.7365753E-2,1.1449361E-2,4.0857874E-2,1.5791321E-2,4.5031596E-2],"split_indices":[13,0,7,4,0,5,0,0,0,0,0],"split_type":[0,0,0,0,0,0,0,0,0,0,0],"sum_hessian":[1.07E2,1.9E1,8.8E1,1.7E1,2E0,1.3E1,7.5E1,1E0,1.6E1,3E0,1E1],"tree_param":{"num_deleted":"0","num_feature":"17","num_nodes":"11","size_leaf_vector":"0"}},{"base_weights":[2.4804682E-1,3.124858E-1,1.6621007E-1,2.621034E-1,4.6631244E-1,2.0542128E-1,-9.309405E-3,3.3258063E-1,1.947394E-1,7.728267E-2,4.8858008E-1,2.6639682E-1,1.4598496E-1,1.6890854E-1,-3.6341792E-1,1.1493197E-1,3.5820034E-1,-7.099399E-2,2.0676537E-1,1.11603856E-1,5.089933E-1,3.0329302E-1,3.376475E-2,1.6660155E-1,-6.073721E-2,6.610167E-2,1.9216055E-1,1.3104184E-1,3.3301175E-2,7.7453814E-2,3.8367608E-1,3.0877542E-1,1.5805843E-1,5.287971E-1,1.3567424E-1,1.8610519E-1,3.7843278E-1,-3.2548368E-2,6.671858E-2,1.7905071E-1,6.270543E-2,7.0783794E-2,3.3266225E-1,-6.015869E-2,1.8419491E-1,2.004194E-1,3.579575E-2,4.0154898E-1,8.5193455E-2,7.227704E-2,1.9364153E-1,4.671037E-3,8.049321E-2],"categories":[],"categories_nodes":[],"categories_segments":[],"categories_sizes":[],"default_left":[1,1,1,1,1,1,1,1,1,0,1,1,1,1,0,1,1,0,1,0,1,1,1,1,0,0,0,0,0,0,0,1,1,0,0,1,1,0,0,1,1,0,0,0,0,0,0,0,0,0,0,0,0],"id":72,"left_children":[1,3,5,7,9,11,13,15,17,-1,19,21,23,25,-1,27,29,-1,31,-1,33,35,37,39,-1,-1,-1,-1,-1,-1,-1,41,43,-1,-1,45,47,-1,-1,49,51,-1,-1,-1,-1,-1,-1,-1,-1,-1,-1,-1,-1],"loss_changes":[5.8087873E-1,3.8928795E-1,3.8044047E-1,1.8211031E-1,9.218311E-2,1.24197364E-1,7.555778E-1,9.265733E-2,1.0735464E-1,0E0,5.092883E-2,1.7000735E-1,1.16666555E-1,6.4216107E-3,0E0,8.964017E-4,1.20479584E-1,0E0,9.031618E-2,0E0,2.4366379E-2,8.8070154E-2,1.0912666E-2,1.852119E-2,0E0,0E0,0E0,0E0,0E0,0E0,0E0,2.1931767E-2,1.3085288E-1,0E0,0E0,1.2189895E-2,3.357649E-2,0E0,0E0,1.7162502E-2,3.7532263E-3,0E0,0E0,0E0,0E0,0E0,0E0,0E0,0E0,0E0,0E0,0E0,0E0],"parents":[2147483647,0,0,1,1,2,2,3,3,4,4,5,5,6,6,7,7,8,8,10,10,11,11,12,12,13,13,15,15,16,16,18,18,20,20,21,21,22,22,23,23,31,31,32,32,35,35,36,36,39,39,40,40],"right_children":[2,4,6,8,10,12,14,16,18,-1,20,22,24,26,-1,28,30,-1,32,-1,34,36,38,40,-1,-1,-1,-1,-1,-1,-1,42,44,-1,-1,46,48,-1,-1,50,52,-1,-1,-1,-1,-1,-1,-1,-1,-1,-1,-1,-1],"split_conditions":[7.513125E-2,2.9063758E-1,1.3909884E-3,1.0264811E-1,1.3270176E3,-5.4486096E-2,1.8421817E-1,6.751632E-2,1.0336146E-1,7.728267E-3,2.2922135E-13,6.3360947E1,3.020373E0,3.8561907E-3,-3.6341794E-2,7.84584E-2,-7.712817E0,-7.099399E-3,-4.0441655E-2,1.1160386E-2,5.1436367E3,8.317005E-3,6.732047E1,1.3419531E-1,-6.073721E-3,6.610167E-3,1.9216055E-2,1.31041845E-2,3.3301176E-3,7.7453814E-3,3.836761E-2,9.017135E2,1.11047626E-1,5.287971E-2,1.3567424E-2,6.267855E-3,5.5297592E1,-3.254837E-3,6.671858E-3,6.153948E0,3.4097374E1,7.0783794E-3,3.3266228E-2,-6.015869E-3,1.8419491E-2,2.004194E-2,3.5795749E-3,4.01549E-2,8.519346E-3,7.227704E-3,1.9364154E-2,4.6710373E-4,8.049321E-3],"split_indices":[15,6,11,13,8,16,6,13,13,0,14,5,4,11,0,3,4,0,16,0,8,3,5,13,0,0,0,0,0,0,0,8,6,0,0,3,12,0,0,9,5,0,0,0,0,0,0,0,0,0,0,0,0],"split_type":[0,0,0,0,0,0,0,0,0,0,0,0,0,0,0,0,0,0,0,0,0,0,0,0,0,0,0,0,0,0,0,0,0,0,0,0,0,0,0,0,0,0,0,0,0,0,0,0,0,0,0,0,0],"sum_hessian":[1.19E2,6.5E1,5.4E1,5.1E1,1.4E1,4.4E1,1E1,2.3E1,2.8E1,1E0,1.3E1,2E1,2.4E1,7E0,3E0,3E0,2E1,1E0,2.7E1,1E0,1.2E1,1.7E1,3E0,2.2E1,2E0,2E0,5E0,2E0,1E0,2E0,1.8E1,7E0,2E1,1.1E1,1E0,8E0,9E0,1E0,2E0,1.9E1,3E0,1E0,6E0,2E0,1.8E1,7E0,1E0,8E0,1E0,3E0,1.6E1,1E0,2E0],"tree_param":{"num_deleted":"0","num_feature":"17","num_nodes":"53","size_leaf_vector":"0"}},{"base_weights":[-2.6295826E-1,-2.3136593E-1,-4.328754E-1,-6.560823E-1,-2.1406117E-1,-4.7870684E-1,-8.998076E-2,-1.731063E-1,-2.9417655E-1,-5.369992E-1,-2.1329911E-1,1.0419995E-2,-1.7639352E-1,-1.2223244E-1,-3.2624125E-1,-5.916612E-1,-2.122343E-1,-1.9722515E-1,-1.221572E-1,-7.556099E-2,-3.3420122E-1,-2.0232704E-1,3.4254491E-3,-3.5984665E-3,-1.4416206E-1,-3.4786853E-1,-1.3168542E-1],"categories":[],"categories_nodes":[],"categories_segments":[],"categories_sizes":[],"default_left":[1,1,1,0,1,1,0,1,1,1,0,0,1,0,1,0,0,1,1,0,1,0,0,0,0,0,0],"id":73,"left_children":[1,3,5,-1,7,9,-1,11,13,15,-1,-1,17,-1,19,-1,-1,21,23,-1,25,-1,-1,-1,-1,-1,-1],"loss_changes":[4.5275927E-1,5.136738E-1,1.926558E-1,0E0,2.3453283E-1,8.658481E-2,0E0,3.8035512E-2,1.1449647E-1,5.1952124E-2,0E0,0E0,4.256761E-2,0E0,2.0641565E-2,0E0,0E0,4.2664886E-2,4.9049765E-2,0E0,1.5083551E-2,0E0,0E0,0E0,0E0,0E0,0E0],"parents":[2147483647,0,0,1,1,2,2,4,4,5,5,7,7,8,8,9,9,12,12,14,14,17,17,18,18,20,20],"right_children":[2,4,6,-1,8,10,-1,12,14,16,-1,-1,18,-1,20,-1,-1,22,24,-1,26,-1,-1,-1,-1,-1,-1],"split_conditions":[2.2837413E-3,1.4170051E0,-1.6717661E-2,-6.5608226E-2,-1.7696221E0,4.039776E2,-8.998076E-3,1.532645E0,3.4951725E0,-1.8886173E0,-2.1329911E-2,1.0419994E-3,1.2756215E-1,-1.2223244E-2,-1.5250392E-1,-5.9166122E-2,-2.1223431E-2,2.137517E-3,1.1356872E-1,-7.556099E-3,5.283049E1,-2.0232705E-2,3.4254492E-4,-3.5984666E-4,-1.4416206E-2,-3.4786854E-2,-1.3168543E-2],"split_indices":[11,10,16,0,4,9,0,10,0,4,0,0,13,0,16,0,0,11,6,0,12,0,0,0,0,0,0],"split_type":[0,0,0,0,0,0,0,0,0,0,0,0,0,0,0,0,0,0,0,0,0,0,0,0,0,0,0],"sum_hessian":[1.02E2,8.8E1,1.4E1,2E0,8.6E1,1.2E1,2E0,5.9E1,2.7E1,9E0,3E0,1E0,5.8E1,5E0,2.2E1,7E0,2E0,4E1,1.8E1,1E0,2.1E1,3.9E1,1E0,3E0,1.5E1,1.9E1,2E0],"tree_param":{"num_deleted":"0","num_feature":"17","num_nodes":"27","size_leaf_vector":"0"}},{"base_weights":[3.405802E-1,3.206028E-1,4.2674768E-1,2.5936618E-1,3.3886015E-1,4.4836545E-1,1.6199772E-1,2.7141067E-1,3.6445868E-1,1.4716959E-1,2.8890043E-1],"categories":[],"categories_nodes":[],"categories_segments":[],"categories_sizes":[],"default_left":[1,1,1,0,1,0,0,1,0,0,0],"id":74,"left_children":[1,3,5,-1,7,-1,-1,9,-1,-1,-1],"loss_changes":[6.458855E-2,2.2794724E-2,3.6108494E-2,0E0,2.7123451E-2,0E0,0E0,9.633541E-3,0E0,0E0,0E0],"parents":[2147483647,0,0,1,1,2,2,4,4,7,7],"right_children":[2,4,6,-1,8,-1,-1,10,-1,-1,-1],"split_conditions":[1.16578124E-1,2.3219612E1,1.7308533E-11,2.5936618E-2,4.854823E-13,4.4836547E-2,1.6199773E-2,3.6528645E0,3.6445867E-2,1.471696E-2,2.8890043E-2],"split_indices":[15,5,14,0,14,0,0,0,0,0,0],"split_type":[0,0,0,0,0,0,0,0,0,0,0],"sum_hessian":[1.16E2,9.8E1,1.8E1,2.6E1,7.2E1,1.6E1,2E0,2.3E1,4.9E1,4E0,1.9E1],"tree_param":{"num_deleted":"0","num_feature":"17","num_nodes":"11","size_leaf_vector":"0"}},{"base_weights":[4.6807525E-1,4.4262263E-1,7.1499723E-1,3.4230793E-1,4.7499228E-1,1.4540465E-1,3.52244E-1,4.9267244E-1,2.4548875E-1,2.666412E-1,5.032972E-1,6.3236E-2,3.016835E-1],"categories":[],"categories_nodes":[],"categories_segments":[],"categories_sizes":[],"default_left":[1,1,0,1,1,0,0,1,0,1,0,0,0],"id":75,"left_children":[1,3,-1,5,7,-1,-1,9,-1,11,-1,-1,-1],"loss_changes":[3.3086395E-1,1.4913177E-1,0E0,1.6059875E-3,1.630907E-1,0E0,0E0,1.9497871E-2,0E0,1.6561657E-2,0E0,0E0,0E0],"parents":[2147483647,0,0,1,1,3,3,4,4,7,7,9,9],"right_children":[2,4,-1,6,8,-1,-1,10,-1,12,-1,-1,-1],"split_conditions":[6.5671497E2,5.102664E-13,7.149973E-2,1.7506157E1,2.4676566E-11,1.4540466E-2,3.52244E-2,1.5300398E1,2.4548875E-2,-6.215124E0,5.0329722E-2,6.3235997E-3,3.0168349E-2],"split_indices":[7,14,0,5,14,0,0,5,0,4,0,0,0],"split_type":[0,0,0,0,0,0,0,0,0,0,0,0,0],"sum_hessian":[1.02E2,9.5E1,7E0,2.6E1,6.9E1,2E0,2.4E1,6.3E1,6E0,4E0,5.9E1,1E0,3E0],"tree_param":{"num_deleted":"0","num_feature":"17","num_nodes":"13","size_leaf_vector":"0"}},{"base_weights":[2.0756575E-1,2.2546877E-1,-4.6643473E-2,-1.3013868E-1,2.3388231E-1,-2.8885263E-1,8.2235016E-2,-2.3904426E-1,4.3836236E-2,2.2000995E-1,5.1181626E-1,2.5729155E-2,1.8238217E-1,2.0200877E-1,3.950221E-1,-3.0920923E-2,4.7621906E-2,-3.0187413E-2,2.2195528E-1,4.2116135E-1,1.0602367E-1,1.0392141E-1,-1.902766E-1,1.1614521E-1,2.474496E-1],"categories":[],"categories_nodes":[],"categories_segments":[],"categories_sizes":[],"default_left":[1,1,1,1,1,0,1,0,0,1,0,1,0,1,1,0,0,1,1,0,0,0,0,0,0],"id":76,"left_children":[1,3,5,7,9,-1,11,-1,-1,13,-1,15,-1,17,19,-1,-1,21,23,-1,-1,-1,-1,-1,-1],"loss_changes":[5.06588E-1,3.3561277E-1,2.734782E-1,6.731932E-2,2.7295542E-1,0E0,2.926087E-2,0E0,0E0,2.2579336E-1,0E0,7.6736426E-3,0E0,4.2353606E-1,1.5780449E-2,0E0,0E0,1.9152878E-1,1.9515657E-1,0E0,0E0,0E0,0E0,0E0,0E0],"parents":[2147483647,0,0,1,1,2,2,3,3,4,4,6,6,9,9,11,11,13,13,14,14,17,17,18,18],"right_children":[2,4,6,8,10,-1,12,-1,-1,14,-1,16,-1,18,20,-1,-1,22,24,-1,-1,-1,-1,-1,-1],"split_conditions":[1.508875E-1,2.508917E1,4.192319E0,4.396265E0,3.2202477E-11,-2.8885264E-2,-5.560232E-1,-2.3904426E-2,4.3836236E-3,4.8940143E-1,5.1181626E-2,4.566493E0,1.8238217E-2,3.7457466E0,5.0170946E-1,-3.0920922E-3,4.762191E-3,3.4142065E2,1.1208075E-2,4.2116135E-2,1.0602367E-2,1.03921415E-2,-1.902766E-2,1.1614521E-2,2.4744961E-2],"split_indices":[15,7,0,0,14,0,4,0,0,2,0,0,0,0,2,0,0,7,3,0,0,0,0,0,0],"split_type":[0,0,0,0,0,0,0,0,0,0,0,0,0,0,0,0,0,0,0,0,0,0,0,0,0],"sum_hessian":[1.08E2,1.01E2,7E0,2E0,9.9E1,2E0,5E0,1E0,1E0,9.6E1,3E0,4E0,1E0,8.9E1,7E0,1E0,3E0,7E0,8.2E1,6E0,1E0,4E0,3E0,1.7E1,6.5E1],"tree_param":{"num_deleted":"0","num_feature":"17","num_nodes":"25","size_leaf_vector":"0"}},{"base_weights":[-2.3881295E-1,-3.1636202E-1,-2.0460916E-1,-3.5618734E-1,-4.5997847E-2,-9.548109E-2,-2.2387989E-1,-4.3077317E-1,-1.6743934E-1,-8.398205E-2,7.3189735E-3,3.0612648E-3,-1.03948064E-1,-1.2620093E-1,-2.467524E-1,-4.8424953E-1,-1.225436E-1,-1.881467E-1,-6.330905E-2,9.89899E-3,1.0794699E-3,-1.1352301E-1,6.881654E-4,-1.9871825E-1,-2.5295274E-2,-6.608168E-2,-2.5290364E-1,-5.054888E-1,-9.344989E-2,-1.6556092E-1,3.2541752E-3,-2.0132758E-1,-5.453068E-2,-3.1419218E-2,-1.18591465E-1,-7.83787E-2,-2.2576833E-1,4.8690834E-3,-3.8334835E-2,-6.972867E-2,-2.553174E-1,-2.4242917E-1,-5.551933E-1,-5.319953E-3,1.2623578E-2,-1.0600662E-1,-2.5959772E-1],"categories":[],"categories_nodes":[],"categories_segments":[],"categories_sizes":[],"default_left":[1,1,1,1,1,1,1,1,1,0,1,0,1,1,1,1,1,1,0,0,0,1,0,1,1,0,1,1,0,0,0,0,0,0,0,0,0,1,0,0,1,0,0,0,0,0,0],"id":77,"left_children":[1,3,5,7,9,11,13,15,17,-1,19,-1,21,23,25,27,29,31,-1,-1,-1,33,-1,35,37,-1,39,41,-1,-1,-1,-1,-1,-1,-1,-1,-1,43,-1,-1,45,-1,-1,-1,-1,-1,-1],"loss_changes":[2.1112633E-1,3.0663657E-1,1.3634682E-1,2.9389787E-1,1.0740646E-2,1.1164829E-2,1.0961199E-1,2.373519E-1,7.494986E-3,0E0,3.7608406E-5,0E0,1.2100756E-2,9.741709E-2,3.8855076E-2,7.726669E-2,2.2184696E-2,1.3497025E-3,0E0,0E0,0E0,8.5148215E-4,0E0,8.34614E-3,2.9399646E-3,0E0,3.4196377E-3,4.8458576E-2,0E0,0E0,0E0,0E0,0E0,0E0,0E0,0E0,0E0,3.0418934E-4,0E0,0E0,2.5186539E-3,0E0,0E0,0E0,0E0,0E0,0E0],"parents":[2147483647,0,0,1,1,2,2,3,3,4,4,5,5,6,6,7,7,8,8,10,10,12,12,13,13,14,14,15,15,16,16,17,17,21,21,23,23,24,24,26,26,27,27,37,37,40,40],"right_children":[2,4,6,8,10,12,14,16,18,-1,20,-1,22,24,26,28,30,32,-1,-1,-1,34,-1,36,38,-1,40,42,-1,-1,-1,-1,-1,-1,-1,-1,-1,44,-1,-1,46,-1,-1,-1,-1,-1,-1],"split_conditions":[2.1598408E1,-3.1255215E-2,3.975521E0,7.1865626E-2,4.0825086E0,1.3334583E-4,7.8558395E1,4.5130644E0,5.8122275E3,-8.398205E-3,4.199088E0,3.061265E-4,1.22909375E-1,4.5378737E0,1.638824E1,4.8927036E-11,4.6017857E0,1.4204033E2,-6.330905E-3,9.89899E-4,1.07946995E-4,3.6026478E0,6.8816546E-5,2.3156578E1,2.66503E1,-6.608168E-3,-1.82675E-1,3.746401E-4,-9.344989E-3,-1.6556092E-2,3.2541752E-4,-2.0132758E-2,-5.4530683E-3,-3.1419217E-3,-1.1859147E-2,-7.83787E-3,-2.2576833E-2,4.6135416E0,-3.8334837E-3,-6.9728675E-3,2.1930344E1,-2.4242917E-2,-5.551933E-2,-5.319953E-4,1.2623578E-3,-1.0600663E-2,-2.5959773E-2],"split_indices":[10,16,0,15,0,11,7,0,8,0,0,0,15,0,5,14,0,5,0,0,0,0,0,5,10,0,15,11,0,0,0,0,0,0,0,0,0,0,0,0,10,0,0,0,0,0,0],"split_type":[0,0,0,0,0,0,0,0,0,0,0,0,0,0,0,0,0,0,0,0,0,0,0,0,0,0,0,0,0,0,0,0,0,0,0,0,0,0,0,0,0,0,0,0,0,0,0],"sum_hessian":[1.03E2,2.9E1,7.4E1,2.5E1,4E0,1.2E1,6.2E1,1.7E1,8E0,2E0,2E0,1E0,1.1E1,1.3E1,4.9E1,1.4E1,3E0,6E0,2E0,1E0,1E0,1E1,1E0,7E0,6E0,2E0,4.7E1,1.3E1,1E0,2E0,1E0,5E0,1E0,1E0,9E0,2E0,5E0,2E0,4E0,1E0,4.6E1,3E0,1E1,1E0,1E0,2E0,4.4E1],"tree_param":{"num_deleted":"0","num_feature":"17","num_nodes":"47","size_leaf_vector":"0"}},{"base_weights":[3.0146584E-1,3.1446517E-1,2.168323E-1,2.4547067E-1,3.346137E-1,1.547078E-1,2.659901E-1,3.5704026E-1,2.1940473E-1,9.348929E-2,3.6007705E-1,1.0085118E-1,3.6295658E-1],"categories":[],"categories_nodes":[],"categories_segments":[],"categories_sizes":[],"default_left":[1,1,0,1,1,0,0,1,0,0,1,0,0],"id":78,"left_children":[1,3,-1,5,7,-1,-1,9,-1,-1,11,-1,-1],"loss_changes":[5.3934097E-2,4.8535347E-2,0E0,5.40936E-3,1.02525234E-1,0E0,0E0,1.1956692E-2,0E0,0E0,5.1965714E-3,0E0,0E0],"parents":[2147483647,0,0,1,1,3,3,4,4,7,7,10,10],"right_children":[2,4,-1,6,8,-1,-1,10,-1,-1,12,-1,-1],"split_conditions":[5.6174297E1,4.917037E-13,2.168323E-2,3.8220053E0,1.3957774E-11,1.547078E-2,2.659901E-2,5.059479E-2,2.1940473E-2,9.348929E-3,3.108242E0,1.0085118E-2,3.629566E-2],"split_indices":[12,14,0,0,14,0,0,13,0,0,0,0,0],"split_type":[0,0,0,0,0,0,0,0,0,0,0,0,0],"sum_hessian":[1.1E2,9.3E1,1.7E1,2.4E1,6.9E1,6E0,1.8E1,5.6E1,1.3E1,1E0,5.5E1,1E0,5.4E1],"tree_param":{"num_deleted":"0","num_feature":"17","num_nodes":"13","size_leaf_vector":"0"}},{"base_weights":[4.2267904E-1,4.0055454E-1,7.172867E-1,4.550745E-1,3.22062E-1,4.675581E-1,1.7589802E-1,1.8200189E-1,3.4813085E-1,1.5529163E-1,4.767589E-1,2.0095086E-1,5.036974E-2,2.3625417E-1,9.134922E-2,3.590881E-1,1.0790499E-1,1.3187337E-1,2.0375332E-2,3.7918264E-1,1.6670331E-1,2.8051853E-2,2.5111437E-3,2.0898633E-1,3.9732873E-1],"categories":[],"categories_nodes":[],"categories_segments":[],"categories_sizes":[],"default_left":[1,1,0,1,1,1,1,1,1,0,0,0,0,0,1,1,0,0,1,1,0,0,0,0,0],"id":79,"left_children":[1,3,-1,5,7,9,11,13,15,-1,-1,-1,-1,-1,17,19,-1,-1,21,23,-1,-1,-1,-1,-1],"loss_changes":[3.9056396E-1,2.770996E-1,0E0,1.1292362E-1,9.729242E-2,7.823849E-2,2.4575293E-3,2.2681385E-2,5.6012154E-2,0E0,0E0,0E0,0E0,0E0,1.1693817E-2,6.822872E-2,0E0,0E0,3.4096232E-4,9.615898E-3,0E0,0E0,0E0,0E0,0E0],"parents":[2147483647,0,0,1,1,3,3,4,4,5,5,6,6,7,7,8,8,14,14,15,15,18,18,19,19],"right_children":[2,4,-1,6,8,10,12,14,16,-1,-1,-1,-1,-1,18,20,-1,-1,22,24,-1,-1,-1,-1,-1],"split_conditions":[1.7657103E1,4.962912E-4,7.172867E-2,6.852132E-1,-7.984797E0,-1.3818209E-1,3.614757E0,2.4564503E2,4.6387424E0,1.5529163E-2,4.767589E-2,2.0095086E-2,5.036974E-3,2.3625417E-2,2.1020363E1,1.5787995E0,1.07905E-2,1.3187337E-2,4.328577E0,2.9476974E-13,1.6670331E-2,2.8051853E-3,2.5111437E-4,2.0898633E-2,3.9732873E-2],"split_indices":[4,11,0,6,4,16,0,9,0,0,0,0,0,0,5,4,0,0,0,14,0,0,0,0,0],"split_type":[0,0,0,0,0,0,0,0,0,0,0,0,0,0,0,0,0,0,0,0,0,0,0,0,0],"sum_hessian":[1.03E2,9.8E1,5E0,5.5E1,4.3E1,5.2E1,3E0,8E0,3.5E1,2E0,5E1,2E0,1E0,4E0,4E0,3.3E1,2E0,2E0,2E0,2.9E1,4E0,1E0,1E0,4E0,2.5E1],"tree_param":{"num_deleted":"0","num_feature":"17","num_nodes":"25","size_leaf_vector":"0"}},{"base_weights":[1.9517381E-1,2.45271E-1,1.3890763E-1,2.0472728E-1,4.2346245E-1,1.5266226E-1,-1.5497851E-1,2.8239754E-1,1.3361502E-1,4.4917122E-1,9.60418E-2,4.9534567E-2,1.7218705E-1,-1.9570857E-1,-3.6759198E-2,1.5609328E-1,3.1779355E-1,-1.0983554E-1,1.5656643E-1,4.7473004E-1,1.22350335E-1,-7.966883E-2,1.9467172E-1,1.5005668E-1,2.9102495E-1,1.9263625E-2,1.7568763E-1,3.6946654E-2,3.3303732E-1,-1.564058E-1,-8.347511E-3,-1.11180335E-1,1.717235E-1,5.7117224E-2,-1.6234115E-1,2.1647489E-1,5.3729534E-2,5.1294684E-2,1.5960538E-1,6.300092E-2,3.2402956E-1,1.9984856E-1,2.7441502E-2,3.5756138E-1,1.7007479E-1,5.9547186E-2,2.1203946E-1,1.7116573E-1,5.369804E-2],"categories":[],"categories_nodes":[],"categories_segments":[],"categories_sizes":[],"default_left":[1,1,1,1,1,1,1,1,1,1,0,1,1,0,0,1,1,1,1,0,0,1,1,1,1,0,1,0,1,0,0,0,1,0,0,0,0,0,1,0,0,0,0,0,0,0,0,0,0],"id":80,"left_children":[1,3,5,7,9,11,13,15,17,19,-1,21,23,-1,-1,25,27,29,31,-1,-1,33,35,37,39,-1,41,-1,43,-1,-1,-1,45,-1,-1,-1,-1,-1,47,-1,-1,-1,-1,-1,-1,-1,-1,-1,-1],"loss_changes":[2.8727055E-1,3.3955383E-1,2.50028E-1,2.3843288E-1,4.1036606E-2,1.0020232E-1,7.2511435E-3,5.3219914E-2,1.7364752E-1,1.709497E-2,0E0,2.030314E-1,7.4676275E-2,0E0,0E0,1.5383214E-2,6.047523E-2,1.2873374E-2,1.2460703E-1,0E0,0E0,7.7123E-2,3.7338287E-3,2.9535055E-2,2.4740875E-2,0E0,1.600644E-2,0E0,3.1318665E-3,0E0,0E0,0E0,1.0043597E-1,0E0,0E0,0E0,0E0,0E0,3.4884512E-2,0E0,0E0,0E0,0E0,0E0,0E0,0E0,0E0,0E0,0E0],"parents":[2147483647,0,0,1,1,2,2,3,3,4,4,5,5,6,6,7,7,8,8,9,9,11,11,12,12,15,15,16,16,17,17,18,18,21,21,22,22,23,23,24,24,26,26,28,28,32,32,38,38],"right_children":[2,4,6,8,10,12,14,16,18,20,-1,22,24,-1,-1,26,28,30,32,-1,-1,34,36,38,40,-1,42,-1,44,-1,-1,-1,46,-1,-1,-1,-1,-1,48,-1,-1,-1,-1,-1,-1,-1,-1,-1,-1],"split_conditions":[7.2440624E-2,1.8946626E-3,1.585181E-1,1.000434E-1,1.1617763E-2,2.2312168E1,4.860543E-1,3.2153828E1,1.0291737E-1,7.402828E-1,9.60418E-3,5.172788E-3,8.9115024E-1,-1.9570857E-2,-3.6759197E-3,4.7194558E-1,-7.973551E0,5.564307E-1,5.2675026E1,4.7473006E-2,1.2235033E-2,1.3689232E-1,1.8160873E1,1.4313578E-4,1.634035E-1,1.9263625E-3,5.827532E-1,3.6946654E-3,-1.8730786E0,-1.5640581E-2,-8.347511E-4,-1.1118034E-2,4.8235886E1,5.7117227E-3,-1.6234115E-2,2.1647489E-2,5.3729536E-3,5.1294686E-3,1.3254365E-1,6.3000917E-3,3.240296E-2,1.9984856E-2,2.74415E-3,3.5756137E-2,1.700748E-2,5.9547187E-3,2.1203946E-2,1.7116575E-2,5.3698043E-3],"split_indices":[15,11,13,13,11,5,1,12,13,1,0,11,4,0,0,1,4,1,7,0,0,6,5,11,1,0,1,0,4,0,0,0,12,0,0,0,0,0,13,0,0,0,0,0,0,0,0,0,0],"split_type":[0,0,0,0,0,0,0,0,0,0,0,0,0,0,0,0,0,0,0,0,0,0,0,0,0,0,0,0,0,0,0,0,0,0,0,0,0,0,0,0,0,0,0,0,0,0,0,0,0],"sum_hessian":[1.13E2,5.8E1,5.5E1,4.9E1,9E0,5.3E1,2E0,2.2E1,2.7E1,8E0,1E0,9E0,4.4E1,1E0,1E0,6E0,1.6E1,2E0,2.5E1,7E0,1E0,5E0,4E0,3.9E1,5E0,1E0,5E0,1E0,1.5E1,1E0,1E0,1E0,2.4E1,2E0,3E0,3E0,1E0,4E0,3.5E1,1E0,4E0,4E0,1E0,1.2E1,3E0,7E0,1.7E1,3.1E1,4E0],"tree_param":{"num_deleted":"0","num_feature":"17","num_nodes":"49","size_leaf_vector":"0"}},{"base_weights":[-2.331558E-1,-5.7533056E-1,-2.2115885E-1,-1.9692026E-1,-3.4367847E-1,-2.450582E-1,-1.3341251E-1,-1.7377177E-2,-3.8905174E-1,-1.8962507E-1,-3.1872666E-1,-1.8168658E-2,-1.4891392E-1,-3.805816E-2,1.1992395E-2,-5.4145813E-1,-2.4421948E-1,6.5374374E-4,-1.9598949E-1,-1.19938836E-1,-3.6092743E-1,-4.6934765E-2,7.948086E-3,-8.228525E-2,-1.787997E-1,-6.065649E-1,-1.0796231E-1,-2.6041612E-1,-5.7323158E-2,-4.2866845E-2,-2.0539586E-1,-3.7692305E-1,-6.049654E-2,-1.3846944E-1,-5.948181E-2,-2.5134534E-2,-1.99555E-1,-1.1260142E-1,-2.909208E-1],"categories":[],"categories_nodes":[],"categories_segments":[],"categories_sizes":[],"default_left":[1,0,1,1,1,1,1,1,1,1,1,1,1,0,0,1,1,0,1,0,1,0,0,1,1,0,0,1,0,0,0,0,0,0,0,0,0,0,0],"id":81,"left_children":[1,-1,3,5,7,9,11,13,15,17,19,21,23,-1,-1,25,27,-1,29,-1,31,-1,-1,33,35,-1,-1,37,-1,-1,-1,-1,-1,-1,-1,-1,-1,-1,-1],"loss_changes":[3.120017E-1,0E0,2.441411E-1,2.4244809E-1,2.3012495E-1,1.4374518E-1,7.053858E-2,2.2785836E-3,1.7679238E-1,3.766954E-2,1.2449074E-1,4.8807035E-3,5.6972444E-2,0E0,0E0,1.03854895E-1,1.2315989E-2,0E0,3.4405112E-2,0E0,5.4086685E-2,0E0,0E0,8.4190965E-3,7.152903E-2,0E0,0E0,3.314197E-3,0E0,0E0,0E0,0E0,0E0,0E0,0E0,0E0,0E0,0E0,0E0],"parents":[2147483647,0,0,2,2,3,3,4,4,5,5,6,6,7,7,8,8,9,9,10,10,11,11,12,12,15,15,16,16,18,18,20,20,23,23,24,24,27,27],"right_children":[2,-1,4,6,8,10,12,14,16,18,20,22,24,-1,-1,26,28,-1,30,-1,32,-1,-1,34,36,-1,-1,38,-1,-1,-1,-1,-1,-1,-1,-1,-1,-1,-1],"split_conditions":[1.4170051E0,-5.7533056E-2,5.7770626E1,-4.3293986E-2,3.8428147E-13,3.098233E2,-3.966748E-2,4.607856E0,-6.771859E0,3.7536893E0,3.4824119E0,-7.470308E0,1.0143436E2,-3.8058162E-3,1.1992395E-3,7.545415E2,2.4546759E2,6.537438E-5,7.489193E-5,-1.1993884E-2,5.401534E1,-4.6934765E-3,7.9480855E-4,3.8341736E1,1.999485E1,-6.0656488E-2,-1.0796231E-2,-4.0731415E-2,-5.732316E-3,-4.2866846E-3,-2.0539587E-2,-3.7692305E-2,-6.049654E-3,-1.3846944E-2,-5.9481813E-3,-2.5134534E-3,-1.99555E-2,-1.1260143E-2,-2.9092079E-2],"split_indices":[10,0,12,16,14,9,16,0,4,0,0,4,7,0,0,9,9,0,11,0,12,0,0,12,10,0,0,16,0,0,0,0,0,0,0,0,0,0,0],"split_type":[0,0,0,0,0,0,0,0,0,0,0,0,0,0,0,0,0,0,0,0,0,0,0,0,0,0,0,0,0,0,0,0,0,0,0,0,0,0,0],"sum_hessian":[1.06E2,2E0,1.04E2,8.9E1,1.5E1,4.9E1,4E1,2E0,1.3E1,3E1,1.9E1,5E0,3.5E1,1E0,1E0,5E0,8E0,1E0,2.9E1,4E0,1.5E1,2E0,3E0,1.2E1,2.3E1,4E0,1E0,7E0,1E0,2E0,2.7E1,1.4E1,1E0,2E0,1E1,3E0,2E1,2E0,5E0],"tree_param":{"num_deleted":"0","num_feature":"17","num_nodes":"39","size_leaf_vector":"0"}},{"base_weights":[2.852266E-1,2.553537E-1,3.3621973E-1,1.9207536E-1,2.717177E-1,3.4396705E-1,3.253174E-2,2.7737844E-1,1.3161355E-1,3.5922644E-1,1.359002E-1,3.9108264E-1,2.1477243E-1,3.9800575E-1,1.1246419E-1,1.1716783E-1,4.0512183E-1],"categories":[],"categories_nodes":[],"categories_segments":[],"categories_sizes":[],"default_left":[1,1,1,0,1,1,0,0,0,1,0,1,0,1,0,0,0],"id":82,"left_children":[1,3,5,-1,7,9,-1,-1,-1,11,-1,13,-1,15,-1,-1,-1],"loss_changes":[7.561684E-2,2.1328926E-2,7.350969E-2,0E0,6.320238E-3,6.2304974E-2,0E0,0E0,0E0,6.326246E-2,